[-6.64494839e-03  7.77865155e-03  1.05075566e-02  6.08606322e-04
  1.07752876e-02 -1.90881500e-03  5.81339141e-03  3.52463545e-03
 -7.04098912e-03 -1.41993416e-02 -4.23662132e-05  6.99845492e-04
 -5.90846082e-03 -1.15248933e-03 -7.98272900e-03  1.77884325e-02
 -5.09219943e-03  4.77358326e-03 -1.29655702e-02 -1.28810946e-02
  4.76578716e-03 -7.28829345e-03 -1.22135761e-03 -1.52702052e-02
  1.69987082e-02 -2.27604201e-03 -6.78428542e-03 -2.13906690e-02
 -1.03793927e-02 -1.02217402e-02  7.25953886e-03  8.93381238e-03
  4.92899353e-03  1.27014741e-02  1.42286886e-02 -1.06921531e-02
 -1.23368008e-02  1.06748221e-02  5.26216533e-03  7.58610526e-03
  4.28858493e-03  1.34225923e-03  1.80971473e-02 -2.89110420e-03
  1.04059847e-02  8.09763651e-03 -5.37816295e-03 -9.46287066e-03
 -4.47526947e-03 -9.09852982e-03 -1.49053093e-02  2.23565698e-02
  6.63049868e-04  2.02122214e-03 -8.64882488e-03  1.35685643e-02
  1.28836650e-02  7.42899254e-03 -1.43155549e-02 -3.81267513e-03
  1.31001780e-02 -6.12545712e-03 -1.23350052e-02 -5.61304204e-03
  1.24440175e-02  1.93844121e-02 -1.24196308e-02  4.97567141e-03
  1.34690963e-02 -8.76602903e-03 -9.80554242e-03 -7.34845223e-03
 -8.19745846e-03  2.04898324e-03  1.35564618e-02  1.57661419e-02
 -1.56861078e-02 -2.29674485e-03 -9.49152745e-03  9.78496857e-04
  7.21213175e-04 -7.24488636e-03 -6.38856832e-03 -1.01972362e-02
  3.31078749e-03  1.47072133e-02  5.47824288e-03 -9.77558084e-03
 -7.95424567e-04 -1.08306659e-02 -9.40072723e-03 -6.76573836e-04
  9.54719447e-03 -4.49466845e-03 -1.23793446e-03 -1.34129785e-02
  6.99623628e-03  1.43593512e-02  1.36161586e-02 -8.87935888e-03
 -1.40742874e-02 -5.97028621e-03 -4.02944442e-03 -6.19986001e-03
  2.35811379e-02  7.32400594e-03  1.54850427e-02  1.23163480e-02
 -6.24081120e-03 -4.83212573e-03 -2.52772262e-03  1.30691119e-02
 -1.06382435e-02  4.20757290e-03  9.68396664e-03  1.35910846e-02
  1.25310505e-02 -9.72118508e-03 -1.67450663e-02 -4.44844505e-03
  8.73683579e-03  6.11473015e-03 -1.05611002e-02 -6.53513335e-03
  1.68971834e-03 -4.84511349e-03  1.75255090e-02 -8.95388145e-03
 -9.29920294e-04 -5.72587829e-03 -6.45812508e-03  1.14945965e-02
  9.76940524e-03 -7.90239871e-03 -7.15743052e-03  2.03260500e-02
 -8.03976413e-03  9.59728006e-03  3.28534166e-04  1.09754158e-02
 -5.25227375e-03  4.02333913e-03 -5.22116385e-03  6.30689785e-03
 -1.08163729e-02 -3.81125999e-03  7.87808560e-03 -1.14611378e-02
  3.53891985e-04  1.26204751e-02 -1.23190153e-02  6.06605085e-03
  2.98794662e-03 -6.12835633e-03  1.21154133e-02  9.93185770e-03
 -5.72890369e-03  1.55591667e-02  9.78883635e-03 -8.63648206e-03
  2.84945196e-03 -6.15436072e-03  5.65144140e-03 -9.23382491e-03
 -8.57619662e-03 -6.41578110e-03 -1.28003014e-02  1.93420555e-02
  1.82309244e-02 -7.03825196e-03 -4.96287923e-03  8.53541121e-03
 -1.02995904e-02 -6.10069185e-03 -9.12493933e-03 -3.92346131e-03
 -1.69620421e-02 -1.28463106e-02  1.51697034e-02  8.78372882e-03
  1.06014471e-04  1.01344539e-02  1.35242241e-02  1.58542059e-02
  2.95439572e-03  6.92441687e-03  1.04923351e-02 -7.57172704e-03
  1.48008075e-06  1.09773818e-02 -5.48647065e-03  1.93065498e-02
 -5.30387647e-03  9.90634784e-03 -9.21770092e-03 -7.75402971e-03
  1.01158395e-02  5.14228130e-04 -1.20834345e-02  1.51408212e-02
 -1.24732396e-02 -1.08916154e-02 -1.12035843e-04 -6.46108948e-03
  1.10604218e-03  8.88958015e-03  8.39641131e-03 -9.92872287e-03
 -1.19895842e-02 -1.46147786e-02 -7.82934483e-03  4.08426253e-03
  3.90965492e-03  2.82901281e-04  7.46746548e-03  1.92421470e-02
 -6.71171444e-03  2.29256484e-03  6.86729979e-03  4.37773857e-03
 -8.57735518e-03  2.27680542e-02  4.84271813e-03  1.23323873e-02
  2.17090570e-03  9.43367649e-03 -6.79771183e-03  1.22643048e-02
  8.64010304e-03  1.15379738e-02 -9.19974502e-03 -8.60575121e-03
 -7.10671674e-03 -6.17874647e-03 -8.57213046e-03  7.74157350e-04
 -3.14533338e-03 -7.11424369e-03 -9.41473152e-03 -5.96159557e-03
  5.86806145e-03  2.33727042e-02  2.33446117e-02 -5.85512817e-03
 -7.56722223e-03 -2.08284687e-02  6.34224294e-03  7.80646456e-03
  9.16040223e-03  1.46828266e-02  2.91704526e-03 -2.56795459e-03
  1.37378951e-03  1.78348012e-02  8.42470117e-03 -6.92875171e-03
  3.19536054e-03 -1.94030590e-02 -5.17313788e-03 -7.36092264e-03
  8.07019603e-03  1.75552454e-03  6.26827450e-03 -3.99039267e-03
 -9.05081630e-04 -1.08389305e-02 -1.12228352e-03 -5.98599855e-03
  9.15876590e-03 -1.00816842e-02 -8.02810956e-03 -9.40344390e-03
  7.55512295e-03  1.36787945e-03  1.76236983e-02  1.02675222e-02
  2.13378407e-02 -7.82243069e-03  4.53292206e-03  5.43623324e-03
  2.22380436e-03 -1.14784082e-02  4.13953653e-03  1.83387548e-02
  8.47266987e-03 -4.46832459e-03 -1.95338670e-03  1.79143902e-03
  1.53630245e-02  2.53641158e-02 -6.06664596e-03  5.90138230e-03
  4.78704832e-03 -9.00658313e-03 -8.12402088e-03 -7.32744485e-03
  7.94310775e-03  8.74665007e-03 -1.39494268e-02 -1.20064653e-02
 -5.52147767e-03  5.83138550e-03 -2.46231747e-03  4.83063748e-03
  9.87510197e-03 -5.37733920e-03 -2.73014861e-03 -7.54402066e-03
 -6.99144742e-03  1.47973765e-02 -6.02739444e-03 -3.27031710e-03
  1.01984553e-02 -1.00791203e-02  1.05925184e-02  5.63206943e-03
 -3.00987950e-03  2.09158678e-02  6.51872717e-03 -6.49676379e-03
 -1.26565695e-02  9.43349209e-03  4.52495972e-03  8.31529312e-03
 -7.60731660e-03  7.62409717e-03  8.24760087e-03 -4.98354062e-03
  5.38414018e-03 -7.66763324e-03  3.61528783e-03  7.13485852e-03
 -3.19966953e-03  1.08180977e-02  7.97347259e-03 -3.34483641e-03
 -4.68157558e-03  2.30074115e-03 -6.76569855e-03 -5.91377309e-03
 -7.24550104e-03  1.76573899e-02 -9.21683293e-03  1.53054309e-03
  1.79679692e-02 -7.16655236e-03 -7.38952262e-03 -2.53118062e-03
 -6.17527030e-03  1.62871461e-02 -1.14203133e-02  8.85957852e-03
 -1.12396982e-02 -1.36545179e-02  6.71902299e-03 -9.62845236e-03
  6.31299196e-03 -5.86745469e-03  1.41266426e-02  6.89273234e-03
  1.34008452e-02 -4.31312760e-03  2.19644792e-02 -1.04830414e-02
  1.40609015e-02 -4.56005940e-03 -1.07228262e-02 -1.43136606e-02
  8.17873795e-03  5.76036843e-03  1.68908257e-02  9.49577615e-03
 -9.62060131e-03 -7.17211794e-03 -4.37262282e-03  1.86291281e-02
 -1.20781763e-02 -1.02803707e-02  7.58726941e-03  1.82640478e-02
 -9.51304194e-03  7.09243864e-03  6.38480950e-03 -7.20794918e-03
 -7.93459360e-03  8.46146233e-03  5.79372328e-03  1.40583254e-02
 -5.12045529e-03  7.23217090e-04 -1.17287431e-02 -3.09745013e-03
 -6.78221183e-03  9.22295323e-04  1.74007490e-02  2.31218226e-02
  8.72108340e-03  8.59752949e-03  1.15263760e-02  6.14043791e-03
  2.55961972e-03  7.42737809e-03 -8.88764393e-03  9.13045742e-03
  9.70294885e-03 -6.44926680e-03 -6.35567820e-04  3.55612556e-03
  1.87357992e-03 -9.63326171e-03 -5.78231877e-03  1.24389781e-02
 -1.03634968e-02 -4.47973097e-03 -5.85090369e-03  5.43887867e-03
  1.55908931e-02 -3.09549598e-03 -1.00356964e-02  1.69264358e-02
  8.69676564e-03  1.94435741e-03 -7.66803802e-04 -1.03673711e-02
  1.38022648e-02 -7.52718607e-03  1.16708698e-02  1.03430767e-02
  2.57498994e-02  1.30477995e-02  8.73841462e-04 -3.88592435e-03
 -8.16120859e-03 -6.78481627e-03 -1.20342178e-02 -8.81769229e-03
  1.39911706e-03  1.12778125e-02  1.58498548e-02  1.23566044e-02
  6.03854097e-03 -4.08928236e-03  8.93111806e-03  4.22006473e-03
  2.35318672e-02  1.72956195e-02 -4.78455191e-03 -5.90830203e-03
  2.03031264e-02  1.44809270e-02  2.72527715e-04  1.48278680e-02
 -1.02810208e-02 -1.08908424e-02 -1.77308102e-04 -7.54382461e-03
  1.25228544e-03  1.45958038e-02  1.75565388e-02 -1.47643527e-02
 -8.27857479e-03 -4.22341144e-03 -5.15512377e-03 -7.14456756e-03
  3.49317864e-03 -1.08860843e-02 -6.52869977e-03 -2.84556136e-03
  1.32876690e-02  4.58422396e-03 -3.70929553e-03 -6.03921246e-03
  3.22071952e-03  9.89440456e-03 -8.34894553e-03  1.33592384e-02
 -6.98248856e-03  3.31524666e-03 -7.48401089e-03 -1.19584249e-02
  7.04267202e-03 -5.39954379e-03 -6.76114392e-03 -1.02804909e-02
 -1.02776531e-02  6.41833153e-03  1.40116271e-02 -1.40479468e-02
  1.12001169e-02 -7.78041221e-03 -1.09459171e-02 -5.63520100e-03
 -6.08239230e-03  1.32931266e-02 -1.92192278e-03  2.26709843e-02
  1.25585459e-02 -3.76716559e-03 -3.42602422e-03  1.63523145e-02
  5.02586365e-03  1.35799600e-02 -1.11521478e-03  1.25335772e-02
  1.30822444e-02 -5.32001397e-03 -1.09976949e-02  9.10947751e-03
 -9.15847532e-03  5.62407775e-03  4.55951737e-03 -4.34491877e-03
 -1.22716725e-02  1.15934256e-02  1.42738521e-02 -9.34372935e-03
  1.33229587e-02  7.63398036e-03  6.27977960e-03 -1.05601801e-02
  4.17168532e-03  5.19825704e-03 -1.29488399e-02  9.88758449e-03
 -9.92496219e-03 -8.00864492e-03 -9.33126640e-03 -5.90255531e-03
  1.70010086e-02 -3.78407974e-04  1.11881560e-02  1.17287617e-02
  4.53973981e-03 -4.81226901e-03 -6.02325192e-03  1.64849439e-03
  7.78614450e-03 -5.83478995e-03 -1.24023966e-02  5.98006835e-03
 -6.60063792e-03 -1.03813112e-02  8.39964394e-03  9.28364228e-03
 -6.04862347e-03  9.13708936e-03  2.24091262e-02 -9.33698658e-03
 -1.19346529e-02 -4.83720656e-03 -8.86623934e-03 -2.60436675e-03
  7.50892842e-03  1.25918603e-02  1.16127338e-02  7.48843467e-03
  9.32895299e-03 -6.52209902e-03  1.64799336e-02  4.39767679e-03
 -1.38681289e-02 -7.17878249e-03 -1.01121552e-02 -1.94869679e-03
 -7.18533713e-03  1.81329269e-02  1.29025923e-02 -8.37032124e-03
  1.14792148e-02  1.79801825e-02  7.97573477e-03  2.10415274e-02
  3.29418411e-03  8.38899519e-03  8.00042041e-03 -7.99266249e-03
 -7.01947976e-03 -3.27597884e-03 -5.40427910e-03  9.81014408e-03
 -1.25568612e-02  8.40683747e-03 -1.00771915e-02  8.93979892e-03
 -2.42456212e-03 -8.83314945e-03  5.64434519e-03  1.28300013e-02
 -2.74520018e-04 -1.11334277e-02  8.08344502e-03 -7.43137905e-03
 -1.56248163e-04  1.49885621e-02 -9.06266924e-03  1.48547068e-03
 -1.05456393e-02 -8.81150365e-03  9.80181620e-03 -2.94657052e-03
  9.72348545e-03 -9.05113388e-03 -7.29147345e-03  8.19647685e-03
 -1.25372978e-02  1.07193124e-02 -7.72542879e-03  4.10714699e-03
 -1.03236577e-02 -4.06531012e-03  1.19494312e-02  9.29881446e-03
  6.43235864e-03 -1.19289427e-04  9.63002443e-03  5.73499966e-03
  5.26649365e-03  1.30016236e-02  9.09191091e-04 -6.59509189e-03
 -5.13221743e-03 -8.84459075e-03 -7.93541875e-03  7.32344901e-03
  7.71318749e-03 -7.87789933e-03  1.64850615e-02  8.64531938e-03
  4.43509640e-03  9.64988396e-03  5.52265998e-03 -5.67064481e-03
 -7.29571143e-03 -8.13938025e-03  7.83929077e-04 -1.03209065e-02
  7.43279932e-03 -6.17248937e-03 -6.06449833e-03 -5.41434018e-03
 -7.69337779e-03 -4.24193870e-03  6.54012850e-03  1.35015501e-02
 -6.42177509e-03 -1.74839478e-02 -5.29250177e-03 -1.26353418e-02
  1.54832900e-02 -1.14376741e-02 -6.15678215e-03  9.72713344e-03
  9.71448421e-03  1.21836532e-02  2.05187569e-03  1.76963285e-02
 -2.07205280e-03 -1.85843348e-03  5.07299276e-03 -6.26620557e-03
 -5.88328531e-03  9.94179677e-03  4.54389490e-03 -8.24277569e-03
  1.91025380e-02  2.21560680e-04 -4.16451786e-03  2.75749783e-03
 -1.81611851e-02 -1.01428950e-05  1.42010283e-02 -7.96910003e-03
  2.33769305e-02 -1.22578200e-02 -1.44538027e-03  5.49596455e-03
  5.29791787e-03  7.32472539e-03  1.45478994e-02  1.52955130e-02
 -6.44806074e-03  5.65110333e-03  7.73177901e-03 -2.72376346e-03
 -2.51704296e-05  3.46657657e-03 -1.06079020e-02 -9.40010604e-03
  7.59202335e-03 -7.95499329e-03  9.42963362e-03 -9.69904941e-03
 -8.32988694e-03 -5.57970488e-03 -1.00923134e-02  1.31276315e-02
 -4.88398364e-03  1.70509238e-02 -6.56988053e-03 -1.58584211e-02
 -1.38272159e-02  5.93623193e-03  2.96443538e-03 -2.09402330e-02
  1.81689672e-02 -5.14231250e-03  1.30140623e-02 -8.07955279e-04
 -1.39174340e-02  5.21395309e-03  7.83369131e-03  1.43707823e-02
  3.34431278e-03  8.61721858e-03  5.01040090e-03 -7.52758840e-03
  7.08254171e-04  6.31456636e-03 -8.53068661e-03  5.12044178e-04
  4.45537735e-03 -5.28951036e-03 -4.45992220e-03 -1.49525879e-02
  3.22431233e-03  1.05122542e-02  1.67850330e-02  6.78188051e-04
  2.99384701e-03  6.68914896e-03 -1.07462639e-02 -6.72412617e-03
 -7.01707415e-03  1.48420027e-02 -7.43538700e-03  6.22957246e-03
  4.57381131e-03 -9.84016154e-03 -8.32639076e-03 -6.25710888e-03
 -2.08102283e-03  1.53691564e-02 -6.05787430e-03 -7.30695087e-04
 -1.14861261e-02 -5.56878140e-03 -7.93765392e-03 -3.04150884e-03
  1.50097953e-02  6.89529488e-03  2.34823171e-02  1.61252562e-02
 -7.09591247e-03 -3.28033860e-03 -1.15243280e-02 -1.52529113e-03
  9.35718417e-03 -1.08169848e-02 -4.32750536e-03  1.77251268e-02
 -5.05276211e-03  2.78237485e-03  1.79695711e-02  1.32245943e-02
 -8.33333097e-03 -8.72122217e-03 -2.36894353e-03 -9.50711127e-03
 -1.06262397e-02  3.40988045e-03  5.34000807e-03  1.30151911e-02
 -1.30760469e-04 -2.48045288e-03  1.17936917e-02 -1.75838210e-02
 -5.87479444e-03  1.73359364e-02  7.97287561e-03 -6.38865773e-03
 -3.98195628e-03 -5.44793485e-03 -9.03907977e-03 -1.03994813e-02
  7.06282910e-03  1.66886195e-03  3.88566055e-03  2.08164030e-03
  1.93947158e-03  6.14590617e-03 -3.34363314e-03 -8.49908404e-03
 -7.02332007e-03 -3.14775226e-03  1.10773044e-02  2.03454029e-02
  1.07379425e-02 -7.64620537e-03 -1.00697286e-03  1.11944077e-03
 -6.02031779e-03  7.83129781e-03  9.33687296e-03 -1.01152640e-02
  7.41716335e-03 -8.02143198e-03  6.37934823e-03  3.95533582e-03
  1.11547299e-02 -7.03603728e-03  5.86489681e-03 -1.02697574e-02
  1.21494066e-02  1.58334803e-02  2.25344803e-02 -6.01654500e-03
 -3.68213747e-03  1.92491133e-02  6.04293309e-03 -7.28900079e-03
  2.47856090e-03 -7.02530611e-03 -6.49028283e-04  5.80228027e-03
 -1.48962336e-02 -7.28444848e-03  5.15903113e-03  6.11210940e-03
 -1.25949457e-02 -1.01342928e-02  5.47309825e-03 -6.37674145e-03
 -7.10260309e-03 -8.39649327e-03  8.35943595e-03 -9.19630751e-03
 -7.45233335e-03 -8.29031970e-03  3.52395163e-03  5.24424529e-03
  1.14001306e-02  1.40085388e-02  7.82315433e-03 -6.03424013e-03
 -4.74852091e-03  1.45823322e-02  1.42801582e-07 -4.79465630e-03
  3.35415592e-03 -2.61364225e-03 -6.40097493e-03  2.28787977e-02
  2.30829194e-02  9.21133254e-03  8.59480072e-03 -2.15391675e-03
 -9.02099535e-03 -1.18025905e-02  1.47915855e-02  9.92157217e-03
  4.00237113e-05 -1.17899599e-02 -8.64655059e-03  5.09476429e-03
  6.70150854e-03  2.59306235e-03 -5.31515246e-03  2.05839109e-02
  1.70393102e-02 -1.11302100e-02  2.05073040e-04  1.03203384e-02
 -1.10496162e-02 -1.34926913e-02 -5.90286963e-03 -2.26218556e-03
  5.60200028e-03 -6.28831703e-03 -1.01434523e-02 -7.81758409e-03
 -8.27278290e-03  1.58759090e-03  2.37933602e-02  2.05337629e-03
 -2.71455874e-03 -9.44716390e-03  1.85404089e-03 -6.33932417e-03
  2.32638642e-02 -1.20448014e-02  1.30325360e-02  1.75235537e-03
  2.20346148e-03 -9.16987937e-03 -4.20227443e-04  3.28044756e-03
  4.27495642e-03  5.74656390e-03  9.30423848e-03 -8.08133511e-04
 -6.89702109e-03 -6.09460520e-03  1.27669191e-03 -6.05529919e-03
 -1.22546882e-03  8.68101697e-03 -6.12867950e-03  1.52182055e-03
 -1.75868603e-03 -3.17358947e-03  7.82201905e-03 -7.59558938e-03
 -7.26961810e-03 -9.05177370e-03 -1.22465715e-02 -1.43613573e-02
 -6.44172728e-03  2.20617969e-02  1.54332565e-02 -7.99050834e-03
  1.61124971e-02 -9.59825329e-03 -9.67742316e-03  1.54621881e-02
  7.74206826e-03  4.37603286e-03 -5.93709573e-03 -6.38950896e-03
 -7.79451709e-03  4.67550615e-03 -3.90039897e-03 -8.08553956e-03
  1.11073516e-02 -4.33501648e-03 -7.31212134e-03 -2.01191735e-02
  1.15174307e-02 -9.55243129e-03 -3.31515446e-03 -1.09732458e-02
 -4.29513445e-03  6.74562296e-03  1.87460762e-02 -1.50875263e-02
  8.42163246e-03  8.67617223e-03 -6.17173687e-03  1.16077624e-02
 -3.39860708e-04  3.75818158e-03 -3.51403328e-03 -7.47544877e-03
  9.15472955e-03  1.11257648e-02  9.52736102e-03 -8.61957483e-03
 -3.21542774e-03 -3.80315352e-03 -6.69879001e-03 -1.06760440e-02
  2.78119626e-03 -8.93821102e-03  1.24663794e-02  3.10680154e-03
 -5.02058817e-03 -1.06355306e-02 -5.90831507e-03 -6.53148349e-03
  6.03629416e-03 -3.44934687e-03  9.38243419e-03 -6.26532082e-03
 -1.36923203e-02 -6.99348515e-03  3.24078090e-03  5.52565232e-03
  2.08331570e-02 -7.20629701e-03 -4.57794126e-03  1.64303393e-03
 -6.10465510e-03 -2.59956601e-03  1.49197774e-02 -7.44835893e-03
  9.29758884e-03 -7.31099863e-03 -6.42743427e-03  1.56960264e-02
 -8.11580196e-03  1.52257979e-02 -8.36898386e-03 -2.51334487e-03
 -1.14877239e-05  1.04515860e-02  1.85485948e-02  1.47670005e-02
  1.77544877e-02 -1.83498592e-03  6.83484180e-03 -7.55584659e-03
  2.55483156e-03  9.72372573e-03  1.18609415e-02 -7.10008759e-03
 -2.44337437e-03 -7.92536512e-03  9.40878410e-03  1.05662011e-02
  1.05751464e-02 -1.01677412e-02  2.45013330e-02  2.19009165e-02
  1.87109609e-03 -7.57592404e-03  7.05937017e-03  2.80060084e-03
  7.21932622e-04  1.46039212e-02 -1.04749370e-02 -5.04750013e-03
 -8.13611224e-03 -6.83108065e-03  1.19479373e-02 -1.43054705e-02]
