[-0.01896255 -0.01749652  0.00308691 -0.00609535 -0.00590834 -0.00656772
 -0.00148656  0.01381927  0.01481578  0.00974655  0.01862601 -0.00745904
 -0.00590757  0.01023442  0.0074606   0.00719939  0.01445191 -0.0208281
  0.01178111  0.00784579  0.00857654 -0.02122944 -0.00135361 -0.01756787
  0.00406261 -0.00629634  0.01021615  0.00834865  0.00592393  0.0116467
 -0.0131968  -0.00679973  0.0124168   0.00901675 -0.00590831 -0.01028464
  0.0086254   0.00012373  0.01445692  0.01482175 -0.02206196 -0.00908717
  0.01376609 -0.02292505  0.01328415 -0.00718167 -0.02192915 -0.02212733
 -0.02109961  0.0043234   0.01030946 -0.00590833 -0.00345985 -0.01766889
 -0.00590832  0.01363254 -0.00875323 -0.00715079  0.01273179  0.00502456
 -0.00047559 -0.01788626  0.00325913 -0.00590828 -0.02027659  0.0071547
  0.01044947 -0.02185312 -0.01095775  0.01943783 -0.00857248  0.00921251
 -0.00658154 -0.00723809 -0.02163442 -0.01466022  0.01466365  0.00821318
 -0.00171688  0.00690166 -0.00590833 -0.0109236  -0.002739    0.01490754
 -0.02441454 -0.00604253  0.0079985  -0.01007122 -0.00685498  0.00880325
  0.0090634   0.0215671  -0.00612341 -0.00590833 -0.00137615 -0.01153465
 -0.01956243  0.01571602 -0.00859052  0.01183451 -0.01913165  0.0062795
  0.00325768  0.01153441  0.00061261 -0.00234215  0.01418632 -0.00631699
 -0.00590832  0.01668572  0.01451644  0.01477985  0.01475987  0.01110868
 -0.00639764  0.00126471  0.01264375 -0.01724885  0.00992322  0.00660894
  0.00268101 -0.00684335  0.00318796  0.01402786  0.00743975  0.00927907
  0.0145084   0.01277584 -0.00605829 -0.00832185 -0.00658427 -0.00019262
 -0.00239697 -0.00781444 -0.00659287 -0.00150016  0.02497147 -0.00869561
 -0.02376831  0.00754424 -0.00317176  0.00108143 -0.01747015 -0.01835311
  0.01158367  0.01446214 -0.00065296 -0.00165771 -0.0095426  -0.00138249
 -0.00628106 -0.0126379  -0.00590834 -0.01360138 -0.0013311  -0.016218
 -0.00681622 -0.00274721  0.01259148 -0.01111722 -0.00621174 -0.00590827
 -0.00614774  0.00792424  0.01420998 -0.00617792  0.011458   -0.00590833
  0.0149188   0.00702359  0.00380325 -0.01146293  0.00553276 -0.00652527
  0.00928644 -0.01473998  0.00366314 -0.02255443  0.01293326  0.02122087
 -0.01805825  0.01701296 -0.00700973  0.01468691  0.00052977 -0.0066279
 -0.01263651  0.00054842  0.00854684  0.01203385  0.01273243  0.01469543
  0.00869431 -0.00684886 -0.00646836  0.01522805  0.00902508 -0.01811812
 -0.00627004  0.01523009 -0.02056101 -0.00599599 -0.01146129 -0.00613678
  0.00185854  0.01207588  0.0113926   0.01447369 -0.00590834  0.01489758
  0.01502595 -0.00666155 -0.00613015  0.02464416  0.01007309 -0.001594
 -0.00653811  0.01519467 -0.01782411  0.0129704  -0.00826671 -0.00590834
  0.00838138 -0.01576702  0.00620777  0.00650632 -0.00590828 -0.02223448
 -0.01039893 -0.01461336  0.00552705 -0.01591198 -0.00820778  0.01394133
  0.00863277  0.02046286 -0.01046541 -0.00209935 -0.01488625  0.023347
  0.00694783 -0.00935368  0.025951    0.0101549  -0.00590833  0.01305784
 -0.00846722 -0.00590824  0.01502268 -0.00687408  0.01129644 -0.0115116
  0.00953917 -0.00630528 -0.01059567  0.00344366]
