[ 0.01254659  0.01738648 -0.00409117 -0.0044495  -0.00403137 -0.0045327
 -0.00337726 -0.00421635 -0.00448362 -0.00281938 -0.00423751 -0.00400003
 -0.00418669  0.01346305 -0.00644953  0.00052188 -0.01265882  0.01140088
 -0.00428113 -0.0043375   0.01466989  0.01331661 -0.00219697 -0.00409632
 -0.00563076 -0.00439916 -0.00440513  0.01485028 -0.00441103  0.01406134
 -0.00431776 -0.00979492  0.00479459 -0.00454975  0.01290378 -0.00432108
 -0.00448839 -0.00411327  0.01831121 -0.00227586 -0.00464762 -0.00624902
 -0.00369808 -0.00419207  0.00927196 -0.00404443  0.01441833  0.00816663
 -0.00332968 -0.00322083 -0.00439909 -0.00427505 -0.00359432 -0.00442084
 -0.00443465 -0.00516881 -0.00188724 -0.00100794  0.01057992 -0.00565501
  0.01021044 -0.00442576 -0.00425708 -0.00447571  0.00986751  0.01307354
  0.01531517 -0.00196967  0.00333381 -0.00409139 -0.00480815  0.01638831
 -0.00404247 -0.00490677 -0.00661024 -0.00851549 -0.00420978 -0.00039374
 -0.00441021 -0.00400947 -0.00265897 -0.00274142 -0.00438038 -0.00494774
  0.01582078 -0.00460506 -0.00409347  0.00181033  0.01072784 -0.00448894
  0.00767405  0.01616615 -0.00702766 -0.0041721  -0.00414398 -0.00439176
 -0.0039604  -0.00362649  0.00085562 -0.00380643 -0.00399759  0.01056258
 -0.00418513  0.00324364  0.00019973 -0.00425512 -0.01196559  0.01633845
 -0.00663387 -0.00411047  0.01379279 -0.00408037  0.01417052 -0.00376702
 -0.0043719  -0.00058763 -0.00472755 -0.00371292  0.01188916 -0.00374244
 -0.0056151   0.01801579  0.00978226  0.00978784 -0.00449475 -0.00403359
 -0.00366594 -0.00817071 -0.00307228 -0.00444154  0.01214785 -0.00393656
 -0.00395576 -0.00431906 -0.00534349  0.01804449 -0.00980955 -0.00352379
 -0.00506211 -0.0048871  -0.00412493 -0.00745485 -0.00422373  0.0162183
 -0.00253379 -0.00454223 -0.00602505 -0.00372163 -0.00429988 -0.00805377
 -0.00400926 -0.00439649 -0.00417664 -0.00439658 -0.00582581 -0.00398099
 -0.0041451   0.00524145 -0.00392414 -0.00434959  0.01153771 -0.00440348
  0.0107621  -0.00356579 -0.00573877 -0.00439461 -0.0041591   0.01299029
  0.00463028 -0.00437516 -0.00378262 -0.00876442  0.01179868 -0.00341234
 -0.00442003 -0.00310186 -0.0036516  -0.0046865  -0.00411731 -0.00442286
 -0.00384611 -0.00414618  0.01088578  0.01704662 -0.00368974  0.01509029
 -0.00427381 -0.00589447  0.01234504 -0.00389528 -0.00712567 -0.00451141
  0.02277584  0.01026686 -0.00396502 -0.0035046  -0.00424661 -0.00461082
 -0.00367213 -0.00394428 -0.00404446  0.01269979 -0.00379447 -0.00639251
 -0.01133873  0.0019742  -0.0064308  -0.00472285 -0.00385437  0.01461741
 -0.00436866 -0.00385486 -0.00300108  0.00370776 -0.003913   -0.00401263
 -0.00478425 -0.00356182 -0.0033764  -0.00486498 -0.00390683 -0.00113633
 -0.00691202 -0.00864749 -0.00310753 -0.00405851 -0.00469593 -0.00399813
 -0.00425923  0.01613983 -0.00428583  0.00115213 -0.00417609 -0.00692372
 -0.0042621  -0.00261169 -0.00397741 -0.00398473 -0.00437565 -0.00635085
  0.01226045 -0.00393935  0.00859767 -0.00396009 -0.00440778 -0.00437002
 -0.00456606 -0.00412998 -0.00659998  0.00634046 -0.00388593 -0.00456165
 -0.00453142 -0.00432222 -0.00447688  0.00744678 -0.00462491 -0.0040679
  0.0019641   0.01092154  0.01484786  0.00218662  0.0126404  -0.00428101
  0.00855296 -0.00430143 -0.00286883 -0.0045671  -0.00567761 -0.00413818
 -0.00401552 -0.00443561 -0.00436968 -0.00679798 -0.00439867 -0.00415403
 -0.00434102 -0.00311596 -0.00398299 -0.00450671 -0.00438378 -0.00428745
 -0.00450655 -0.00399732 -0.00456569 -0.00456717 -0.00332212 -0.0047927
 -0.00364569 -0.00438644  0.01646051 -0.00495845  0.00082967 -0.00389454
 -0.00395108 -0.00372384 -0.00420218  0.01548976 -0.00400905 -0.00667158
  0.01836028  0.00917503  0.01420376 -0.00491297 -0.00721201 -0.00627027
  0.00231516 -0.00397337 -0.01033325 -0.00673162  0.01318805  0.00834286
  0.0030944  -0.00481876 -0.00655068 -0.00428    -0.00452986  0.00927714
 -0.00440019 -0.00414505 -0.00393425 -0.00454108 -0.00600633  0.01519038
 -0.00063384 -0.00398931 -0.00413731  0.01074353 -0.00457831 -0.0073032
 -0.00405846 -0.00426806 -0.00408761 -0.00424974 -0.00384732 -0.00147412
 -0.00445899 -0.00401115 -0.00440835 -0.00478683  0.00839826  0.0096457
  0.00693554 -0.00380531 -0.00396378 -0.00393452 -0.00961669 -0.00430094
 -0.00432727 -0.00452837  0.0108928  -0.00430235  0.01107156 -0.00443583
 -0.00549172 -0.00467212 -0.0042778  -0.00683785 -0.0078305  -0.0041664
 -0.00402106 -0.00430172 -0.00437833 -0.0042293  -0.00403451 -0.00316769
 -0.0045749  -0.00458949  0.0065162  -0.00429284 -0.00463667  0.01228933
  0.00648001 -0.00722646 -0.00358133 -0.00473289 -0.00406253 -0.00433163
 -0.00425313  0.00687457 -0.00393552 -0.00637541 -0.00504074 -0.00406255
 -0.0049087   0.01439757  0.00143579 -0.00332936 -0.00411614 -0.00406644
 -0.00270868  0.00031812  0.01703855 -0.00404432 -0.00421164 -0.00457658
 -0.00446527 -0.0037087  -0.00443841 -0.00402156  0.01204341  0.01402472
 -0.00441025 -0.00448891 -0.0045542   0.012494    0.01482153 -0.00417217
 -0.00534114 -0.00855103 -0.00411497 -0.00224601 -0.00418882  0.01842456
 -0.00438917 -0.00459589  0.01035642 -0.00490085 -0.00412231 -0.00390287
  0.01137344 -0.00386961 -0.00827497 -0.00838567 -0.00415168  0.01686201
  0.01186236 -0.00596606 -0.00359954 -0.004396   -0.00246112 -0.00425961
 -0.0040376  -0.00464606 -0.00188871  0.01600931 -0.00464313  0.01184817
 -0.00316739 -0.00366387  0.01174787 -0.00643551  0.01379348 -0.00405478
 -0.00444057 -0.00624315 -0.00427677  0.00098953  0.00705159  0.01905512
 -0.00420324  0.01188165 -0.00397005 -0.00346613  0.01739426 -0.00420136
 -0.00465497  0.00340828  0.01198456 -0.00403738  0.01021848  0.01291252
 -0.00743896 -0.00649677 -0.00439557 -0.00419091 -0.00314231 -0.00419197
 -0.00448985  0.00479524 -0.00701023 -0.00400203 -0.0044125   0.00421658
 -0.00437846 -0.00443704 -0.00435547 -0.00409355 -0.00223878  0.0117587
 -0.00363976 -0.00412368  0.00395175  0.00397937 -0.00681243  0.01306119
 -0.00408021  0.01236356  0.01280886 -0.00407874  0.01538618  0.01286971
 -0.00408065 -0.00400637  0.01686338  0.00874712 -0.00076401 -0.00393314
 -0.00368233 -0.00441088 -0.0044346   0.01468253  0.01381215 -0.00430531
 -0.00420023 -0.0038928  -0.00431202  0.00325967 -0.00349158 -0.00674789
 -0.00674    -0.00358844]
