[[-0.06503559 -0.19253127  0.24634878 -0.1414838   0.08528773  0.00979728
   0.17406762  0.18254887 -0.1026659 ]
 [-0.29111138 -0.3989661  -0.25863394  0.05997256 -0.13052632 -0.56282783
  -0.04663336 -0.30298749 -0.64405888]
 [ 0.05299108 -0.29745069  0.02907505 -0.07102916  0.05892986 -0.53360468
   0.43891633 -0.06124106 -0.10350405]
 [ 0.22200884  0.10237689  0.19822955 -0.0152264   0.21890318  0.15714256
   0.05693811 -0.27449483 -0.10891045]
 [ 0.23881984  0.03591157  0.13791345 -0.03402385 -0.05922361  0.09687439
  -0.15128821  0.04404575  0.29063851]
 [ 0.33865809 -0.14497909 -0.02838509  0.05373477  0.11066875 -0.2683624
  -0.13623287 -0.73124963 -0.56820345]
 [ 0.05311974  0.1343364   0.09572762 -0.33446884  0.19980726  0.1851282
   0.32684401  0.28359315 -0.10623847]
 [ 0.23843704 -0.18770546  0.21676491  0.04765749  0.12169196 -0.2785942
   0.27327567 -0.05598486  0.0756248 ]
 [ 0.13264403 -0.06666489  0.03689589 -0.08985308  0.24920574 -0.30169752
  -0.14077553 -0.34911111 -0.11139784]]
