[[ 0.29642528  0.31116053 -0.47753567  0.43745494 -0.82145751 -0.21001047
  -0.39286602 -0.48516044  0.3743422   0.35995072 -0.53354043 -0.65871376
  -0.86568737 -0.56788903  0.49939373 -0.68783414  0.57549387 -0.50630248
  -0.22046171 -0.85796028 -0.31279743 -0.23638391  0.14752211 -0.67755371
  -0.67518252 -0.02539928 -0.82432413]
 [-1.0993259  -1.03681636  1.13675058 -0.74651772  1.19922817  1.09679353
   0.48403743  1.07271802 -1.08680701 -1.31209779  0.65862709  0.45315653
   1.00272989  0.90108371 -0.72089851  0.47245458 -1.31228232  1.13587165
   0.92212719  0.61106741  0.93307292  0.94481504 -0.98611408  1.08984077
   1.04531372 -1.13586617  0.76996356]
 [ 0.57882124  0.11216087 -0.31604037  0.04319543 -0.44725931 -0.62115788
  -0.72784108 -0.90583634  0.17712413  0.5815627  -0.57589477 -0.68888587
  -0.88866866 -0.78202754  0.48552054 -0.46517572  0.37946042 -0.60484362
  -0.93346906 -0.17766422 -0.29037306 -0.64924335  0.14307588 -0.17373699
  -0.49748254  0.23541456 -0.6631729 ]
 [-1.45278776 -0.80423266  0.80494386 -1.23794734  1.03137565  0.69805872
   0.76779205  0.79567826 -0.98769188 -1.3889904   1.23477411  1.1301136
   0.99148297  0.86714792 -1.5890764   1.14484823 -1.48269463  0.81322974
   0.85898858  0.80878156  0.80899662  1.07092035 -1.21742868  0.76625538
   1.04758418 -1.07574964  0.71019155]
 [ 0.46524376  0.17546542 -0.34850013  0.63124883 -0.78210348 -0.52940148
  -0.37319535 -0.44990283  0.46427292  0.43540162 -0.75274253 -0.56929648
  -0.41497415 -0.60894096  0.26216465 -0.86706251  0.61556929 -0.83227515
  -0.42710388 -0.71614867 -0.57564127 -0.223713    0.04289998 -0.6755935
  -0.61400342  0.32145634 -0.30329737]
 [-0.86140734 -1.3039577   0.76431471 -0.88951027  0.89467442  0.7298516
   1.17552936  1.12284231 -0.70783687 -1.318928    1.18077064  1.150316
   1.15792823  1.10400355 -0.95202124  1.00543094 -1.26695597  0.78559607
   1.07648182  0.77067143  0.58100677  0.95456022 -1.25902474  0.9345035
   1.23727119 -0.76010829  0.95277083]
 [ 0.02581069  0.0951108  -0.77072817  0.49646318 -0.27108702 -0.82178867
  -0.60678893 -0.87403041  0.07251863  0.06760362 -0.85528594 -0.20238918
  -0.52628803 -0.72491771  0.23489231 -0.68802905 -0.17143543 -0.55591685
  -0.27224356 -0.68564409 -0.7217375  -0.71337277  0.51079541 -0.42489889
  -0.80253142  0.45627815 -0.80531979]
 [-1.08046806 -1.45691824  0.96134025 -1.35590494  0.60394108  0.91714001
   0.72154915  0.98313981 -1.42381871 -0.96012747  0.74023843  0.70738858
   1.01784658  0.60188532 -1.23459935  0.90773714 -0.95197457  0.51081175
   1.07149231  1.00050247  1.12471211  0.35918322 -1.01288891  0.50050265
   1.26233971 -1.05076349  1.07167327]
 [-0.50727069 -0.61311138  0.81588477 -0.55475771  0.72121692  1.09286761
   0.86717302  1.15249658 -1.09027624 -0.58668947  0.55415708  0.72187936
   0.41319841  0.97768217 -1.19009697  1.09170938 -1.22100985  0.91910321
   0.38547227  0.94444978  0.87459022  0.89707053 -0.73446953  0.52609217
   0.51728553 -1.22200048  0.44889188]]
