[[ -1.07395098e-01   2.32245445e-01  -2.48822674e-01  -1.67477563e-01
   -2.47295722e-01  -3.18285108e-01  -3.19573462e-01  -2.78895557e-01
    1.87155873e-01  -3.90555024e-01   6.58988208e-02   7.11899344e-03
    2.55935520e-01   4.41040307e-01   5.93265705e-02  -3.69542778e-01
   -3.47274601e-01   2.61100233e-01   1.92586765e-01   4.53723460e-01
    1.10537224e-01   3.62892836e-01  -1.65816754e-01  -3.58603537e-01
   -4.48250175e-01  -3.89501184e-01  -5.05857468e-01  -2.18379542e-01
    6.60203770e-02   4.67493862e-01  -3.46697360e-01  -2.24126931e-02
    1.38633206e-01   9.96646658e-02  -1.19302962e-02  -5.10071874e-01
   -2.65673101e-01   2.63284892e-01   3.71232480e-01  -1.57106772e-01
    2.42385328e-01   1.17776573e-01   3.34618598e-01  -3.77531707e-01
   -1.91022098e-01  -3.87693703e-01  -2.78594315e-01   8.11528265e-02
    4.88867521e-01  -4.55671608e-01   1.78169608e-01   1.49381891e-01
    3.31975579e-01   4.69374031e-01]
 [ -2.20264830e-02   2.97406107e-01  -1.36544198e-01  -3.29515845e-01
   -1.31835312e-01  -3.51324767e-01  -3.76521349e-01  -2.12977469e-01
    4.42485213e-01  -9.84754264e-02   1.54308423e-01   4.49266136e-01
    5.48722222e-02   2.54426152e-01   3.22865576e-01  -2.40363345e-01
   -4.94085848e-01   3.22743148e-01   3.85838538e-01   9.50931311e-02
    2.10785881e-01   1.02310255e-01  -2.97004730e-01  -4.59210664e-01
   -2.70537883e-01  -1.04408532e-01  -2.03568444e-01  -2.99218267e-01
    1.34132892e-01   8.44999254e-02  -1.01580143e-01   4.48585331e-01
   -2.87133276e-01   5.02936602e-01   1.25756606e-01  -1.51861563e-01
   -3.63400400e-01   2.34728307e-01  -2.97821760e-02  -1.20310105e-01
    2.54486680e-01   1.91637203e-01   1.73335284e-01  -1.90659791e-01
   -5.50438762e-01  -5.13576925e-01  -2.74341881e-01   2.70063043e-01
    2.40247965e-01  -5.11883318e-01   1.36823565e-01   4.60332453e-01
    2.78680950e-01   8.88210461e-02]
 [ -1.80077314e-01  -4.18395787e-01   2.96380460e-01  -5.58324829e-02
   -3.81067097e-02   2.11855292e-01   1.96551040e-01   4.24563169e-01
   -9.99954641e-02   3.38275909e-01   2.70645738e-01  -1.52461976e-01
   -2.76213232e-02  -4.85925049e-01  -2.29088753e-01   1.69769049e-01
    1.97992444e-01  -1.07425764e-01  -4.58392948e-01  -2.96741068e-01
   -1.93694159e-01  -3.48507613e-01   2.49873728e-01   6.42092200e-03
   -7.22419247e-02   1.84101716e-01   2.98382729e-01   3.86491418e-01
   -4.34904426e-01  -3.82690400e-01   3.42120975e-01  -1.67386606e-01
   -1.95572362e-03  -1.11740731e-01  -3.18160921e-01   7.90464208e-02
   -4.82814200e-02  -4.96222913e-01  -3.10954124e-01   8.02435949e-02
   -3.72332513e-01  -2.04994455e-01  -2.67012954e-01   2.97868103e-01
    1.49177406e-02   2.46836752e-01   2.20869496e-01  -1.24923334e-01
   -2.65943974e-01   3.52074414e-01  -8.11451748e-02  -2.11641341e-01
   -2.60769933e-01  -2.40412150e-02]
 [ -1.52843669e-01   2.19484195e-01  -2.30138287e-01  -1.68599799e-01
   -2.21566588e-01  -4.36572850e-01  -4.59647924e-01  -1.81419551e-01
    2.24056095e-01  -3.49529058e-01  -1.81494385e-01   9.70940862e-04
    2.53683060e-01   3.85030776e-01  -3.41983736e-02  -1.74627036e-01
   -2.26574361e-01   3.34253490e-01   2.12774530e-01   4.46109146e-01
    2.30909944e-01   4.51368988e-01  -3.10155690e-01  -1.76965043e-01
   -4.02315289e-01  -4.84814733e-01  -5.36579669e-01  -2.23351508e-01
    4.46346790e-01   4.05051529e-01  -2.85506010e-01  -6.11326732e-02
    7.15965256e-02   5.68605848e-02   3.46976787e-01  -2.19574481e-01
   -3.78314406e-01   4.00192402e-02   6.44138604e-02  -1.73963636e-01
    8.33630040e-02   4.67795610e-01  -8.98652226e-02  -2.27477700e-01
   -4.10563380e-01  -7.63789266e-02  -1.90809205e-01   4.30900723e-01
    1.50225177e-01  -4.19220448e-01   1.79989990e-02   4.20085490e-01
    1.13756873e-01  -9.38487574e-02]
 [ -1.32851914e-01  -4.91491169e-01   3.84021342e-01   3.82838100e-01
    1.99441850e-01   4.16796654e-01   5.26252270e-01   6.59692734e-02
   -4.80102062e-01   4.58612829e-01  -1.95914283e-01  -4.84677881e-01
    1.37126269e-02  -3.08274806e-01  -5.63745573e-02   7.57765695e-02
   -2.79973797e-03  -4.61731374e-01  -3.89596790e-01  -3.00930083e-01
   -4.85500991e-01  -8.02395418e-02   1.34229749e-01   4.48333211e-02
    2.55756956e-02   2.36915916e-01   3.70853961e-01   4.44454819e-01
   -4.78237569e-01  -1.72690451e-01   1.20253883e-01  -3.11732709e-01
   -2.44201533e-02  -4.13592815e-01  -4.31431353e-01   3.88910472e-01
    1.69541299e-01  -4.99680936e-01  -2.86531031e-01   3.89561594e-01
   -2.15179607e-01  -2.55470037e-01  -8.62702057e-02   3.46437275e-01
   -3.42566334e-02   4.28127170e-01   2.59577751e-01  -4.44221228e-01
   -2.87192285e-01   2.59385198e-01  -4.05757904e-01  -4.68073964e-01
   -2.28920132e-01  -4.95948344e-02]
 [ -1.38817757e-01  -2.00019091e-01   3.34578574e-01   5.01744896e-02
   -1.30536243e-01   3.18195403e-01   1.63863584e-01   9.25616473e-02
   -6.19713187e-01   1.60413399e-01   3.39635104e-01  -2.36027226e-01
   -3.40322524e-01  -3.96926373e-01  -4.41452652e-01   2.23324388e-01
    4.92899150e-01  -6.00402832e-01  -8.19875300e-02  -5.43595493e-01
   -3.49804044e-01  -3.06249321e-01   3.18349034e-01   1.72265887e-01
    3.86947751e-01   2.04342976e-01   1.00529261e-01   4.92318958e-01
   -1.47738725e-01  -4.92579073e-01   2.57451266e-01  -2.23317921e-01
    4.62085195e-03  -3.51351172e-01  -1.11727379e-01   2.95862108e-01
    4.10430640e-01  -5.80573678e-01  -1.18642718e-01   3.16668898e-01
   -3.71515214e-01  -3.97438765e-01  -2.48832971e-01   1.89035460e-01
    2.70372808e-01   3.05858821e-01   4.41559821e-01  -4.57305819e-01
   -4.31394815e-01   7.38489106e-02  -6.08695686e-01  -3.80136698e-01
   -3.76508087e-01  -1.96850508e-01]
 [  5.60596138e-02  -5.81647098e-01   2.00135544e-01   9.95875895e-02
   -1.86158868e-03   2.78810173e-01   4.78848696e-01   5.18502332e-02
   -4.15189087e-01   3.04658473e-01  -1.88862592e-01  -4.76007283e-01
    9.58923176e-02  -3.25063139e-01  -1.19358584e-01   2.82395065e-01
    2.58257180e-01  -4.57873851e-01  -4.77635592e-01  -1.18103132e-01
   -5.65099597e-01   1.98580995e-02  -1.38906175e-02   1.00132518e-01
    5.58690727e-03   1.32333681e-01   2.79430389e-01   9.20029208e-02
   -2.50473738e-01  -4.80933458e-01   2.14239880e-01  -3.82947296e-01
   -1.34072483e-01  -2.33737960e-01  -4.65331465e-01   7.48218521e-02
    1.22580357e-01  -4.95033592e-01  -1.67352498e-01   3.15085173e-01
   -1.99136466e-01  -1.10892214e-01  -8.99511129e-02   2.80086398e-02
    2.77015239e-01   1.58889323e-01   2.33948901e-01  -3.54297400e-01
   -3.76722157e-01   1.57721564e-01  -3.60635407e-02  -7.98182264e-02
    2.29215715e-02  -1.18164167e-01]
 [ -1.21863067e-01  -4.37583029e-01   4.81819153e-01   6.39046550e-01
   -4.89250049e-02   1.81370035e-01   2.36541301e-01   5.33850074e-01
   -3.73935819e-01   3.31455201e-01   1.36863524e-02  -6.38008356e-01
    5.80712892e-02  -5.21380126e-01  -1.90214738e-01   3.38786811e-01
    3.71070951e-01  -4.91935641e-01  -4.59123522e-01  -4.00005639e-01
   -5.20863235e-01  -2.12031037e-01   3.87429148e-01   9.27629918e-02
    3.33646804e-01   5.86150408e-01   5.45860231e-01   2.96428174e-01
   -1.79781288e-01  -1.87969372e-01   3.27464789e-01  -4.16089952e-01
   -1.72505751e-01  -5.19237697e-01  -5.54072559e-01   1.04994155e-01
    4.55345601e-01  -4.81866598e-01  -4.86198306e-01   5.13910532e-01
   -1.05155036e-01  -5.62222958e-01   9.23627540e-02   4.74046320e-01
    4.09023434e-01   2.55566239e-01   4.92468745e-01  -3.09150845e-01
   -4.44149494e-01   5.76345444e-01  -5.71169913e-01  -6.33745015e-01
   -1.30212963e-01  -1.23892829e-01]
 [ -2.07521126e-01  -6.87398836e-02   1.87286679e-02  -5.23444235e-01
    9.73817036e-02  -9.14353728e-02  -1.30626932e-01  -7.56777376e-02
    4.52020347e-01  -4.80071276e-01   1.35834098e-01   2.78436482e-01
   -9.04671103e-02   1.57910585e-01   2.95843691e-01  -4.27592307e-01
   -4.29867148e-01   2.60501970e-02   7.73843303e-02  -7.30256503e-03
    4.23236430e-01   2.36850306e-02  -2.19893396e-01  -6.18691295e-02
   -5.03686249e-01  -1.77026093e-01  -2.95430034e-01  -2.58956224e-01
    2.60085404e-01   4.02136147e-01  -3.98656011e-01   3.24152187e-02
   -3.35476458e-01   2.28036776e-01   3.39655012e-01  -5.68138659e-01
    6.02724217e-02   1.90838501e-01   3.42968374e-01  -3.51615191e-01
   -1.54266907e-02   1.26062170e-01   1.87648878e-01  -3.94598871e-01
   -5.40852427e-01  -4.48177606e-01  -5.11279821e-01   8.83086100e-02
    2.96763957e-01  -4.70396668e-01   9.79327187e-02   6.62973970e-02
    1.38648227e-01   7.50136515e-03]
 [ -2.82017231e-01   4.42120552e-01  -4.39712495e-01  -3.38646084e-01
   -3.85890394e-01  -3.45830768e-01  -1.27142757e-01  -3.42993379e-01
    1.50906563e-01  -3.56650323e-01   2.78869331e-01   2.62798458e-01
    2.61215389e-01   2.55666614e-01   2.51040131e-01  -2.36843050e-01
   -3.71028870e-01   1.91577464e-01   2.79796004e-01   2.00079307e-01
    3.36270869e-01   1.52685773e-02  -4.79890406e-01  -3.44183058e-01
   -4.54494566e-01  -4.81527537e-01  -1.57991156e-01  -4.58355427e-01
    2.62769163e-01   4.77215052e-01  -4.71600622e-01   1.00067891e-02
    2.86448240e-01   3.24272186e-01   2.92078733e-01  -2.81962544e-01
   -2.28369027e-01   1.04063936e-01   4.99466397e-02  -1.90299541e-01
   -3.09089606e-04   3.54547501e-01   1.72263950e-01  -5.45084298e-01
   -5.63349187e-01  -5.12891173e-01  -1.54265836e-01   3.47585052e-01
    7.54990503e-02  -6.96671233e-02   2.33295202e-01   3.84633482e-01
    3.05201828e-01   1.70349464e-01]
 [ -2.19080344e-01  -7.05792129e-01   1.97729796e-01   4.24420476e-01
    1.32927284e-01   1.47556126e-01   2.46937498e-01   3.54699522e-01
   -6.14775777e-01   2.49836832e-01  -2.47642840e-03  -4.86140937e-01
   -1.95553362e-01  -5.91888249e-01  -2.51698345e-01   3.98815542e-01
    5.73898077e-01  -3.38712811e-01  -2.81818390e-01  -3.67070258e-01
   -3.62509727e-01  -2.10594848e-01   6.03451371e-01   8.01875889e-02
    2.67995477e-01   4.26760405e-01   4.79639530e-01   1.50452644e-01
   -6.73228860e-01  -5.75456023e-01   2.45151624e-01  -3.65806997e-01
   -4.78716135e-01  -5.94911873e-01  -5.83792567e-01   5.47676325e-01
    1.30824268e-01  -1.79855436e-01  -7.06430972e-01   4.10995364e-01
   -5.87114215e-01  -6.78123415e-01  -1.39414281e-01   3.58295083e-01
    4.33475733e-01   1.94027588e-01   3.68444085e-01  -2.03469962e-01
   -2.68087149e-01   1.50159582e-01  -5.92310071e-01  -4.98160511e-01
   -4.49980527e-01  -6.16758704e-01]
 [ -8.14280286e-03  -2.18302563e-01   1.08455159e-01   2.22859874e-01
    3.54334146e-01   3.47511731e-02   2.74918646e-01   4.04650390e-01
   -1.21238299e-01   1.52958125e-01  -1.78088605e-01  -2.16881230e-01
   -3.65224451e-01  -1.11653253e-01  -1.72116801e-01   5.01243509e-02
    3.59404460e-02  -5.65548778e-01  -3.30443501e-01  -4.93519276e-01
   -9.87656042e-02  -4.21618223e-01   4.17623520e-01   1.95737854e-01
    2.61096984e-01   2.23011866e-01   4.44049209e-01   2.28580996e-01
   -2.16927215e-01  -4.75675076e-01   3.13954763e-02  -4.60187793e-01
   -8.14173147e-02  -1.96986705e-01  -5.29396296e-01   4.44040567e-01
    3.75729769e-01  -2.50613302e-01  -2.18719900e-01   2.90202349e-01
   -2.41176039e-01  -3.29559326e-01   1.32641466e-02   4.41673130e-01
    1.70972273e-01   2.75861800e-01   2.87692010e-01  -2.09263369e-01
   -2.33291045e-01   1.82021752e-01  -2.42188081e-01  -1.06766939e-01
   -4.03527796e-01  -2.97165215e-01]
 [ -9.07942876e-02  -3.33359301e-01   3.09935033e-01   4.42289889e-01
    2.20971212e-01   3.69111806e-01   3.50611299e-01   1.38959348e-01
   -3.73616457e-01   2.95204937e-01  -1.08411126e-01  -4.23084468e-01
   -1.11876518e-01  -1.07257448e-01  -4.53301877e-01   5.47426283e-01
    3.45279604e-01  -5.89683652e-01  -7.36981034e-02  -3.70981276e-01
   -5.89103758e-01  -5.02313316e-01   4.16332543e-01   5.70275187e-02
    5.56226730e-01   9.21465084e-02   5.67188561e-01   3.82030040e-01
   -5.23432374e-01  -3.73263568e-01   1.55403614e-01  -4.06202525e-01
   -3.35757434e-01  -6.33991182e-01  -2.50244647e-01   4.42717880e-01
    2.14555651e-01  -3.18609059e-01  -4.86985922e-01   2.68539965e-01
   -5.27428746e-01  -1.42557934e-01  -1.33533403e-01   9.68327150e-02
    4.80661303e-01   1.34013593e-01   2.97496080e-01  -2.95551628e-01
   -6.31171286e-01   4.39728379e-01  -6.11162722e-01  -5.47759295e-01
   -4.44076508e-01  -4.81150419e-01]
 [  1.85750306e-01  -4.67261523e-01   3.73895556e-01   3.64553809e-01
    1.72774851e-01   1.20127395e-01   6.20890439e-01   7.39925206e-02
   -6.01822138e-01   3.38251978e-01   3.72873843e-01  -5.76421499e-01
    7.96653628e-02  -3.86832148e-01  -3.21740687e-01   4.67354208e-01
    4.69475687e-01  -4.34227735e-01  -3.13181013e-01  -5.85133135e-01
   -3.99906516e-01  -3.88521373e-01   3.06685299e-01   4.21058178e-01
    5.54937363e-01   1.27789542e-01   3.87342840e-01   4.59807843e-01
   -5.39836586e-01  -4.84867990e-01   1.94685847e-01  -4.59581494e-01
   -1.77334771e-01  -6.16470575e-01  -6.22241139e-01   3.65823925e-01
    3.37439269e-01  -1.88288599e-01  -6.47540569e-01   4.52601835e-02
   -5.03798664e-01  -4.37792331e-01  -8.36145878e-02   4.20027107e-01
    3.76595646e-01   3.22078109e-01   5.53230941e-01  -3.77767920e-01
   -5.28542221e-01   3.53711754e-01  -4.98515278e-01  -4.36560601e-01
   -2.54969537e-01  -3.35899740e-01]
 [  1.30710537e-02   3.70681554e-01  -3.63813639e-01  -2.11978137e-01
   -1.40931278e-01  -5.51877439e-01  -4.34085310e-01  -2.25578651e-01
    4.24047261e-01  -4.33877587e-01   1.55276973e-02   2.48229265e-01
   -5.45321628e-02  -2.13655680e-02   2.52094418e-01  -5.00311315e-01
   -3.08975935e-01   3.72246861e-01   1.31651029e-01   1.57170877e-01
    4.74530905e-01   5.26166201e-01  -3.33730370e-01  -1.25236362e-02
   -4.38041776e-01  -3.19999278e-01  -3.62880230e-01  -3.94462168e-01
    1.24416456e-01   3.75507563e-01  -1.03379339e-01   1.21625826e-01
    2.78666407e-01   1.92645580e-01   3.33908409e-01  -5.51925659e-01
   -4.18346345e-01   3.32965493e-01   1.04794420e-01  -3.55947822e-01
    4.91891317e-02   1.16988711e-01   3.96596134e-01  -1.39962599e-01
   -2.91395068e-01  -7.46357068e-02  -2.69353837e-01   3.81487489e-01
    3.56301039e-01  -3.85826856e-01   3.82038862e-01   2.73242325e-01
    1.18694589e-01   1.23476759e-01]
 [  6.72200397e-02  -3.17125767e-01   1.07296519e-01   4.15297002e-01
    7.51952231e-02   2.02035740e-01   5.40884376e-01   2.26161912e-01
   -7.03545034e-01   6.25117838e-01  -6.63776472e-02  -4.52097267e-01
   -4.54351932e-01  -6.94948792e-01  -5.15257716e-01   3.00481647e-01
    6.06746256e-01  -2.54161566e-01  -3.12111914e-01  -3.00852150e-01
   -6.81407452e-01  -2.88161874e-01   2.20204487e-01   8.10763761e-02
    3.75406355e-01   5.88763475e-01   3.10365081e-01   5.38529992e-01
   -7.25824356e-01  -6.45544469e-01   3.34128112e-01  -2.60223478e-01
    7.28081772e-03  -5.50398350e-01  -3.06760192e-01   4.43087429e-01
    2.14506567e-01  -5.95690668e-01  -3.64966273e-01   3.28106165e-01
   -3.11473966e-01  -5.53686202e-01  -1.76449448e-01   3.99986476e-01
    5.87178767e-01   5.55119336e-01   4.53256100e-01  -6.12936735e-01
   -7.08433032e-01   5.52818060e-01  -6.09254420e-01  -3.28693867e-01
   -5.90568662e-01  -4.27381814e-01]
 [ -2.58513659e-01   3.83535266e-01  -2.90509731e-01  -5.23120940e-01
    6.11605495e-02  -4.05975789e-01  -2.22596854e-01  -5.09856045e-01
    3.28097045e-01  -4.61042851e-01   1.53431565e-01   2.17116162e-01
   -8.58037919e-02   3.74557316e-01   4.97691005e-01  -3.35103571e-01
   -3.04506958e-01   4.26838219e-01   1.64796486e-01   4.93358433e-01
    4.54217970e-01   2.52594501e-02  -3.77285331e-01  -4.33255792e-01
   -2.43544027e-01  -2.04130381e-01  -3.66331130e-01  -6.25324070e-01
    4.52129483e-01   4.40935731e-01  -5.12929678e-01   5.03317952e-01
    3.96913067e-02   4.96154040e-01   4.50329274e-01  -1.40521467e-01
   -1.94049358e-01   8.21730569e-02   2.43897200e-01  -6.11195326e-01
    1.91495240e-01   2.80484706e-01   8.40488225e-02  -6.03284240e-01
   -2.03567103e-01  -3.97443384e-01  -2.81817049e-01   1.32442266e-01
    9.81219038e-02  -3.26788783e-01   5.32050133e-01   1.26290187e-01
    6.13513589e-02   2.41868928e-01]
 [  1.79698363e-01  -4.09675270e-01   3.87939423e-01   2.01204926e-01
   -4.81542796e-02   3.05077910e-01   3.16637456e-01   3.49851310e-01
   -4.11498457e-01   7.27078319e-02   2.53068507e-02  -3.50666225e-01
   -4.49053794e-02  -5.39979458e-01  -1.61812618e-01   3.99222642e-01
    4.40778822e-01  -4.84808713e-01  -5.63465238e-01  -5.78403115e-01
   -2.82299519e-01  -4.55258459e-01   3.38512987e-01   3.68519604e-01
    4.98240650e-01   2.62124509e-01   3.60107243e-01   3.93174946e-01
   -3.94472957e-01  -1.41499922e-01   3.56571436e-01  -4.43704158e-01
   -1.35811865e-01  -4.75979209e-01  -6.14348948e-01   3.88508812e-02
    5.54380655e-01  -3.22340608e-01  -5.22656620e-01   1.76497966e-01
   -2.69246906e-01  -5.37454128e-01   7.15418905e-02   1.00614391e-01
    2.82793671e-01   3.70781600e-01   4.45963502e-01  -3.47105652e-01
   -4.64154005e-01   2.83006191e-01  -4.82897609e-01  -3.45541269e-01
   -8.69276822e-02  -2.36105070e-01]
 [ -2.92315722e-01  -4.48522598e-01   2.14440793e-01   1.48155227e-01
    1.89434350e-01  -7.78860375e-02   1.86049759e-01   3.65465552e-01
   -3.51664335e-01   1.70616210e-01   2.06687853e-01  -1.03126578e-01
    1.12694360e-01  -4.00858313e-01  -3.06129698e-02   2.88329393e-01
    1.41774923e-01  -2.88450807e-01  -8.80485252e-02  -1.21927887e-01
   -4.24161404e-01  -1.58961952e-01   3.51336986e-01   6.51095645e-04
    6.39295951e-02   2.77565181e-01   1.00273423e-01  -5.64433299e-02
    3.43412422e-02  -1.78608358e-01   3.73885855e-02  -2.23087460e-01
   -1.47260413e-01  -4.42113996e-01  -2.13806048e-01   3.22412014e-01
    2.59048581e-01  -1.94028571e-01  -1.43344864e-01   9.69966277e-02
   -1.87504634e-01  -4.27344859e-01  -3.46058190e-01   1.82826713e-01
    2.16229811e-01   2.02329531e-01  -6.50087744e-02  -1.34903848e-01
   -3.08338583e-01  -7.55991191e-02  -1.13751270e-01  -3.06598008e-01
   -3.80581349e-01  -1.21662468e-01]
 [  7.86880776e-02  -1.24446072e-01  -2.21790113e-02   1.66037008e-01
    1.34391963e-01   4.85547304e-01   1.13313876e-01   2.17916429e-01
   -3.30772191e-01   3.91061246e-01   1.38677672e-01  -4.56017613e-01
   -1.02223866e-02  -2.67215073e-01  -5.01188219e-01   2.01655850e-01
    7.43481591e-02  -5.99492967e-01  -2.65588909e-01  -2.17159376e-01
   -5.62886119e-01  -4.49633956e-01   2.90962458e-01   4.37168717e-01
    2.99204171e-01   2.88297776e-02   1.72438890e-01   9.74353403e-02
   -4.51021314e-01  -5.65053225e-01   3.65081936e-01  -2.33770311e-01
   -2.60140449e-01  -5.43896139e-01  -2.52874225e-01   1.43503264e-01
    1.74601581e-02  -2.82984912e-01  -1.71081230e-01   4.13868934e-01
   -5.68308793e-02  -3.82318825e-01  -1.61629528e-01   3.95070650e-02
    2.80111700e-01   9.99670327e-02   6.15563244e-02  -5.04324913e-01
   -1.47109777e-01   3.02717239e-01  -5.28323650e-01  -1.27053842e-01
   -1.09822132e-01  -2.27173001e-01]
 [  1.44021928e-01  -3.39982033e-01   8.88241008e-02   9.62706208e-02
   -1.91841558e-01   4.42519225e-02   5.67324758e-02   9.03944671e-02
   -4.30759728e-01  -7.92068541e-02   2.87915200e-01  -6.91915676e-02
   -9.15514901e-02  -2.42904231e-01  -3.27899456e-01   7.61550218e-02
   -3.43538076e-02  -1.82284951e-01  -3.85180771e-01  -5.19781895e-02
   -2.43165512e-02  -3.75477970e-01   3.01606208e-01   3.31373781e-01
    2.52730042e-01   1.14966251e-01  -1.31439134e-01   4.81246561e-02
   -7.47713000e-02  -4.16272581e-02   1.31318361e-01  -3.89077514e-01
   -1.27772361e-01  -2.71763861e-01  -3.16024989e-01  -9.76152569e-02
    1.98421389e-01  -3.57523002e-02  -4.36662316e-01   2.77768791e-01
   -3.94081846e-02  -1.74575746e-02  -1.54933572e-01  -1.71572696e-02
    1.81260139e-01   3.21320057e-01   2.18961015e-02  -2.83378214e-01
   -3.26868564e-01  -4.04816158e-02   8.35467353e-02  -1.52510628e-01
   -2.70711333e-01  -4.04889733e-01]
 [  7.63564184e-02  -5.73288240e-02  -1.08678564e-01   4.58480120e-02
   -5.34573533e-02   1.93052813e-01   1.74125612e-01   1.60123765e-01
   -5.91437854e-02   1.21358305e-01  -1.39138460e-01  -4.01803672e-01
    2.15441398e-02  -4.13210332e-01  -2.07295865e-01   3.05732608e-01
   -1.90538056e-02  -2.64938951e-01  -3.12712312e-01  -1.20143950e-01
   -4.69479948e-01  -1.27600014e-01   3.28293703e-02   3.71540152e-02
    3.48348826e-01   2.70910114e-01   3.25069353e-02   3.22099179e-01
   -1.73193842e-01  -4.22690064e-01   7.69947395e-02  -1.08438805e-01
   -2.95000095e-02   1.92608184e-03  -4.45390701e-01  -6.66077808e-02
    1.32048398e-01  -3.39157254e-01   1.23360939e-02  -1.15362071e-01
   -3.80738765e-01  -3.89269382e-01  -5.84585927e-02   2.55971462e-01
    3.30290765e-01   1.12512507e-01  -9.08937380e-02  -8.07990953e-02
   -4.13054168e-01   1.97958872e-01  -1.01068087e-01  -3.34423631e-01
   -3.56484413e-01  -2.62472659e-01]
 [ -1.40785336e-01   2.48248816e-01  -3.90637107e-02  -5.19094884e-01
   -1.01256639e-01  -2.97883302e-01  -3.37278396e-01  -1.69514120e-01
   -1.79979149e-02  -8.40432122e-02   1.22359842e-01   1.91926509e-01
   -2.73984727e-02   2.39540502e-01   3.68332006e-02  -4.31591213e-01
   -9.13674757e-02   1.34797946e-01   1.75399080e-01   3.27779323e-01
    3.00326049e-01   6.62426427e-02  -2.45219573e-01  -2.61416256e-01
   -3.48989546e-01  -1.87997580e-01  -2.17137203e-01  -3.93429071e-01
    2.44940758e-01   8.19558948e-02  -4.93210331e-02   4.44849610e-01
   -2.62486935e-01   1.79310828e-01   3.49791735e-01  -1.86942473e-01
   -2.64144868e-01   4.02363420e-01   4.25759196e-01  -3.07714701e-01
    4.52471562e-02   3.50644469e-01  -1.41552493e-01  -1.01840347e-01
   -2.79632241e-01  -4.38262492e-01  -5.37351608e-01   6.30859882e-02
    3.67687434e-01  -1.38107374e-01   1.08119495e-01  -2.92629786e-02
    2.89017767e-01   3.85836869e-01]
 [ -1.20579768e-02  -2.71579251e-03   9.82233956e-02   1.27947122e-01
   -7.91780800e-02   3.03314209e-01   1.15244851e-01   2.74096221e-01
   -8.54463428e-02  -9.95754600e-02   1.32373735e-01  -4.10941154e-01
    1.91750284e-03  -4.05133963e-01  -4.07971352e-01   3.71765763e-01
    8.42934623e-02  -2.53242493e-01  -4.07403618e-01  -4.41289663e-01
   -3.66610497e-01  -2.77784795e-01   1.65309712e-01  -8.11111704e-02
    9.76935029e-02  -8.18927288e-02  -5.85067719e-02  -8.50748084e-03
   -1.56203225e-01  -1.19770169e-01   3.14330816e-01  -2.73037106e-01
   -4.11750197e-01  -3.55069578e-01  -3.82726520e-01  -6.62978217e-02
    3.07646573e-01  -1.75028905e-01  -8.21279138e-02  -1.58530220e-01
   -5.22307083e-02  -1.91444363e-02   9.70369428e-02  -5.92506677e-02
    2.81247765e-01   1.02300785e-01   2.38871738e-01   2.26891991e-02
   -3.56019527e-01   2.89091587e-01  -2.54928321e-01  -2.74825901e-01
   -1.37617603e-01  -2.13768542e-01]
 [ -1.59910306e-01  -3.76126230e-01   2.02175289e-01   6.39387608e-01
    3.55493546e-01   1.93771243e-01   2.78664052e-01   6.64719880e-01
   -4.33822364e-01   4.54692453e-01   3.22815388e-01  -4.94699329e-01
   -3.66432577e-01  -3.87657613e-01  -4.71768945e-01   3.63144428e-01
    5.95880449e-01  -4.34171081e-01  -4.32178050e-01  -3.98732662e-01
   -2.48909160e-01  -5.34847796e-01   3.63689661e-01   3.32322508e-01
    4.90371734e-01   6.15299582e-01   2.20703900e-01   4.90860820e-01
   -4.15490240e-01  -2.85500854e-01   4.04488713e-01  -7.16773629e-01
   -3.33144367e-01  -3.53582680e-01  -4.92776394e-01   3.58704031e-01
    3.53330165e-01  -3.03646237e-01  -5.08648694e-01   3.77242088e-01
   -4.41331834e-01  -6.29569471e-01  -4.10814703e-01   5.49561501e-01
    4.79669482e-01   1.61544338e-01   2.96240687e-01  -7.01867819e-01
   -3.38572174e-01   2.51404285e-01  -7.04034328e-01  -6.76575243e-01
   -6.24789774e-01  -5.19345939e-01]
 [ -2.81557649e-01   4.03334945e-01  -4.43045825e-01  -4.57867444e-01
   -1.07549712e-01  -5.19979656e-01  -2.06328720e-01  -4.05925363e-01
    4.34675127e-01  -2.75209844e-01  -5.94845116e-02   2.07891256e-01
    1.30213216e-01  -1.02959305e-01   2.37559348e-01  -4.24468696e-01
   -4.62381542e-01   4.00014639e-01   2.84304842e-02   6.72871363e-04
    3.93402904e-01   3.16724926e-01  -1.78294688e-01  -3.45134854e-01
   -3.66717696e-01  -4.59718645e-01  -5.07642984e-01  -3.38418216e-01
    1.85596809e-01   1.21753447e-01  -7.07832351e-02   2.12053835e-01
    1.76062688e-01   3.64662074e-02   3.64735872e-01  -1.69515610e-01
   -3.25298876e-01   8.89558345e-02   2.49291152e-01  -1.24045298e-01
    3.06369007e-01   1.53366715e-01   1.35623112e-01  -3.16512793e-01
   -4.88763452e-01  -4.94921207e-01  -3.85511488e-01   8.19136128e-02
    4.57067788e-01  -2.33178854e-01   2.93249786e-01   4.26928580e-01
    3.17147672e-02   3.60772043e-01]
 [ -2.58978069e-01  -4.80315834e-01   1.34539437e-02   4.95857686e-01
    3.99527280e-03   5.09534359e-01   1.61818996e-01   4.62152511e-02
   -4.15620148e-01   2.62180567e-01   1.30310491e-01  -1.76591277e-01
    1.09775901e-01  -1.50143594e-01  -2.51287639e-01   3.81973177e-01
    2.64411997e-02  -5.57353854e-01  -3.50369692e-01  -6.02174759e-01
   -1.11490898e-01  -2.36710265e-01   3.72635692e-01   1.36451825e-01
    5.28619111e-01   2.18877330e-01   3.32255572e-01   4.01024640e-01
   -1.66738063e-01  -5.98577499e-01   4.98395830e-01  -9.66136307e-02
   -3.88299853e-01  -2.07037613e-01  -1.34110779e-01   3.79351974e-01
    2.52495795e-01  -5.44305801e-01  -2.37405390e-01   4.06589985e-01
   -1.35630190e-01  -2.93596953e-01   2.42046155e-02   1.17084794e-01
    3.41886550e-01   2.65550524e-01   2.93937445e-01  -4.26523238e-01
   -4.93296444e-01   2.64405519e-01  -4.80223030e-01  -5.37660420e-01
   -3.00898820e-01  -3.78647715e-01]]
