[[ -2.43874967e-01  -1.03960142e-01  -2.45069638e-01   2.03923896e-01
   -1.07991949e-01  -2.33330145e-01  -1.30682170e-01  -1.04440592e-01
    1.23795547e-01   8.23370591e-02  -1.04218975e-01   2.64908701e-01
    1.92640603e-01  -1.25150681e-01  -2.54124939e-01   1.38027608e-01
   -2.98508495e-01   2.07395062e-01  -2.33443707e-01   7.88727105e-02
   -8.31010938e-02   9.93710533e-02  -1.99896678e-01   6.66418597e-02
    1.07316010e-01   1.59714982e-01  -3.12937633e-03]
 [  2.99754459e-02  -8.33816007e-02  -2.26891473e-01   2.96287872e-02
   -3.66091244e-02  -4.01397258e-01  -6.47918731e-02   3.02941382e-01
   -3.45647395e-01  -1.05439261e-01   3.64495456e-01  -2.25920171e-01
   -3.85149628e-01  -4.02686447e-01  -3.45476627e-01  -3.80522341e-01
    2.88892210e-01  -1.21715153e-02   1.52590582e-02  -7.09063634e-02
    8.66270214e-02   1.06577231e-02  -4.02703434e-01   3.11496288e-01
   -2.39338890e-01  -3.97102207e-01  -3.89130145e-01]
 [ -9.45682451e-02  -2.57309303e-02  -2.49797422e-02  -1.26733810e-01
   -3.21176440e-01   5.53311855e-02   1.52151912e-01  -3.77836898e-02
    6.27499893e-02   1.38590232e-01  -1.45135581e-01   1.69987917e-01
    1.67767838e-01  -6.33680522e-02  -7.19702318e-02   2.86101043e-01
   -2.79834807e-01  -4.85723168e-02  -2.15958968e-01  -3.45971107e-01
   -1.02376185e-01   1.69251770e-01  -1.94895715e-02  -2.54384369e-01
    3.11786920e-01  -1.45647163e-02   1.70003876e-01]
 [ -6.36810511e-02   6.38040751e-02   9.80577245e-03  -1.25197798e-01
   -4.68424380e-01  -7.38665462e-02   1.80889651e-01  -3.86241972e-01
    2.08962217e-01   2.30889425e-01  -4.37979311e-01  -2.22902019e-02
    1.46379173e-02  -6.36002123e-02   9.16567296e-02  -1.17098197e-01
   -4.06616867e-01  -1.64689258e-01   2.75828809e-01  -2.70499855e-01
   -1.97720379e-01   7.44420364e-02   1.09606542e-01  -2.37492546e-01
    3.93458217e-01   3.85499477e-01   1.23293243e-01]
 [ -1.83376670e-01  -2.08985358e-01   2.05693424e-01  -2.15185553e-01
   -1.51237190e-01   1.52894065e-01  -1.30002141e-01  -4.88529876e-02
    8.81024753e-05  -8.71244743e-02   6.43333271e-02  -1.84963241e-01
    1.64977103e-01  -1.11717105e-01   2.73349613e-01  -1.51153663e-02
    7.59334713e-02  -3.21657300e-01   1.01578511e-01   1.76642817e-02
    1.51969522e-01   8.82282201e-03   1.04232594e-01   4.51621553e-03
   -1.79992020e-01  -1.98085040e-01   1.34168029e-01]
 [  2.11500242e-01  -3.09581041e-01  -5.75850159e-02  -1.02883250e-01
   -1.79529056e-01   2.98117429e-01   1.56190544e-01  -2.77241766e-01
    2.89914191e-01   1.89246088e-02  -2.25592926e-01   2.39356577e-01
    4.79270294e-02  -4.53324579e-02   1.22593597e-01   2.65344143e-01
    1.16175786e-02  -2.77370691e-01   1.96592331e-01  -1.01224013e-01
   -2.62875527e-01  -9.06878896e-03   6.11437932e-02  -3.72856200e-01
    2.12286219e-01   2.13072985e-01   2.35173285e-01]
 [  7.97369182e-02  -6.55765980e-02  -1.53732866e-01  -4.68837410e-01
   -7.43322894e-02   2.70172834e-01   1.72452196e-01  -4.34874535e-01
    2.42984608e-01  -6.00166172e-02  -2.93868333e-01   2.03086615e-01
    7.03977514e-03   2.77388275e-01   8.03594142e-02   7.68134892e-02
   -2.17136607e-01  -4.35614884e-01   3.69367972e-02  -4.23541665e-02
   -5.97333387e-02  -3.62609327e-01   1.72637567e-01  -1.81572124e-01
    2.28354961e-01  -3.90795730e-02   8.21379125e-02]
 [  1.40016004e-01  -2.52883673e-01  -1.18650440e-02  -7.12864995e-02
   -1.62689805e-01   1.63119752e-03   1.99384391e-01  -1.96175620e-01
    1.88080356e-01   2.30281234e-01   2.42493791e-03   1.57700971e-01
    2.64718831e-02  -1.09914385e-01   3.56585905e-02   5.99829992e-03
   -2.33746201e-01  -1.76796049e-01   3.53615284e-02  -2.14735016e-01
   -2.71957904e-01   6.40722588e-02   3.16733420e-01  -3.42275858e-01
   -3.63572240e-02   2.35593408e-01  -2.87973485e-03]
 [ -4.64870691e-01   1.99223667e-01  -2.88117170e-01   5.42371511e-01
    2.99275696e-01  -2.10380405e-01  -2.62658149e-01   3.89345080e-01
   -3.82998914e-01  -3.72735351e-01   3.38570774e-01  -3.87975611e-02
   -9.73117426e-02  -4.14315283e-01  -5.09039879e-01  -3.69951755e-01
    2.54727006e-01   1.02558807e-02  -1.96240693e-02   1.31112173e-01
    2.95869440e-01   5.72976433e-02  -3.26350093e-01  -8.01007301e-02
   -1.66580498e-01  -5.31496048e-01  -3.65631521e-01]
 [  2.78960797e-04  -3.81020516e-01  -2.36430243e-02  -2.15450555e-01
   -1.58988610e-01   1.74213246e-01   2.91009545e-01  -5.31905470e-03
    2.46219844e-01   1.26277715e-01  -1.99910328e-01   2.42702290e-02
    3.40529710e-01   3.07897896e-01  -1.01843448e-02   3.11646402e-01
   -1.07155837e-01  -1.26444355e-01  -7.07407147e-02   9.39709879e-03
   -3.94766033e-01  -2.81524181e-01  -1.03648449e-03  -2.56202459e-01
    2.92474270e-01   3.62650156e-02   2.21582845e-01]
 [  2.41037458e-01  -2.43227869e-01  -1.04872875e-01  -3.84597443e-02
   -7.00437576e-02   9.76844970e-03   3.32624279e-02  -2.87636489e-01
   -1.00701310e-01  -1.91708967e-01   1.80808559e-01  -2.74879426e-01
    1.45718008e-01  -4.40182425e-02  -2.39291955e-02  -1.90087408e-01
   -3.64539959e-02  -1.08541951e-01  -2.80609608e-01  -1.38555825e-01
   -1.33921027e-01  -1.06272705e-01  -1.99367151e-01  -1.81877688e-01
   -1.89328700e-01  -2.38648251e-01  -8.46781582e-02]
 [ -1.28343225e-01   1.41276091e-01  -3.24162692e-01   2.60139316e-01
    2.46488035e-01  -8.24205279e-02  -5.17836452e-01   2.12436810e-01
   -3.32041651e-01  -8.57835412e-02   8.51872116e-02  -2.57991463e-01
   -9.86501016e-03  -1.51150897e-01  -5.38833924e-02  -2.10908622e-01
    2.69344717e-01   2.18672067e-01  -1.06862918e-01   3.18353295e-01
   -1.06066301e-01   3.59492153e-01  -1.16985142e-01   3.31961036e-01
   -2.77835786e-01  -1.35556549e-01  -2.41253823e-01]
 [ -2.59147465e-01  -9.81433969e-03  -3.16081233e-02  -5.69164902e-02
   -1.41188428e-01   2.36660838e-01  -2.51374453e-01  -1.31831458e-02
    1.04492448e-01  -7.62976110e-02   1.69578105e-01  -9.50679630e-02
   -2.65132338e-01   9.09421593e-02  -1.33071989e-01  -2.88642794e-01
   -1.78689644e-01   9.96489897e-02  -2.37521127e-01  -2.79079437e-01
   -2.10568801e-01  -9.45349187e-02   3.98029499e-02  -5.89053892e-02
   -1.79516286e-01   5.14846249e-03  -3.30397151e-02]
 [ -1.32680953e-01   4.32475328e-01  -3.96110624e-01   6.90813661e-02
    2.63163805e-01  -4.95496452e-01  -1.24278888e-01  -5.99812530e-02
   -4.30123687e-01  -5.75751960e-02   6.38416633e-02  -3.60724449e-01
   -2.59478778e-01  -1.64475083e-01  -3.26887876e-01  -4.39011335e-01
    3.12309384e-01   1.26029849e-01  -3.23966406e-02   2.38509774e-01
    3.71173054e-01   2.39335880e-01  -4.84506577e-01   2.88928330e-01
   -1.07273713e-01  -1.04209274e-01  -2.45629191e-01]
 [  2.37728171e-02   4.11308289e-01  -1.38873175e-01   4.23275083e-01
    1.56470630e-02  -9.34600607e-02  -2.34327212e-01   1.89476967e-01
   -3.30386728e-01  -1.55010626e-01   3.01119208e-01   5.46856560e-02
    4.36322428e-02  -3.39159131e-01  -3.08124632e-01  -3.37205768e-01
    3.98011535e-01   4.02100265e-01  -3.37788701e-01   3.47550809e-01
    6.21725246e-02   1.01877920e-01  -3.78889322e-01   9.88103636e-03
   -4.83597726e-01  -2.83328712e-01  -9.90031138e-02]
 [  3.44159216e-01  -1.32015437e-01   1.09440133e-01  -2.41750404e-01
   -3.79746705e-01   1.51058957e-01   1.58062384e-01  -7.09868297e-02
   -5.13599925e-02   2.16301173e-01  -9.78098810e-02   1.10463552e-01
    4.88043725e-02   3.53015840e-01   1.32282138e-01  -1.32691830e-01
   -1.70357659e-01  -2.81333417e-01   1.17238343e-01  -3.96498978e-01
   -3.97896439e-01  -2.01735079e-01   1.76534206e-01   3.79788093e-02
    4.00053591e-01   2.21088007e-01  -5.69281690e-02]
 [  7.79640526e-02  -3.48747790e-01   6.25576898e-02  -3.53073329e-01
   -1.48645580e-01  -6.49274960e-02   2.06944600e-01   2.30870917e-02
   -3.15410905e-02   1.73687890e-01  -2.95619309e-01   2.88353145e-01
    1.92807838e-01   3.35740656e-01   4.61714864e-02   1.10208392e-01
   -1.05193913e-01   2.51746774e-02  -4.44228053e-02  -4.18021977e-01
   -4.50185835e-01  -1.80876434e-01   2.90038735e-01  -2.00457871e-01
    1.98005866e-02   1.70822799e-01   2.27372855e-01]
 [ -2.64175951e-01   4.15949762e-01  -1.36922166e-01   3.12672853e-01
    3.32088858e-01  -3.63008350e-01  -5.21099389e-01   7.30737522e-02
   -2.76117742e-01  -7.71049261e-02   4.71507609e-01  -1.78020000e-01
   -5.32646418e-01  -3.98674846e-01  -4.03436810e-01  -3.52147192e-01
    1.47758601e-02   1.91219732e-01  -5.30480981e-01   3.84121895e-01
    2.83924341e-01   4.97261763e-01  -3.88521701e-01   1.33500099e-01
   -5.32855093e-01  -4.22673255e-01  -3.55630308e-01]
 [ -3.58136952e-01   2.54195154e-01  -3.93900067e-01   2.41331071e-01
    2.45024860e-01  -3.72781694e-01  -1.72010630e-01   1.92290507e-02
   -1.53453633e-01  -2.01900750e-01   1.34604365e-01  -1.50884733e-01
   -4.08427477e-01  -9.00560915e-02   6.02189563e-02  -1.79602057e-02
    3.77333432e-01   1.75941572e-01  -3.58873993e-01   2.56460547e-01
    1.58568248e-01  -5.82525581e-02  -2.94769824e-01  -9.63072665e-03
   -4.27491844e-01  -1.17901780e-01   7.65788695e-03]
 [ -2.38956109e-01   1.73487633e-01  -2.04993099e-01   3.27521980e-01
    3.60370874e-01  -2.96324521e-01  -2.18164608e-01   2.51233988e-02
   -3.59163851e-01  -1.82581604e-01   6.50914684e-02  -4.16989654e-01
   -3.27097565e-01  -7.09321201e-02  -2.72085756e-01  -3.81009042e-01
    3.27809364e-01   4.06648144e-02  -2.61719137e-01  -3.99821401e-02
    1.48645520e-01   1.66301921e-01  -2.52445966e-01   1.81217968e-01
   -2.38765970e-01  -4.03086334e-01  -2.26123974e-01]
 [ -3.81130397e-01   8.91340151e-02  -4.13619220e-01   4.74383920e-01
    4.11668211e-01  -1.36799380e-01  -3.17118257e-01   1.80960268e-01
   -1.49395257e-01  -2.37330750e-01   4.39968884e-01  -4.87574965e-01
   -5.15338145e-02  -4.22692895e-01  -2.03501701e-01  -2.20131040e-01
    4.09510225e-01   1.66606292e-01  -2.70457536e-01   4.13109630e-01
    4.57646966e-01   7.77070820e-02  -1.32703468e-01   1.55390307e-01
   -2.37144724e-01  -1.88802168e-01  -3.58483195e-01]
 [ -4.85415727e-01   8.36796835e-02  -2.89392948e-01   4.65311170e-01
    4.14544970e-01  -7.17274919e-02  -2.88791507e-01  -3.45927514e-02
   -3.04337472e-01  -4.95473236e-01   1.86138153e-01   4.17285934e-02
   -2.85206616e-01  -1.79343507e-01   1.04839250e-03  -4.66502488e-01
    3.95589739e-01   4.03295577e-01  -3.25197250e-01   3.37766171e-01
    1.22939564e-01   3.99079114e-01  -9.22018215e-02   3.47349316e-01
   -4.14362431e-01  -5.84065557e-01  -1.76214635e-01]
 [  2.91540563e-01   7.43221818e-03   1.22344419e-01  -1.48539200e-01
   -1.78354427e-01   1.31245807e-01   3.47023964e-01  -2.84324795e-01
    3.24342787e-01   1.42997742e-01  -3.45389843e-01   3.94025184e-02
    1.06621413e-02   2.61403732e-02   1.61764875e-01   2.30711147e-01
   -2.17706189e-01  -2.23097116e-01   2.95738548e-01   5.93498498e-02
   -3.28246027e-01  -3.50340426e-01   4.20716792e-01  -3.41490209e-01
    1.11839570e-01   4.08751518e-01  -9.80860647e-03]
 [  1.38397157e-01   1.32618561e-01  -1.15669839e-01   1.54886812e-01
    1.02136225e-01   2.61632174e-01  -1.83110118e-01  -3.32302928e-01
    2.03781679e-01   2.36571521e-01   5.64921685e-02   1.65731087e-01
   -5.98744042e-02   2.16761559e-01   1.19253486e-01   8.92037377e-02
   -6.02035075e-02  -7.13262614e-03  -8.91368091e-03   9.42540318e-02
   -5.66133596e-02  -4.30933051e-02  -1.29352719e-01   8.66001695e-02
   -2.13513244e-03  -1.67516574e-01  -8.04874599e-02]
 [  2.01967955e-01  -4.26317662e-01   2.90368497e-01  -2.24755690e-01
   -2.79438049e-01   3.99014533e-01   1.52885750e-01  -2.90871978e-01
    3.29223752e-01  -5.68992943e-02  -2.66848236e-01   1.72241315e-01
    2.47392535e-01   1.20684328e-02   2.54700959e-01  -5.19796386e-02
   -3.40192437e-01  -1.90105319e-01   1.78665295e-01  -3.24623495e-01
   -2.37280965e-01  -4.13280278e-01   3.71857136e-01  -2.53783643e-01
    5.02265058e-02   1.32596791e-02  -8.73733833e-02]
 [  2.44092643e-01  -2.41568059e-01  -6.44905940e-02  -1.40672222e-01
   -2.71655381e-01   3.25267941e-01   3.04021567e-01  -2.23382741e-01
   -1.89455986e-01  -4.24148925e-02  -8.01114812e-02   3.28602046e-02
    3.68757686e-03  -1.48145884e-01  -6.32479489e-02   1.23423584e-01
   -2.60412335e-01  -3.46682191e-01   2.02916399e-01  -3.67873788e-01
   -3.70346457e-01  -2.68235683e-01   3.78647536e-01   5.41430004e-02
    3.91631186e-01   9.60207358e-02   1.82289153e-01]
 [  3.48666966e-01  -3.59629691e-01   3.29463691e-01  -1.54169664e-01
   -3.19275618e-01  -9.67991278e-02   1.17798574e-01  -1.68710470e-01
    2.00471744e-01   5.03468513e-03  -4.06158984e-01   3.39066863e-01
    1.97752994e-02   6.64048940e-02   1.73235923e-01   1.39908820e-01
   -2.36275405e-01  -8.23420882e-02  -4.38462794e-02  -3.76241118e-01
   -1.44766122e-01  -3.75996828e-01   4.10134435e-01  -1.85398653e-01
   -6.72796145e-02   6.32077381e-02   3.14348973e-02]
 [  1.62684947e-01   3.21653895e-02   2.48574987e-01  -3.17219675e-01
   -5.05767763e-01  -5.59468754e-02   3.12774293e-02  -7.79759884e-02
   -9.92298275e-02   3.76335293e-01  -5.58552146e-02   2.31232882e-01
    3.88946056e-01   5.67771904e-02   2.67036408e-01   3.80972475e-02
   -1.70675874e-01  -1.94992706e-01   9.43852589e-02  -2.67238200e-01
   -1.92695539e-02  -4.03273880e-01   9.04353485e-02  -3.67060900e-01
    2.45440900e-01   4.63118196e-01   3.10527440e-02]
 [  1.55444639e-02   3.10405105e-01  -2.47883067e-01   1.44274607e-01
    2.61546761e-01  -4.90332246e-01  -2.10413173e-01   2.60497272e-01
   -6.87571475e-03  -3.07388723e-01   4.20195609e-02  -3.35920125e-01
   -4.84395623e-01  -1.64383069e-01  -3.74247700e-01  -3.56301337e-01
   -1.65462531e-02  -4.50085383e-03  -4.83709067e-01   3.31261277e-01
    6.49712794e-03   2.35214025e-01  -1.70213997e-01   1.13979112e-02
   -1.07579730e-01  -1.40662670e-01  -5.08559346e-01]
 [ -2.67787248e-01   1.98119774e-01  -4.84744221e-01   1.46253347e-01
    3.24436158e-01  -1.19277127e-01  -1.82451785e-01  -9.01644826e-02
   -3.72043073e-01  -1.85256541e-01   2.58824021e-01  -2.01655194e-01
   -2.10248053e-01  -4.54843283e-01  -4.38542992e-01  -4.11994100e-01
    3.72664891e-02   1.95511468e-02  -1.41826093e-01   3.47156763e-01
   -4.43468280e-02   1.52529642e-01  -2.36533023e-02   2.16180027e-01
   -2.75365829e-01  -1.77662075e-01  -3.84220809e-01]
 [  2.69038379e-01  -2.08139122e-01   1.93171084e-01   1.74435899e-02
   -8.71169195e-02  -5.42526729e-02   1.41399071e-01   2.34603435e-02
   -1.54887661e-01   2.15862051e-01   5.14803641e-02   2.97553658e-01
   -5.70191108e-02   1.11458093e-01   4.70394641e-02   2.57001936e-01
   -6.02437072e-02  -1.33266538e-01   2.35491186e-01  -6.27175346e-02
   -3.43016505e-01  -1.48867622e-01   3.28034878e-01  -4.91575114e-02
   -6.64982274e-02   1.42009422e-01   5.91194369e-02]
 [ -4.23066825e-01   2.19644785e-01  -4.22716767e-01   2.60651112e-01
    2.62343138e-01  -3.93696338e-01  -8.57940763e-02  -3.42384540e-02
   -3.17626089e-01  -3.90414894e-01   1.39041170e-02  -2.63843685e-01
   -1.90117434e-01  -4.43506062e-01  -3.61372113e-01  -1.96175575e-01
    1.89581260e-01   2.23940328e-01  -4.64335736e-03   4.66389433e-02
    2.35570863e-01  -4.84078862e-02  -6.54164404e-02   2.74597198e-01
   -1.64240599e-01  -1.67025700e-01  -2.80691862e-01]
 [ -3.43695611e-01   2.06520244e-01  -1.80048011e-02  -8.11892003e-02
   -3.13557498e-02  -1.94960549e-01  -5.83635867e-02   2.47158900e-01
   -8.39638561e-02  -1.73914954e-01   1.64906308e-01  -3.68805587e-01
   -2.44458094e-01  -1.29416913e-01  -1.48798386e-02  -5.56523874e-02
   -6.48309886e-02   3.83516662e-02   5.60017154e-02  -1.80345416e-01
    3.53980780e-01   3.42787296e-01  -2.47709587e-01   1.19967327e-01
   -3.84229988e-01  -1.88190773e-01   1.25329003e-01]
 [ -3.42308462e-01   3.66147429e-01  -1.86628580e-01   4.31866199e-01
    5.44910073e-01  -4.90066677e-01  -2.82920390e-01   3.12674850e-01
   -1.34607479e-01  -3.71705294e-01   3.35357755e-01  -4.90982562e-01
   -1.76169589e-01  -4.43319567e-02  -2.94970751e-01  -4.10117030e-01
    4.98498768e-01   3.46014678e-01  -4.26676214e-01   4.02153581e-01
    6.82726968e-03   2.49771386e-01  -5.38784564e-01   2.57133335e-01
   -6.22480273e-01  -3.17945212e-01  -1.05457805e-01]
 [ -2.70556331e-01   1.17885076e-01  -4.25608516e-01   1.91723868e-01
    3.17946315e-01  -3.93216133e-01  -4.57616299e-01   4.21771944e-01
   -4.80497062e-01  -5.35279691e-01   1.89892367e-01  -4.10998911e-01
   -4.57360804e-01  -4.02375698e-01  -4.03946757e-01  -3.74341279e-01
    4.86556180e-02   1.91865772e-01  -4.02062088e-01   3.98041874e-01
    3.21548373e-01   1.29039213e-01  -6.40377626e-02   2.84986436e-01
   -1.49563700e-01  -4.75881845e-01  -4.01759833e-01]
 [ -1.01532720e-01   6.53369427e-02   8.97017345e-02  -3.47280681e-01
   -3.95166367e-01   2.00228184e-01   1.62614152e-01  -1.66970596e-01
    9.97506753e-02   1.55740142e-01  -1.09285392e-01   3.15827250e-01
    4.45865933e-03   2.24693388e-01   3.30787450e-02   1.38946816e-01
    4.53411750e-02   3.18009034e-02   3.41633171e-01  -2.35382840e-01
   -1.20056756e-01  -1.62134692e-01  -9.06997025e-02  -1.04789957e-01
   -2.14790422e-02   3.12204808e-01   2.46734574e-01]
 [  1.87470242e-01  -1.22698685e-02  -4.42688279e-02  -2.35495761e-01
   -3.54993075e-01   3.63000602e-01  -5.55323102e-02  -1.65415734e-01
    9.66512561e-02  -2.27773622e-01   5.42321205e-02   1.16333517e-03
   -3.40965651e-02  -2.07855497e-02   3.26479048e-01  -1.27562657e-01
   -1.20226912e-01  -2.38369703e-01   1.85098857e-01  -3.09065670e-01
   -3.90974917e-02  -1.03557467e-01   6.22284189e-02  -3.76808107e-01
    3.57340127e-01   8.44241232e-02   1.58105388e-01]
 [ -4.29855645e-01   3.63210797e-01  -2.85239756e-01   1.30580574e-01
    1.82186142e-01  -2.20637277e-01  -1.94516405e-01   2.80529261e-01
   -2.73164332e-01  -4.70414221e-01   2.48450294e-01  -4.19973940e-01
   -5.42135417e-01  -8.34941790e-02  -2.11809874e-01  -1.99390292e-01
    2.11444646e-01   3.98402840e-01  -1.12538986e-01   9.47637036e-02
    2.01804519e-01   3.28067333e-01  -3.63871992e-01   2.87696481e-01
   -2.77980149e-01  -2.29547381e-01  -1.87047079e-01]
 [ -3.75625640e-01   1.28930360e-01  -3.76799673e-01   1.80796474e-01
    4.70784791e-02  -2.83224225e-01  -5.64280450e-01   1.99574456e-01
   -4.31748360e-01  -8.33460093e-02   3.79924923e-02  -3.37228179e-01
   -2.85398602e-01  -2.93409318e-01  -2.98040897e-01  -1.65140644e-01
   -8.84253681e-02   8.56301039e-02  -4.63417828e-01   6.70510456e-02
    4.15525168e-01   2.83672154e-01  -3.52194011e-01  -1.10623119e-02
   -4.44822729e-01  -1.56388745e-01  -2.55319118e-01]
 [  2.50256360e-02  -1.81909293e-01   1.88983172e-01  -3.83090317e-01
   -1.58339277e-01   1.99630171e-01   2.16199577e-01   2.60811727e-02
    1.08764872e-01   3.00390035e-01  -5.55654801e-02   1.53565649e-02
   -9.97175798e-02   1.84347406e-01   2.05019891e-01   2.02935785e-01
   -9.27080214e-02  -3.30544531e-01  -1.08816490e-01  -6.69012964e-02
    6.99423775e-02  -2.26082355e-01   4.76494208e-02  -7.42824897e-02
    1.32523194e-01  -5.66058904e-02   1.83364496e-01]
 [ -4.48586494e-01   2.72085100e-01  -1.77359641e-01   3.63125741e-01
    1.07155025e-01  -2.14545801e-01  -3.00779015e-01  -9.42795947e-02
   -3.36290300e-01  -3.58418196e-01   3.88472766e-01  -4.95659143e-01
   -5.25365993e-02  -8.42504278e-02  -6.62153512e-02  -3.80237788e-01
    3.91327947e-01   4.35627520e-01  -2.21942961e-01   5.56567982e-02
    9.40231681e-02  -1.03341388e-02  -3.68492842e-01   3.17720950e-01
   -8.30475315e-02  -3.10078233e-01  -3.59415948e-01]
 [ -3.44129741e-01   4.58352506e-01  -5.06555498e-01   5.22559226e-01
    5.31685472e-01  -1.19513445e-01  -2.03422084e-01   1.90902486e-01
   -3.44553500e-01  -3.17863524e-01   3.56610179e-01  -4.29243803e-01
   -1.28051430e-01  -6.37356564e-02  -2.85735071e-01  -1.59229159e-01
    5.12053929e-02   1.88607261e-01  -4.83611822e-01   2.04487577e-01
    4.51327324e-01   3.57065737e-01  -2.93342710e-01   1.65844843e-01
   -5.79393387e-01  -2.52112836e-01  -2.20754027e-01]
 [ -6.74011931e-02   7.39944652e-02  -2.82584667e-01   1.15390502e-01
    2.12831721e-01  -1.46847770e-01  -4.04250547e-02   9.60041117e-03
   -2.24291638e-01  -2.17786934e-02  -1.84950024e-01  -1.31913377e-02
   -4.78444956e-02  -1.18421830e-01  -2.33711138e-01   1.58817858e-01
   -2.08418801e-01   1.22327685e-01  -1.12955451e-01   3.31843854e-03
   -1.80148661e-01   2.35315546e-01   1.22949354e-01  -1.50715098e-01
   -3.27850938e-01  -2.41771042e-02  -3.01282674e-01]
 [  3.11273426e-01  -6.22812659e-02   3.13331217e-01  -7.20535219e-02
   -1.28745928e-01  -7.34994141e-03  -3.61236408e-02  -8.43210742e-02
    3.20264637e-01   6.90569878e-02  -3.50819886e-01   7.31441751e-02
    2.58169353e-01  -1.00358643e-01   9.00371000e-02   3.65219802e-01
   -2.91579634e-01  -1.08079769e-01   2.61521399e-01  -2.25692451e-01
    5.32656796e-02   2.03162618e-03   1.12304710e-01  -3.82968545e-01
    9.20790434e-02  -1.21369652e-01   8.57784152e-02]
 [ -1.46099189e-02  -3.87420028e-01   1.81626320e-01  -2.12810993e-01
   -4.94325794e-02   7.97661394e-02   1.57299355e-01  -1.63523868e-01
    1.91227168e-01   1.00085273e-01  -3.34872007e-01  -2.94700060e-02
    2.81451195e-01   2.50410199e-01   2.13294104e-01   3.85691434e-01
    2.94368099e-02  -4.75294031e-02  -4.64683026e-02   2.51703728e-02
   -2.99088880e-02  -3.06073487e-01   4.21225041e-01  -3.79505008e-01
    2.88284346e-02   3.82517815e-01   2.20568717e-01]
 [ -4.39438922e-03   5.74879535e-03   3.21395278e-01  -2.92231917e-01
   -2.64773011e-01   5.38672470e-02   2.38355547e-01   2.21988317e-02
    1.31787866e-01   2.92826951e-01  -3.11879933e-01   1.22637928e-01
   -2.34355796e-02   1.48210049e-01   1.10547259e-01  -9.34540704e-02
   -3.60021383e-01  -1.20272830e-01   2.93655898e-02  -4.06256765e-01
    3.65466764e-03  -2.26100832e-01  -4.08143289e-02  -3.84220839e-01
    4.20159310e-01   1.37201726e-01   2.36154795e-01]
 [  1.83136642e-01  -7.61116203e-03   6.76665548e-03  -8.92100111e-02
   -1.27431631e-01   2.23807961e-01  -1.35947570e-01  -2.55445875e-02
    1.41644195e-01   2.13951450e-02  -3.38052154e-01   1.83097981e-02
    3.15731853e-01  -7.00531602e-02   3.86359245e-01   1.12031966e-01
    1.72486100e-02  -3.82631809e-01   2.12172821e-01  -2.48584762e-01
   -8.51937477e-03  -2.22358387e-02  -3.72191295e-02  -3.79886419e-01
    2.85456151e-01  -1.01677477e-01   2.01744273e-01]
 [ -3.75241697e-01   3.91182303e-01  -1.46674708e-01   2.12836891e-01
    3.68504167e-01  -3.80980819e-01  -1.94122255e-01   3.96837533e-01
   -3.78646910e-01  -2.63816267e-01  -8.83576274e-03  -3.76086980e-01
   -1.00450873e-01  -4.66542184e-01  -3.15625459e-01  -3.44785631e-01
    4.01633561e-01   2.81854719e-01  -4.79424596e-01   4.10170376e-01
    4.13254261e-01   4.48347092e-01  -4.69980955e-01  -5.71642853e-02
   -4.34745044e-01  -5.28053999e-01  -7.47068450e-02]
 [ -2.79205859e-01   4.73503880e-02  -1.71661094e-01   4.76398498e-01
    5.32284498e-01  -1.77642524e-01  -4.39647853e-01   1.91431567e-01
   -4.31948900e-01  -4.08977658e-01   6.19121604e-02  -9.52601954e-02
   -4.97870862e-01  -4.23937976e-01  -4.36338425e-01  -2.22183689e-01
    2.23760530e-01   1.86939120e-01  -9.05800089e-02   3.54408562e-01
    2.74206042e-01   4.75624293e-01  -5.63738346e-01   3.62293750e-01
   -6.04513407e-01  -1.46765769e-01  -3.14116180e-01]
 [  2.12128416e-01  -2.42609173e-01   2.59000987e-01  -1.07086971e-02
    1.78987347e-02   1.98725939e-01  -1.80418313e-01  -2.76173768e-03
    1.06950767e-01  -5.30659705e-02  -1.11081436e-01  -9.52598527e-02
   -3.26632150e-02   3.76856588e-02  -9.58163217e-02   1.18672550e-01
   -7.16363713e-02  -1.35390192e-01   3.27241421e-01  -3.97613436e-01
    2.32898593e-02  -3.91426802e-01   3.37527096e-01  -3.70645016e-01
    1.19295660e-02   2.70756900e-01   5.15847057e-02]
 [ -5.41022494e-02   4.20526326e-01  -5.00783145e-01   5.79774380e-01
    3.83720510e-02  -3.00416291e-01  -2.85355300e-01   2.16208324e-01
   -2.31252402e-01  -1.80855304e-01   4.92076039e-01  -4.29410994e-01
   -4.65069026e-01  -9.64787453e-02  -4.70253468e-01  -2.04693690e-01
    3.73035342e-01   7.84977302e-02  -4.21037674e-01  -4.21941504e-02
    3.01777810e-01   2.14087933e-01  -5.32621443e-01   1.81741476e-01
   -1.62999734e-01  -5.90117037e-01  -3.46711010e-01]
 [ -1.87072501e-01   1.79403782e-01   1.99187896e-03   2.87458718e-01
    4.97317880e-01  -1.38442919e-01  -1.25363216e-01   1.45897686e-01
   -3.93742085e-01  -2.61026055e-01   1.65677106e-03  -3.32289666e-01
   -3.24421167e-01  -3.20005238e-01  -4.43547554e-02  -2.70955116e-01
    4.57926467e-02   4.31994200e-01  -4.15384710e-01   1.90595925e-01
    3.79020452e-01  -5.15814722e-02  -3.71509373e-01   3.43604416e-01
   -5.55936575e-01  -4.90706593e-01  -4.51435685e-01]
 [ -2.80192316e-01  -8.76263436e-03  -4.37332332e-01   4.15509194e-01
    1.13262519e-01  -4.28300202e-01  -2.71593690e-01  -4.47786264e-02
   -7.93091357e-02  -4.21299815e-01   4.07712251e-01  -4.47772741e-01
   -1.32789224e-01  -3.84998411e-01  -3.19261074e-01  -1.30567387e-01
   -1.26249984e-01   1.36052504e-01  -5.75541612e-03   2.81966120e-01
    8.28405321e-02  -5.19917458e-02  -1.72151715e-01   2.20187977e-01
   -7.60636628e-02  -4.40599918e-01  -2.78273553e-01]
 [ -2.36315921e-01  -7.83686489e-02  -2.93998122e-01   3.87450099e-01
    3.28746855e-01  -9.50359702e-02  -1.00760743e-01   2.53067255e-01
   -8.23953822e-02  -3.29779029e-01   1.82476655e-01   6.89384714e-02
   -6.93083704e-02  -8.17801282e-02  -3.55624855e-01  -3.60412210e-01
    2.40037054e-01   4.31489140e-01  -2.85403132e-01   1.37467146e-01
    2.64299870e-01   2.72726029e-01  -3.57586384e-01   9.97454077e-02
   -3.66507590e-01  -1.38665393e-01  -3.47802527e-02]]
