[[[[-2.94856839e-02 -1.86153892e-02  5.36301024e-02 -7.71833537e-03
     1.88399628e-02 -3.95753533e-02  2.73657478e-02 -1.71171054e-02
    -3.17097455e-03 -4.94185882e-03 -2.35465318e-02  3.75216119e-02
    -1.34716777e-03  1.90587454e-02  1.49230696e-02  2.70905439e-02
     2.66052261e-02 -2.31291167e-02  2.30996553e-02 -3.01856268e-02
    -1.96400128e-04  2.95348540e-02  3.39462496e-02 -3.71708386e-02
    -2.90232282e-02  7.24590675e-04 -3.15923542e-02  1.21099427e-02
    -3.72417942e-02 -9.39382147e-03 -4.14915644e-02 -2.53528636e-02
    -2.36318656e-03  8.73386301e-03  9.47065838e-03 -2.29759002e-03
     1.43731488e-02 -6.44752244e-03  3.11842784e-02 -2.92463358e-02
     2.45148949e-02 -2.34370176e-02 -3.55113745e-02 -6.15182985e-03
    -2.08711941e-02 -3.46717313e-02 -2.12805588e-02 -2.08192561e-02
    -4.54639114e-04  2.70363223e-03 -2.47154981e-02 -5.68967592e-03
    -4.96475957e-03  7.66424555e-03 -9.46277753e-04  1.85291208e-02
     2.50424482e-02  2.24138889e-02  2.64275409e-02 -3.83329727e-02
    -2.27574799e-02  4.24756994e-03  1.59806330e-02  2.85586007e-02
    -1.70066524e-02 -3.71958166e-02  1.71472002e-02  1.45347440e-03
    -1.44757172e-02  2.10138522e-02  2.87155472e-02 -2.68266406e-02
     3.26414295e-02 -2.43919697e-02  1.72578637e-02  1.44363428e-02
    -2.84664985e-02  4.04576026e-02 -1.21983998e-02 -9.96842515e-03
     1.59929283e-02  2.74413236e-04 -6.30376441e-03  3.13835777e-02
     1.88245084e-02 -2.67016757e-02  1.77266039e-02 -2.71435641e-02
     2.76132878e-02 -3.00255083e-02 -3.40962708e-02 -3.32652107e-02
     5.39102778e-03  2.26610862e-02 -2.24224594e-03  2.51790993e-02
    -2.02260315e-02  7.25216931e-04 -1.51732191e-02  3.50761153e-02
     1.16376784e-02  2.20954306e-02  2.55446136e-02  1.18987160e-02
     1.74558008e-04  1.42731750e-02 -2.75483821e-03 -1.10428361e-02
     2.00603046e-02  1.33544495e-02 -9.65711288e-03  1.12292496e-02
    -4.04061787e-02 -3.95568321e-03  1.70394350e-02  3.62418629e-02
     2.73996163e-02 -3.08784600e-02 -3.53590026e-02  2.03314703e-02
     3.79238687e-02 -1.84112210e-02 -2.07938980e-02 -5.29455533e-03
    -1.88919529e-02 -2.68109273e-02 -7.82907568e-03 -3.46699031e-03
    -1.22010764e-02  2.85631716e-02 -1.57042462e-02  2.71175858e-02
    -2.13177856e-02 -7.94504024e-03 -3.03615090e-02 -2.84877997e-02
     2.97077801e-02 -3.03274672e-02  2.39739586e-02  2.73781139e-02
     1.63495727e-03 -2.81660575e-02  1.22054433e-02  2.78456323e-03
     2.36920323e-02 -3.19974311e-02 -9.47420392e-03 -1.38456207e-02
    -7.01674586e-03  3.34501714e-02 -1.53978057e-02 -1.90445650e-02
    -1.85229909e-02  2.52155121e-02 -5.78471972e-03 -1.91661960e-03
     1.67073030e-02  3.32554691e-02 -1.40129374e-02  5.55687211e-03
    -1.97528792e-03  1.40317827e-02 -3.74111943e-02  2.36401707e-02
     1.61095746e-02 -9.52092558e-03  2.14925651e-02  3.97605170e-03
     2.52148826e-02 -1.43239619e-02 -3.90241519e-02  1.57712575e-03
     5.36448904e-04 -3.17902230e-02 -5.27967606e-03  1.45336762e-02
     2.91187949e-02  1.87797211e-02 -2.72362716e-02  2.96270456e-02
     2.46683415e-02  2.59762723e-02 -8.73965863e-03 -3.05669159e-02
    -3.47850174e-02 -9.00627347e-04  2.52643619e-02  1.05234571e-02
    -3.26627754e-02 -2.48611867e-02  2.11305190e-02  2.08879448e-02
    -1.73520260e-02  3.97110283e-02  8.07876606e-03 -3.57095711e-02
    -1.60326995e-02 -2.98936479e-02  1.77369658e-02  1.11382185e-02
    -3.22660916e-02 -3.94997559e-02  6.89308159e-03  1.25217810e-02
    -3.28083001e-02  2.36522853e-02 -3.04544382e-02 -2.38017533e-02
     3.11701689e-02 -2.57002339e-02 -1.34995272e-02  1.96265262e-02
    -2.31587011e-02 -4.41620039e-04 -3.31040919e-02 -2.62698364e-02
    -3.76381874e-02 -1.43032484e-02 -1.51969716e-02 -1.16124917e-02
    -1.67186502e-02  8.17603804e-03  8.57252348e-03 -1.04686217e-02
    -4.12921757e-02 -2.36234758e-02  1.72119513e-02  1.10227112e-02
     2.27533691e-02 -3.48353125e-02  2.70134620e-02 -2.79898904e-02
     2.37636920e-02  2.51645092e-02  3.47585045e-02  2.35485062e-02
    -1.03013199e-02  2.64761057e-02 -1.99069940e-02  2.62081716e-02
     2.16621384e-02 -1.25998352e-02 -1.28453737e-02  2.02591233e-02
    -5.34842210e-03 -4.86238254e-03 -4.88143926e-03  1.34605654e-02
     2.78663393e-02 -6.86067762e-03  4.03469242e-02 -3.41087133e-02
     2.81394999e-02 -1.30977212e-02  1.28511963e-02  4.10161680e-03
    -9.67609324e-03  3.41254170e-03  9.02513135e-03 -1.41354119e-02
     6.08533248e-03 -1.00477273e-03  3.08803134e-02  1.86090022e-02
    -5.91239100e-03 -1.79765057e-02 -1.81930698e-02  1.62781067e-02
     2.69415155e-02  2.64813993e-02 -6.49604015e-03 -3.70514765e-02
    -1.14659239e-02 -2.61358060e-02 -3.91412154e-03 -3.51951458e-02
     2.75175944e-02  1.05563970e-02  2.52052974e-02  2.88183335e-03
    -3.66293453e-02  1.33730704e-02  1.26309823e-02 -4.51756874e-03
     3.30976839e-03 -9.51425359e-03  3.95602593e-03  2.97598336e-02
     3.40752699e-03 -1.64486915e-02  1.32149244e-02 -9.10567306e-03
     8.61738663e-05  1.25411516e-02  2.54720096e-02 -6.23575924e-03
    -2.31931508e-02 -3.62872742e-02  2.43975483e-02 -3.74430828e-02
     1.72561705e-02 -1.50871770e-02  6.67581055e-03 -1.30286682e-02
     2.44215447e-02  4.70524691e-02  2.45622825e-02 -1.04392013e-02
     9.39536281e-03 -3.21251191e-02  1.36484243e-02  2.61779986e-02
     8.71576741e-03  3.15446220e-02 -1.09981392e-02 -2.61042807e-02
    -3.52047570e-02  4.57120612e-02  3.25594353e-03  2.24272683e-02
    -2.80529279e-02  8.35120212e-03 -3.62486839e-02 -5.82329975e-03
     7.62969255e-03 -3.16042453e-02 -1.38834864e-02 -3.35583277e-02
     1.34036243e-02 -3.29681896e-02  2.10445188e-02 -1.43760787e-02
     1.61833614e-02  2.98323967e-02 -2.18580607e-02  2.98947953e-02
     1.65065974e-02 -3.19552198e-02  1.14122089e-02  5.43318084e-03
     2.04657055e-02 -3.47931273e-02  1.00345323e-02  5.51626272e-03
    -1.90236159e-02  1.19025642e-02 -2.52558030e-02  6.41043158e-03
     3.66702527e-02 -6.43111416e-04  3.10737211e-02  1.57969482e-02
     9.32656601e-03  1.46670090e-02  1.17387716e-02 -1.80234779e-02
    -2.04092991e-02 -2.12059673e-02 -2.05688607e-02 -1.62408501e-02
    -3.94549919e-03 -1.23650813e-02  4.28166911e-02  1.00908466e-02
     3.82078323e-03 -1.83207784e-02  2.44565271e-02 -3.86462845e-02
    -1.17113236e-02 -2.16039058e-04 -4.46133278e-02  5.73689467e-04
    -1.28986388e-02 -9.91543056e-04 -1.15620689e-02 -3.14077251e-02
     1.72725059e-02  4.93916497e-02  3.54993483e-03  9.12242848e-03
     1.88218746e-02 -1.58131365e-02 -2.32515745e-02 -1.17489053e-02
     2.76499894e-02 -2.04626080e-02  3.08626685e-02 -1.29243368e-02
    -3.65988426e-02  3.46785225e-02 -8.71423073e-03  1.66874360e-02
     2.18690932e-02 -1.69715658e-02 -5.74131496e-04 -2.10751630e-02
    -2.06834059e-02 -1.23328967e-02 -2.95186732e-02  4.67117410e-03
     2.58778762e-02  1.50316590e-02  1.20802652e-02 -2.13156641e-02
    -3.03049164e-04  1.91432200e-02 -2.80227326e-02  1.84360370e-02
    -8.46860837e-03  7.26508535e-03 -1.23820268e-02 -1.98329203e-02
    -5.97220554e-04  1.30608929e-02  2.94476114e-02  2.60712244e-02
    -2.03789379e-02 -1.10981287e-02 -1.39021641e-02  3.14801186e-02
    -2.21940000e-02  3.44087812e-03  2.17974223e-02  2.40937136e-02
    -2.37084907e-02 -2.56362241e-02  6.34658244e-03 -2.37745102e-02
    -2.63425428e-02 -3.08569502e-02 -2.63612848e-02  1.59111358e-02
     6.28284132e-03  2.35796645e-02 -1.13896662e-02  2.98818182e-02
    -1.93922259e-02  3.12661491e-02 -3.99225093e-02  2.36840211e-02
    -3.14749852e-02 -2.92230491e-02 -1.42513486e-02 -8.61074962e-03
     2.91889571e-02  5.92212891e-03  5.62271941e-03  2.64899060e-02
     4.49421071e-03  6.76799845e-03 -1.60960555e-02 -1.80072691e-02
     1.83852587e-03 -1.21279974e-02  1.60279181e-02 -4.81978105e-03
     3.62409023e-03  1.26244500e-02 -3.28914933e-02  2.62758676e-02
    -3.44499536e-02 -3.50491852e-02 -2.74048187e-02  2.93613169e-02
     1.46913124e-04  1.09763490e-02 -7.11735757e-03  2.87901089e-02
    -3.77267189e-02 -1.64684374e-02  2.46921293e-02  1.74170267e-02
     1.69907091e-03  2.55078543e-02 -1.11519545e-02  2.94461828e-02
    -1.45771960e-02 -2.80535985e-02  4.45212014e-02 -1.47434194e-02
    -1.22249741e-02  3.11922375e-02  6.96703931e-03 -2.50898823e-02
    -2.83432547e-02 -9.13284346e-03  2.02200096e-03  2.66986117e-02
    -2.56355908e-02 -2.76474059e-02 -2.85586473e-02  2.31754743e-02
     1.80512164e-02 -2.29211524e-02 -2.81107370e-02  2.29087546e-02
    -4.30318117e-02  1.92424953e-02 -1.97960213e-02 -1.16965743e-02
    -1.31814145e-02  2.65060682e-02  9.06930584e-03 -2.84060705e-02
    -1.01733245e-02 -1.22450897e-02 -1.21572120e-02  2.34549842e-03
    -4.55708848e-03 -1.37056792e-02  3.01954374e-02 -1.38383312e-02]]

  [[-1.57397445e-02  1.50443371e-02  9.74936597e-03  1.51140299e-02
     2.10173428e-02  4.38458147e-03 -1.66859757e-02 -1.51546877e-02
    -1.39876604e-02 -2.56851483e-02  1.56476367e-02  1.22781899e-02
    -4.57445439e-03 -1.99981667e-02  1.44543583e-02 -6.68294542e-03
    -2.45654415e-02  2.34597437e-02 -2.48476826e-02 -1.62640177e-02
     1.28986230e-02  1.07758287e-02  3.43905087e-03 -7.46879820e-03
    -2.19277311e-02 -2.67087407e-02 -2.24317946e-02  3.64803374e-02
     2.38259323e-02  1.29285604e-02  3.00490316e-02 -1.91393159e-02
    -2.60300227e-02 -2.62885951e-02 -2.47485489e-02  3.12394109e-02
    -3.43944062e-03 -1.91304404e-02 -2.30399566e-03  6.75230427e-03
    -1.05839735e-03 -3.34739164e-02 -3.20235491e-02 -2.29679309e-02
     8.83466378e-03  2.73987893e-02 -1.55117624e-02  1.54165616e-02
    -1.45366071e-02 -3.42147872e-02  1.63783692e-02 -3.62717807e-02
    -1.50447898e-02 -3.53418924e-02 -3.91344838e-02  2.44655330e-02
     7.33673619e-03 -4.35683830e-03  1.92287024e-02  2.51387805e-02
     1.50566939e-02 -1.17186625e-02 -3.90666835e-02 -3.33728939e-02
    -2.76019070e-02 -2.91276965e-02 -3.67550179e-02 -1.96998045e-02
     2.55571250e-02  2.32199510e-03 -6.41336152e-03  3.33514549e-02
     2.25349143e-02  1.90053433e-02  5.44182630e-03 -1.75288261e-03
     2.75935978e-02  2.16090772e-02 -3.90696861e-02 -2.44283937e-02
     2.78230999e-02  2.38689072e-02 -1.81844719e-02  1.22392969e-02
     2.42898539e-02 -3.27574722e-02  1.99470501e-02  8.23388807e-03
    -6.33802684e-03  2.19925530e-02 -2.53167208e-02 -3.57208028e-02
    -2.14368310e-02 -3.97260450e-02  1.40628964e-02  1.46438861e-02
    -1.19786775e-02 -1.03265047e-02 -1.58615354e-02 -8.55749007e-03
     4.26410511e-03 -2.24136021e-02 -1.51478667e-02 -7.55710993e-04
     1.77397137e-03  1.18657891e-02 -1.77582111e-02  7.37064518e-03
    -2.74196025e-02 -3.85476984e-02 -1.51808467e-02 -2.48119864e-03
     1.27694104e-03  2.26353370e-02 -6.88133668e-03 -1.44417873e-02
     2.93812808e-02  1.55471181e-02  3.17663327e-02  7.11264880e-03
    -8.77534412e-03 -3.38017233e-02 -1.89990439e-02 -3.38622183e-02
     8.03588144e-03 -2.99046077e-02  2.80340388e-02  3.90490517e-02
     2.47305650e-02  3.75171221e-04 -3.35663408e-02 -4.75865137e-03
     2.35946779e-03  1.96553078e-02 -3.24286968e-02 -3.10396682e-02
     1.70182381e-02 -2.30822321e-02 -8.29471275e-03 -2.89378073e-02
    -1.96861243e-03 -1.51969483e-02  3.04831341e-02 -3.30141075e-02
    -1.09128458e-02 -7.26929342e-04  1.33560097e-03  4.91175875e-02
    -1.76989511e-02  3.06248646e-02  7.12911505e-03 -4.54850669e-04
     1.83622763e-02  2.62235757e-02  3.10593331e-03  1.29069313e-02
     2.57969312e-02 -2.61701345e-02 -8.17871187e-03  1.45296557e-02
    -1.45251886e-03  1.70395765e-02  2.09650826e-02 -1.07432296e-02
     7.30132684e-03  2.91874986e-02 -2.35817898e-02 -2.52621491e-02
    -1.50071401e-02 -1.62571836e-02 -9.50333383e-03  2.90597510e-02
    -1.62643306e-02 -1.59557201e-02  3.62307914e-02  3.46437469e-02
     2.42320006e-03 -1.02178073e-02  4.70305700e-03 -2.84848809e-02
    -1.35169672e-02 -2.44709547e-03  1.94416083e-02 -1.25051718e-02
    -2.30336618e-02  1.01232566e-02  1.74951404e-02  2.17744857e-02
    -4.29388694e-02  3.62782925e-03  2.13726740e-02 -2.44458299e-02
    -3.45269926e-02 -2.79159658e-03  1.58092435e-02 -2.89315563e-02
    -2.97817420e-02  1.33310407e-02 -3.94432880e-02  2.54407227e-02
     2.08282992e-02 -1.60329994e-02 -1.68937650e-02  1.90658476e-02
    -2.32936312e-02 -4.35416494e-03  5.44567872e-03  1.49629451e-02
    -6.21059851e-04  2.84644421e-02  1.73426792e-03 -2.82641351e-02
     3.35771753e-03  2.03706678e-02  2.70754145e-03  5.75182820e-03
     2.72905175e-03 -3.15599027e-04  2.98813116e-02 -1.85317509e-02
    -2.09566299e-02 -5.98203996e-03 -5.73515380e-03 -2.69232485e-02
     1.58243757e-02  2.16390584e-02  2.44110730e-02  6.07921463e-03
    -3.72196361e-02 -3.12649123e-02  3.11930710e-03  1.23090502e-02
     2.14736443e-02  3.74654382e-02 -2.62389164e-02 -9.27232392e-03
     7.39050563e-03  2.90362090e-02  2.71935854e-02 -1.63025521e-02
     2.15048194e-02  8.99064762e-04  1.01955151e-02  2.06501428e-02
     5.45686251e-03  9.27189272e-03  2.19380744e-02  8.08874890e-03
    -2.63396166e-02 -3.69135067e-02 -4.73384093e-03 -2.53302045e-03
    -2.42707338e-02  1.38137164e-02 -4.88573872e-03 -2.41384306e-03
     1.70387682e-02 -3.40703428e-02  1.10232327e-02  6.40193652e-03
     2.82324385e-02  2.55680066e-02 -4.90039773e-03  1.42761171e-02
    -2.29793489e-02 -7.95916189e-03  3.27992849e-02 -2.40004994e-02
    -5.32603683e-03 -2.74116695e-02  1.85863990e-02 -2.70512626e-02
    -5.63246896e-03  1.55484565e-02  2.74057146e-02 -1.32892998e-02
    -2.92411279e-02  2.85598729e-02  1.61384195e-02  1.63120832e-02
    -6.61948510e-03  1.48862321e-02 -4.01669927e-02  2.18801089e-02
    -2.24927682e-02  4.72879736e-03  2.32281480e-02  2.14848872e-02
    -2.73021199e-02  2.56023649e-02  2.02346183e-02  8.33996106e-03
     2.39488743e-02 -2.51894407e-02 -3.87943611e-02 -2.35234387e-02
     8.60396959e-03  1.76962279e-02 -2.99929418e-02 -3.45899500e-02
    -2.30618250e-02 -1.47025222e-02  1.44653907e-02 -2.84072710e-03
     8.74063279e-03  6.80525135e-03  1.26499636e-02  2.41368134e-02
     3.31089809e-03  2.99109910e-02 -1.10318009e-02  6.63895276e-04
    -2.52248347e-02  5.41606639e-03 -2.70905737e-02 -2.42429283e-02
     1.51238116e-02  6.02526031e-03  3.15288752e-02 -1.36719570e-02
     1.46774855e-02  2.52441112e-02 -2.76750997e-02 -1.59374624e-02
    -1.94802396e-02 -1.89403184e-02 -1.12974150e-02 -1.07741272e-02
    -1.33132050e-03  4.39908095e-02 -9.86636616e-03 -1.52515993e-02
    -1.22249341e-02 -2.83832401e-02 -3.38793844e-02 -1.20103369e-02
    -6.63317926e-03 -3.28826793e-02  6.92749070e-03  1.01866219e-02
    -1.53358290e-02  1.79943237e-02 -2.98537742e-02 -2.21834704e-02
    -2.42873281e-02  1.10250646e-02  1.03752315e-03 -1.53154228e-02
     2.24120598e-02 -4.20697294e-02  1.84013403e-03 -3.40060331e-03
    -1.77722448e-03  7.69703323e-03 -1.03196893e-02 -2.02178359e-02
    -3.59056070e-02  6.75972085e-04  3.00373621e-02 -2.61732806e-02
     4.13247943e-02  1.57252625e-02 -3.04602515e-02 -2.72008963e-02
     2.73542702e-02 -8.77126679e-03  1.98826008e-02 -2.79455483e-02
     1.46627463e-02 -3.30955908e-02  8.49331636e-03 -7.07800034e-03
    -2.28872299e-02  9.21385176e-03  1.05316201e-02 -1.33655767e-03
    -1.02800280e-02 -1.82425678e-02 -3.78574952e-02  2.92020035e-03
    -2.36349571e-02  3.00746621e-03  8.19488894e-03 -2.73120757e-02
    -3.26405093e-02  2.20991466e-02 -1.11372368e-02  2.96463966e-02
    -7.88516551e-03  5.39823016e-03 -1.05933966e-02 -2.67220363e-02
     2.65983623e-02  1.30844321e-02 -1.67959463e-02 -3.03193764e-03
    -3.15332003e-02 -1.74134492e-03  1.27112307e-02 -3.87502904e-03
    -3.21437940e-02 -8.92163720e-03  3.24573480e-02 -1.50562581e-02
    -5.18436637e-03 -5.89508191e-03  2.31983904e-02  1.82567220e-02
     2.92297676e-02  2.83465143e-02 -2.26234812e-02  5.98702487e-03
    -1.48587171e-02 -1.33149363e-02  9.14834719e-03  3.15995663e-02
    -1.62472557e-02 -1.68232247e-02 -3.57323997e-02  1.06032090e-02
    -3.19731086e-02 -3.23505439e-02 -3.60565148e-02  1.76699255e-02
    -1.96181796e-02 -1.89313162e-02 -2.59885546e-02 -1.39246331e-04
    -2.98111308e-02 -1.13497474e-04 -1.09395348e-02 -3.95133235e-02
    -1.21923140e-03 -3.53202457e-03 -3.91012207e-02 -1.26789361e-02
    -2.68458342e-03 -1.89546030e-02  1.51466411e-02  3.13232802e-02
    -1.39494222e-02 -7.03141792e-03  3.06263845e-02  5.81930112e-03
    -7.79149728e-03  2.62233638e-03  3.62575278e-02  2.05774419e-02
    -1.89518444e-02 -3.34821828e-03  1.14162350e-02  4.86983173e-03
     3.13323103e-02  7.40627572e-03  1.26934936e-02 -1.46943200e-02
     2.04043053e-02  6.83430396e-03 -1.18225180e-02 -2.47492902e-02
     1.10325543e-02 -2.25975495e-02  3.40085812e-02 -3.05129904e-02
    -3.47472429e-02  1.59366094e-02 -1.15486635e-02  8.57586414e-03
    -7.62018468e-03  2.70359311e-02  1.83442421e-02  3.03391572e-02
     4.82722302e-04  3.73804644e-02  3.15895095e-03 -3.90024669e-02
    -3.95567603e-02  1.89296470e-03 -2.50951014e-02 -1.09746680e-03
     9.42112599e-03  1.50296763e-02  2.34250035e-02 -1.22314570e-02
     1.93763506e-02 -7.14078033e-03  1.55459866e-02  3.41904573e-02
     2.78570987e-02  1.78267900e-02  3.11487373e-02  2.13951021e-02
     1.90618020e-02  1.75314641e-03 -2.42039631e-03 -3.96923199e-02
     7.47674191e-03 -4.32319287e-03 -6.64873933e-03 -2.07839198e-02
    -3.15628275e-02 -2.34460528e-03 -6.80048426e-04 -1.39035806e-02
    -3.07471901e-02  7.44359335e-03 -9.63070709e-03 -1.96568500e-02
     1.35761613e-04 -4.16577561e-03 -3.27548361e-03 -3.16974893e-02]]

  [[ 1.78530812e-03 -7.27800326e-03 -2.86178030e-02  6.32525375e-03
     3.00342273e-02  3.15306820e-02  1.69955585e-02  2.29620375e-02
    -2.39367168e-02 -1.69067718e-02  1.14728985e-02 -2.82882079e-02
    -3.93184386e-02  3.93862231e-03 -3.46288569e-02  4.11876328e-02
    -1.53457019e-02 -9.60266974e-04 -3.19145806e-02 -1.01421662e-02
    -1.70591678e-02  2.67744642e-02  1.46987112e-02 -2.21450683e-02
    -6.95165107e-03  6.58762734e-03 -2.56034490e-02 -1.47964424e-02
     1.75876785e-02 -1.24111213e-02 -2.57139206e-02  4.78110239e-02
    -8.50324985e-03 -5.83782559e-03  3.98051329e-02 -1.30613626e-03
     1.72683373e-02  1.00601632e-02  3.48990820e-02  2.66569499e-02
     2.53851544e-02  2.67606024e-02  1.53163867e-02  2.34889146e-02
     3.24483626e-02 -3.13883312e-02  1.39267724e-02 -1.83929075e-02
     8.80055968e-03 -1.06005073e-02 -2.79000830e-02  2.30093859e-03
    -3.98299359e-02  3.17752175e-03 -3.13282050e-02 -2.87958402e-02
     2.25594025e-02 -1.02445818e-02  1.48447668e-02 -1.43696833e-02
     2.95312963e-02 -3.13232392e-02 -6.26235642e-03 -1.50379883e-02
    -1.45171573e-02  1.25967273e-02 -3.75704421e-03  4.46207589e-03
     1.84361469e-02 -8.08339275e-04 -3.67971323e-03 -3.79262567e-02
    -2.64224317e-02  3.19334157e-02  1.64883416e-02  3.01370732e-02
     3.77866067e-02  3.46712768e-02 -1.12639247e-02  1.53457969e-02
    -2.59987414e-02 -4.07056734e-02  1.80337951e-02 -2.99971420e-02
    -2.98373923e-02  2.11261529e-02 -7.15788826e-03 -5.01637580e-03
     3.17161083e-02  1.67885572e-02  4.28413637e-02 -1.45437988e-02
     2.93017458e-02  1.67493671e-02  2.47735716e-02 -2.77864002e-02
    -3.83419427e-03 -2.07951795e-02  2.95593124e-02 -1.29967760e-02
     1.61897615e-02  3.75298341e-03  3.42963613e-03  6.17016852e-03
    -7.13624433e-03 -8.72589834e-03  1.93382008e-03  7.98943173e-03
    -1.58050582e-02 -1.24436244e-02  7.16030970e-03  2.87534446e-02
    -9.71863847e-05  3.78353931e-02  2.30560862e-02 -2.87582651e-02
     8.78899172e-03 -3.92445512e-02  1.05480831e-02  7.95827620e-03
    -2.15970296e-02 -1.73839123e-03  5.89306699e-04 -2.85729822e-02
     8.60444643e-03 -3.21584344e-02  2.35540140e-02  3.39124165e-02
    -7.22991955e-03  1.25977013e-03 -2.78432239e-02 -8.76250491e-03
    -1.13124941e-02 -8.24036542e-04  1.04384043e-03  1.17589263e-02
     3.09301410e-02  1.11432672e-02 -3.92255969e-02 -2.11506840e-02
     3.13294455e-02 -2.99959835e-02  1.31358933e-02  1.44080007e-02
    -2.17272881e-02  1.63721982e-02 -2.25689495e-03  2.40968298e-02
     3.25294733e-02  6.37976639e-03  3.46839242e-02 -6.45736174e-04
    -6.99234148e-03 -3.79000865e-02  3.52711342e-02  3.12674716e-02
     2.48493142e-02 -1.99874621e-02  3.07345367e-03  1.24368910e-02
    -2.36515403e-02 -2.66253650e-02  2.76097264e-02  2.50349920e-02
     2.38498524e-02  2.22864635e-02 -2.98902150e-02  3.00095677e-02
     3.02058589e-02  4.94132750e-02 -2.00823266e-02 -4.25462052e-03
    -2.66028428e-03  3.57420370e-02 -5.36268391e-03 -2.10489370e-02
    -9.78643168e-03 -1.35362819e-02  1.38253961e-02 -2.67370157e-02
     1.96709428e-02 -1.89283043e-02  1.44827161e-02  3.19800749e-02
     7.00524217e-03 -2.62301974e-02 -1.99363194e-02  2.15310007e-02
    -1.52553692e-02 -2.82350443e-02  6.75826520e-03 -1.91385616e-02
     2.75639053e-02  1.87395588e-02 -5.25121856e-03  4.41960664e-03
     2.19744295e-02 -1.28807193e-02  4.35562339e-03 -3.21552361e-04
     1.83529814e-03  3.44638377e-02  9.98796523e-03  1.28721744e-02
    -9.54798982e-03  3.38236094e-02 -2.78782640e-02 -2.43390817e-02
    -2.90343240e-02  1.42954208e-03 -1.86432041e-02 -1.98822413e-02
     1.86679754e-02 -5.20497444e-04 -1.97224859e-02 -5.67585509e-03
    -2.09962167e-02 -2.96452213e-02  2.53523961e-02 -3.53794172e-02
    -3.67350876e-02 -1.94911063e-02  3.18149179e-02 -1.35809823e-03
    -2.99488511e-02  3.25122029e-02 -2.14823466e-02  2.24362332e-02
    -2.47063432e-02  3.47140916e-02 -2.26389822e-02  6.05948595e-03
    -3.18802930e-02 -3.90548259e-02 -3.35565358e-02 -2.41716057e-02
     1.53946877e-02 -2.40111332e-02 -2.47818511e-02  1.55839492e-02
    -1.23408856e-02  1.50970872e-02 -3.85764763e-02 -9.36220866e-03
    -1.83151234e-02 -3.54596041e-02 -6.83087530e-03  2.71495171e-02
    -1.50590278e-02 -1.44694550e-02 -2.23464798e-02  3.50008234e-02
    -8.34446307e-03  1.61086489e-02 -1.43236686e-02 -1.33489994e-02
    -3.75197865e-02  2.81633511e-02  1.48640666e-02 -5.54202357e-03
    -1.02251992e-02 -2.27000192e-02  1.70563105e-02 -1.91706140e-03
     1.36793619e-02 -2.24490417e-03 -8.24658945e-03  1.08481674e-02
    -8.68897885e-03  1.27594499e-02 -9.90455225e-03  3.74751985e-02
     3.17071453e-02  1.20018218e-02  2.91383620e-02  3.58367302e-02
     3.70835396e-03  1.78513620e-02  3.10749561e-03  3.67963035e-03
    -1.14015415e-02 -2.39855447e-03 -2.91158743e-02 -2.20030062e-02
     2.81774579e-03  2.89063230e-02  9.34216101e-03 -3.77143957e-02
     2.59896144e-02 -6.98275585e-03 -5.37575409e-03  2.25705584e-03
     2.93506887e-02 -2.35421844e-02 -1.34213213e-02  3.66764925e-02
     8.42376798e-03  3.35331745e-02 -4.98541864e-03 -3.10780890e-02
     2.75366679e-02  1.24964090e-02 -2.76853312e-02  1.82260871e-02
     2.78894249e-02 -1.70009658e-02  3.01671978e-02 -1.44471088e-02
     2.51181908e-02  3.20999846e-02 -1.61424894e-02  5.53602213e-03
     1.66659597e-02 -1.25811147e-02  3.34344134e-02 -8.86852446e-04
     9.29305702e-03  2.49628369e-02 -3.86040248e-02  1.04147829e-02
    -2.64670700e-02  2.00606845e-02 -5.88598778e-04 -2.52685379e-02
     4.16749064e-03 -1.96540877e-02 -2.89819315e-02 -2.69553661e-02
    -2.52100807e-02 -3.67666781e-03 -1.22710858e-02 -1.52856037e-02
    -1.05568673e-02  1.91153493e-02  2.43383050e-02  1.08793110e-03
    -1.61715169e-02 -6.89866953e-03 -3.24833915e-02 -1.07033895e-02
     1.11941965e-02 -2.51507796e-02 -7.57943653e-03 -3.66005078e-02
     2.45323442e-02 -1.56905968e-02 -2.76345294e-02 -6.97826035e-03
    -1.41073465e-02  1.87082328e-02  4.07426618e-02  3.01092621e-02
     1.45222684e-02  2.10551247e-02  4.15745424e-04  1.73911210e-02
    -3.38893868e-02 -2.79300790e-02 -3.41004767e-02 -1.18428972e-02
     1.14881492e-03  1.40114548e-03 -2.56062876e-02 -1.59678496e-02
     2.76701543e-02 -1.19895739e-02  1.13769958e-03  1.74919050e-02
     2.40736213e-02  4.26862651e-04 -1.00424215e-02  1.88360605e-02
    -1.61482242e-03  3.05044372e-02  4.58465181e-02  2.74353717e-02
     2.10686084e-02  1.98972714e-03  8.80039949e-03  1.83672775e-02
     1.09204231e-02  2.69030575e-02  1.84889864e-02  1.45395175e-02
    -5.60401101e-03  2.16244236e-02 -3.66012678e-02  1.39876353e-02
     8.62218346e-03 -5.35763055e-03 -1.23251686e-02 -3.63586955e-02
    -2.77347174e-02 -1.97378243e-03  2.26722984e-03  3.74408737e-02
     3.33483666e-02  2.30266917e-02  1.20803760e-03  1.24457125e-02
    -3.40628624e-02  2.50164103e-02 -1.05833746e-02  3.53288837e-04
     2.47479347e-03 -2.44872756e-02 -8.51870794e-03  2.34642141e-02
    -1.67025905e-02 -1.32919871e-03  1.05430977e-02 -2.03765463e-02
    -2.62928437e-02  2.57251300e-02  1.99113227e-02 -3.36741582e-02
    -3.53822038e-02  1.12216352e-02  1.83969382e-02  3.21572945e-02
    -2.05223775e-03 -1.62872784e-02 -1.79704260e-02  4.02231293e-04
     4.07420099e-02  1.84039939e-02 -4.20450326e-03 -6.25374354e-03
    -1.37271555e-02 -2.12991685e-02  3.85264680e-02  3.06964163e-02
     1.71340292e-03 -9.94965993e-03  2.21469486e-03  1.93198919e-02
    -2.88928713e-04 -1.80893913e-02 -1.72121022e-02  3.09556071e-02
     2.77142227e-02  1.23430435e-02 -1.09284073e-02 -2.20783334e-02
    -3.45469415e-02 -2.86214170e-03 -2.30139699e-02 -4.39326465e-03
     2.78147515e-02 -3.42503656e-03 -3.42478603e-02  2.22023837e-02
    -1.74101572e-02 -5.22329798e-03 -3.35680507e-02  2.04499215e-02
     2.71619875e-02 -3.08470409e-02 -2.59157270e-03 -2.14577913e-02
    -2.95342635e-02 -3.84202003e-02  3.21647413e-02 -1.48533820e-03
     1.50012104e-02  7.57167442e-03  1.52818225e-02  2.20868960e-02
     1.98033787e-02  1.51667334e-02 -1.54215274e-02 -1.77307576e-02
    -3.01358514e-02  2.64445934e-02 -1.69904660e-02 -2.71289758e-02
     6.32369798e-03  1.19264855e-03 -2.92861592e-02 -2.26518419e-02
     1.70249175e-02 -2.98121329e-02 -2.55374368e-02  6.16114633e-03
    -1.72602292e-02  1.85631737e-02 -2.91478802e-02 -3.30236405e-02
    -6.12416444e-03 -2.32906062e-02 -2.06888337e-02  7.21698999e-03
    -2.01368015e-02  2.86307000e-02  2.31044441e-02  2.93807150e-03
    -3.64031047e-02  8.28942005e-03  3.28424089e-02  2.10215384e-03
     2.50249747e-02 -6.48169592e-03  1.00424243e-02  7.55343866e-03
     3.91533300e-02  4.55889944e-03 -1.54297715e-02  2.86661424e-02
    -2.75394903e-03 -8.90148990e-03 -3.31509300e-02 -3.51319127e-02]]]


 [[[ 2.21246388e-03 -1.91669504e-03 -8.56901612e-03  1.93521678e-02
    -3.73333171e-02 -3.71072814e-02  7.91706517e-03 -3.65543389e-03
    -5.03077731e-03 -1.60803199e-02 -1.46016786e-02 -5.18123573e-03
     1.63556375e-02  2.07489934e-02  1.11017367e-02 -3.16060930e-02
    -2.70022545e-02 -3.19252200e-02 -1.25152012e-02 -3.35744284e-02
    -1.41830593e-02  9.49095469e-03 -2.56427862e-02 -1.04997307e-03
     5.61219780e-03 -2.76797991e-02  2.63087396e-02  4.07442003e-02
    -3.83255109e-02 -1.58136133e-02 -4.24742289e-02 -4.17454122e-03
    -2.49032397e-04  2.39506569e-02 -5.42633189e-03  2.40286645e-02
     3.09455171e-02 -4.42097969e-02 -1.24861607e-02 -1.14702499e-02
     2.04879865e-02 -1.60431524e-03 -1.50090102e-02 -3.38027179e-02
     1.20184440e-02  2.42189970e-02  1.15494234e-02 -2.75893677e-02
    -2.99975760e-02 -3.76362912e-02 -1.56239563e-04 -1.77573059e-02
     1.40589299e-02  3.03615648e-02 -1.73969772e-02  2.52159256e-02
     1.90311372e-02 -8.02805368e-03  1.57599524e-02  2.28476003e-02
    -7.14395382e-03 -2.14313902e-03  6.86132815e-03  9.75464284e-03
    -1.20640658e-02  3.63526195e-02  6.48397254e-03 -1.91470943e-02
    -8.59806873e-03  2.66894489e-03  2.58131735e-02  2.80834548e-02
    -2.89852619e-02  1.92878433e-02 -3.71828079e-02  2.77626291e-02
    -7.62648042e-03  2.02513039e-02 -1.52815075e-03  3.90087580e-03
     1.71498526e-02  7.32236169e-03  1.85109638e-02  7.63805211e-03
     2.36786660e-02 -7.50089157e-03 -2.36433260e-02 -1.13096638e-02
     2.55550407e-02 -2.79094875e-02  1.13884138e-03  2.91871484e-02
     1.25500811e-02 -1.81255694e-02  3.00578028e-02  2.41976138e-03
    -1.90482456e-02 -1.33277932e-02 -2.18461337e-03 -3.07060834e-02
     1.60737950e-02 -3.30979261e-03 -3.77371758e-02 -3.55891697e-02
    -1.78005826e-02  2.22055297e-02 -8.90256744e-03  2.76435651e-02
    -1.87358763e-02 -1.31724086e-02  5.37638646e-03 -7.94668682e-03
    -5.87377185e-03 -3.00174337e-02 -1.65933855e-02 -4.13501402e-03
     8.11025687e-03 -2.35803034e-02  2.41953135e-02 -1.67753287e-02
    -2.90122163e-02 -7.20183877e-03  2.46411655e-02  2.68341731e-02
     8.58864980e-04  5.67833288e-03 -1.63448676e-02 -2.85539944e-02
     6.68412948e-04 -2.99958568e-02  3.17304209e-02 -2.21066866e-02
    -3.68514098e-02 -3.22861224e-02 -1.23711564e-02  1.87197234e-02
    -1.08293639e-02  6.63429499e-03 -2.11129468e-02  1.46999434e-02
     1.71082839e-02 -3.05524431e-02 -6.51839934e-03  8.54957965e-04
    -2.18682960e-02 -2.74452586e-02  2.13948898e-02 -1.47010880e-02
    -2.89198812e-02  2.79538985e-02  1.67227592e-02 -3.28767598e-02
    -1.07074296e-02 -1.93752013e-02 -3.69749963e-02 -1.98415108e-02
    -1.54335238e-02 -3.93613204e-02 -3.99345346e-02 -5.02948649e-03
    -9.36003029e-03 -2.21640035e-03 -1.29300300e-02 -3.18015763e-03
    -1.10978698e-02 -3.85679789e-02  9.52859502e-03 -1.44248158e-02
    -4.85885283e-03 -3.57092991e-02 -1.32154888e-02  8.80480278e-03
     3.06982584e-02 -2.37180330e-02  2.60315128e-02  3.83185863e-04
     1.48471277e-02  3.29154655e-02 -6.95657311e-03 -1.95141844e-02
     1.06146121e-02 -3.67629454e-02  1.17715588e-02  2.99311504e-02
     2.23446321e-02  2.66290940e-02 -2.59649083e-02  1.93412043e-02
    -3.46005186e-02  3.56311798e-02  2.10797004e-02  2.49939249e-03
    -3.44778374e-02 -2.68622134e-02  1.40052512e-02  1.08322194e-02
     2.76830941e-02  1.48775047e-02 -2.09680386e-02  2.23708451e-02
     1.11526763e-02  1.26742376e-02  1.43986680e-02 -4.26292000e-03
    -2.74246130e-02 -2.16777194e-02  2.47100331e-02 -2.78144851e-02
     1.28906323e-02 -5.30160079e-03  1.90707147e-02  2.71333084e-02
     1.30346483e-02  1.39844064e-02  1.83187965e-02 -1.55895483e-02
    -9.73326806e-03  5.71120111e-03  1.13196140e-02 -1.20969359e-02
    -1.92612428e-02  8.47785082e-03  8.77729338e-03  3.26562673e-02
    -8.31308868e-03  1.28722768e-02  6.25898037e-03 -3.72451693e-02
    -3.05513181e-02 -1.75166428e-02  3.61474156e-02 -2.52875444e-02
     8.99322424e-03 -2.64068265e-02  7.32413679e-03  2.81893909e-02
     8.99698399e-03  1.61081292e-02  2.93297283e-02  4.22318373e-03
     1.08416723e-02 -4.76255897e-04  1.83961466e-02 -2.32969038e-02
     2.65194066e-02 -3.07237320e-02  2.10023317e-02 -1.21038621e-02
     3.29232216e-02 -3.04350979e-03 -5.13626123e-03 -2.65431572e-02
     3.08291204e-02  1.97238959e-02  1.55439740e-02 -1.83889009e-02
     5.91403991e-03  2.41663065e-02  1.69133618e-02 -3.54331024e-02
     2.01557688e-02  4.53009619e-04 -2.46555116e-02 -1.95274502e-02
    -2.33921576e-02  7.62569113e-03 -3.26466113e-02 -3.61255258e-02
     1.68780852e-02 -2.66829017e-03  2.22802553e-02 -3.49944904e-02
     2.66385116e-02  1.91947892e-02  2.99563967e-02 -1.22468751e-02
    -1.66925061e-02 -2.34770030e-02  4.90932725e-03  2.84666866e-02
     1.77580379e-02 -7.54579250e-03  6.05718791e-03  1.71245250e-03
    -3.94090898e-02 -2.24278830e-02  7.49949040e-03 -2.30427068e-02
     1.73803978e-02  3.34697440e-02  1.60328876e-02  2.12428905e-02
    -7.43346172e-04  1.78937484e-02 -3.71478759e-02 -4.80722114e-02
     1.79856308e-02  1.61977541e-02 -5.01248101e-03 -1.30021451e-02
     2.46134470e-03  7.85693061e-03 -1.47851482e-02 -3.63185704e-02
     1.34016294e-03  1.59871336e-02  1.84806399e-02  8.22775345e-03
     2.60871202e-02  2.22104392e-03 -3.26593556e-02  2.54136771e-02
     2.49708742e-02 -2.25279722e-02 -4.54876125e-02  2.97699645e-02
    -3.75318974e-02 -2.63152961e-02  2.64228825e-02 -2.44196281e-02
    -8.81926995e-03 -4.63272538e-03 -2.47981586e-02 -3.81916435e-03
     6.78779511e-03 -1.22104716e-02 -4.25041094e-02  8.68094806e-03
    -1.91271007e-02 -3.08655179e-03 -1.77394636e-02 -5.09238942e-03
    -1.91609971e-02  1.10960240e-02 -1.09655014e-03  3.69140655e-02
     2.72940565e-02  3.27346637e-03  5.98660996e-03 -1.31011922e-02
    -3.20637645e-03  1.39267100e-02  3.09429932e-02  7.91763945e-04
     3.15845013e-02 -3.72876860e-02  1.67556833e-02  9.11895745e-03
    -3.57950921e-03  1.23882771e-03 -2.85658464e-02  8.51847522e-04
    -2.28308812e-02 -1.70199759e-02 -3.65290977e-02  1.78245585e-02
     1.05519416e-02 -2.47749072e-02 -3.13225724e-02  2.06622155e-03
    -2.02186070e-02  6.23291871e-03  3.25019769e-02 -3.53321396e-02
     1.18378382e-02 -1.73271913e-02  2.77800336e-02  2.07342859e-02
    -3.38302068e-02 -4.05670814e-02 -2.86093745e-02 -2.80451793e-02
     1.57308541e-02  2.96156425e-02 -2.36840127e-03  3.09866089e-02
    -2.16598064e-03 -1.42069664e-02 -3.49549204e-02 -3.85127193e-03
    -7.29562342e-03 -2.29019132e-02 -2.48308741e-02 -2.88830586e-02
     2.02551316e-02  9.24035162e-03  1.92487203e-02 -1.00300871e-02
     6.64901128e-03  1.17923152e-02  1.58596672e-02  2.92428415e-02
    -1.78997554e-02 -2.43687890e-02  4.89054918e-02 -2.06794254e-02
     1.84220988e-02 -3.60906087e-02  2.68549342e-02 -1.73459779e-02
     3.04506663e-02  1.18198274e-02  4.00103927e-02 -1.63349081e-02
    -2.72626318e-02  2.61187237e-02 -1.72145348e-02 -3.21221948e-02
    -3.60257849e-02 -1.22013071e-03 -3.65463868e-02  1.04348594e-02
    -9.49603412e-03  9.22128931e-03  2.04104390e-02 -2.53193341e-02
    -3.08466107e-02 -2.99050735e-04  3.22048105e-02  2.87616923e-02
    -1.86585486e-02  2.32839454e-02 -1.81050953e-02 -2.18550675e-02
     2.75928620e-02 -3.75392698e-02 -2.39756070e-02 -1.65717062e-02
    -5.10718254e-03  2.91532301e-03 -4.19028476e-02 -2.38433797e-02
     1.44544188e-02  8.37393757e-03  5.39184141e-04 -3.44850845e-03
    -2.80893259e-02  3.11966222e-02 -2.08369214e-02  1.48514786e-03
     5.23103122e-03  1.35191465e-02  3.88385504e-02  4.19216696e-03
     1.08371209e-02  1.90826245e-02  1.23801669e-02 -1.71791054e-02
    -4.41552745e-03 -3.65535878e-02  2.66873855e-02 -8.06973130e-03
     2.64097564e-02 -1.93970501e-02 -6.48350967e-03  1.24180363e-02
    -2.48895641e-02 -5.17336791e-03 -1.63620673e-02 -2.76014581e-02
     3.23498691e-03 -1.80979017e-02 -2.44778711e-02  6.90314034e-03
     2.99964845e-02 -5.83254453e-03  9.35616437e-03 -2.76555456e-02
     8.53445381e-04  2.25981288e-02 -3.42225693e-02  2.44324841e-02
     8.47303029e-03 -2.79085618e-02  2.06797686e-03  3.46337482e-02
     1.07600195e-02 -2.93641556e-02  6.88070431e-04  3.44527401e-02
    -1.24184936e-02  2.59586666e-02  2.31920443e-02  3.10338065e-02
    -1.82140525e-02  1.97420362e-02  2.20270324e-02  2.24371143e-02
     2.40425132e-02  9.39939916e-03 -1.85266007e-02 -1.71520328e-03
    -5.62242139e-03  1.03533091e-02 -3.72859649e-02  1.27839129e-02
    -3.63076329e-02 -3.62834819e-02  2.23559700e-02  6.81161322e-03
    -1.23702278e-02  1.23947521e-03  1.17877899e-02 -8.51874519e-03
     4.25934279e-03  5.86207816e-03 -6.64202450e-03  2.26213131e-02
     1.34132132e-02  1.04240039e-02 -1.90732026e-04  1.01555958e-02]]

  [[-2.62390673e-02 -1.90974548e-02 -1.92622263e-02 -9.80104040e-03
    -1.93549413e-02  2.79669836e-02 -3.26559693e-02 -2.14685109e-02
    -3.59751284e-02 -1.53908199e-02  9.75983217e-03 -1.39505584e-02
     6.66080927e-03  1.68954153e-02  2.58862153e-02  1.86222140e-03
     2.39264611e-02 -8.35856050e-03 -2.81697735e-02 -1.66551247e-02
     7.59984832e-03 -2.80875769e-02 -1.79952662e-02 -5.74673479e-03
     7.47122453e-04  1.96173526e-02  2.59743631e-02  2.00464074e-02
     2.99935676e-02 -1.89684127e-02 -3.32705230e-02  4.27487044e-04
     4.97485371e-03 -8.00230633e-03 -1.71730891e-02 -3.13494690e-02
     2.76927128e-02  6.55990839e-03 -3.28861810e-02 -1.78047456e-02
    -3.42209935e-02  5.53547964e-03  1.95684973e-02 -9.19336732e-03
    -1.34161487e-02 -1.36278411e-02 -3.02348342e-02 -3.45694609e-02
    -2.98017226e-02  8.10929108e-03  3.13525274e-02  1.87699739e-02
    -1.46136563e-02  2.13388670e-02  1.24947289e-02 -1.80620253e-02
    -2.12777760e-02 -4.18667011e-02 -1.09922532e-02 -3.33336331e-02
     3.06202415e-02 -2.65639438e-03 -1.93888061e-02  2.50298437e-02
     4.52977270e-02 -3.58987711e-02 -7.98811205e-03  3.88396420e-02
     3.28076025e-03  2.67491471e-02 -2.31116172e-02  1.35361520e-03
     2.15239264e-02 -2.39629280e-02  1.25646209e-02 -1.20871505e-02
    -5.97598171e-03 -7.87422154e-03  1.71711221e-02 -2.62762662e-02
     1.10683525e-02  2.60189790e-02 -1.95209756e-02 -1.35152787e-02
     1.74829178e-02  2.22878680e-02  4.09176759e-03 -2.47290544e-02
    -1.48888296e-02  3.33347754e-03  2.04438511e-02  7.22436653e-03
     1.62846427e-02  3.01476382e-02  9.38141067e-03 -1.50119103e-02
    -1.77394859e-02  1.55398492e-02 -1.26149331e-03 -3.26365680e-02
    -3.50845419e-02  2.95352051e-03  1.24490699e-02 -8.07286520e-03
     4.41219807e-02 -8.98884889e-03 -1.04977163e-02 -1.96916219e-02
     9.43181105e-03 -6.02947874e-03  3.90105583e-02 -8.17784015e-03
    -1.18486416e-02 -9.18179844e-03  1.33301578e-02  3.46042141e-02
    -2.55703703e-02  3.31330784e-02 -2.99326442e-02  3.05407662e-02
    -2.59032249e-02 -1.30601143e-02  1.38650620e-02 -1.82192177e-02
     1.85021301e-04 -3.29331197e-02  1.65637974e-02 -2.34829281e-02
    -1.77308619e-02  2.95433942e-02 -1.96640547e-02  6.20386470e-03
    -3.65818739e-02  4.68038535e-03 -2.32602209e-02 -2.27702092e-02
    -3.44835892e-02 -2.23006774e-02  3.30613963e-02  2.02036723e-02
    -1.08576170e-03  1.77591946e-02 -2.49025691e-03 -1.11603001e-02
    -3.72137204e-02 -1.26111237e-02 -3.13238129e-02 -1.39967883e-02
     2.83660665e-02  5.18716127e-03 -3.35789211e-02 -2.45913099e-02
     8.41562822e-03  3.05529386e-02 -5.97304781e-04  9.63524263e-03
    -2.75532994e-02 -1.86981335e-02  2.97954232e-02  3.15193795e-02
    -1.83591675e-02 -1.38056725e-02 -5.38088148e-03  1.05113732e-02
    -6.01873733e-03 -2.34731380e-02  2.81545036e-02  3.98499379e-03
    -2.66075470e-02 -1.33314757e-02 -5.56257041e-03 -1.04210097e-02
     6.21664990e-03  3.54984775e-02 -2.98513230e-02 -1.42438551e-02
     3.28486338e-02 -2.01325342e-02 -1.47366244e-02 -1.74440369e-02
     3.05502117e-02 -5.13765553e-05  1.87091772e-02  1.05903745e-02
     2.22198293e-02 -1.71469450e-02 -2.27843784e-02  2.25265939e-02
    -1.70220155e-02 -2.67807860e-03  2.34990492e-02 -8.57064314e-03
    -3.36071500e-03 -1.66337807e-02  2.15920992e-02  2.70011406e-02
    -1.88782141e-02 -2.73337159e-02  8.51290170e-05 -2.93642934e-02
     1.69117339e-02 -2.70189065e-02  2.86087836e-03 -2.31009396e-03
    -2.45871749e-02 -3.53729203e-02  1.37715274e-02  2.34294366e-02
     3.99361411e-03 -1.85726769e-02 -2.41518654e-02 -1.44777671e-02
    -3.36434953e-02 -1.80891845e-02 -1.60564650e-02  1.75631326e-02
     1.75950080e-02  1.11663516e-03  7.60254171e-03 -1.56336240e-02
    -8.39119777e-03 -1.51582798e-02  2.09850557e-02 -3.07919588e-02
     2.95692384e-02  2.84388326e-02 -3.22704576e-02  2.49748286e-02
     3.02362740e-02  8.06181598e-03 -1.01064295e-02 -2.50525009e-02
     2.69534178e-02 -7.29242992e-03 -1.76524464e-02 -2.87926625e-02
    -1.50285298e-02 -1.91356987e-02 -2.31485795e-02  3.44969239e-03
    -1.84929669e-02  1.61286723e-02 -1.27146561e-02  3.88155854e-03
     3.23633105e-03  1.98970493e-02  1.68195851e-02  9.23229288e-03
     7.57633941e-03  3.87333669e-02 -1.97765883e-02 -3.01716346e-02
     9.27747693e-03  1.97732709e-02 -2.40575913e-02  2.60011014e-02
    -3.40580493e-02  3.06944083e-03  1.29882330e-02  2.41250508e-02
     3.20439301e-02 -2.40696017e-02  1.21701481e-02  1.93270389e-02
    -3.86658013e-02 -2.27636378e-03  1.70919895e-02 -3.25683169e-02
    -2.93920618e-02  2.53981650e-02 -1.27030220e-02  8.52721278e-03
     3.01376563e-02 -6.72972528e-03 -1.65365394e-02 -9.26012546e-03
    -2.13975925e-02  5.34200761e-03 -9.47559625e-03  2.65474077e-02
     2.72912532e-02 -2.95607820e-02 -2.64870818e-04  1.90508422e-02
     3.09024099e-03 -2.63356045e-02  2.85686925e-03  4.57323343e-03
    -6.51128916e-03 -2.17789821e-02  1.36642158e-02 -2.61673331e-02
     3.22696269e-02  1.52301844e-02  3.16427164e-02  8.78061820e-03
     2.38619987e-02 -7.19980802e-03  1.71232317e-03  1.64365228e-02
     7.34022073e-03 -3.04383095e-02 -2.03098729e-02  1.84706617e-02
    -9.58807766e-03 -1.41258314e-02 -8.59451573e-03 -3.99018265e-02
    -2.69415211e-02 -3.28981318e-02  1.38732819e-02  1.19297514e-02
    -2.98823901e-02 -3.03653441e-02  2.72963829e-02 -3.61442193e-02
     2.23162267e-02  1.44770024e-02  2.47958656e-02 -2.88570113e-02
    -2.45057512e-02 -3.46520506e-02  2.57101450e-02  5.05912583e-03
     2.17616707e-02 -1.72375944e-02  7.66721368e-03 -3.78737748e-02
     8.65814742e-03 -2.78752111e-02  1.38595384e-02  1.24237966e-02
    -3.77580784e-02  3.30853392e-03  8.20453651e-03 -3.28788720e-02
     2.99893636e-02  2.05643866e-02  8.32027476e-03 -1.22552551e-02
     1.44961020e-02 -3.32449866e-03  3.11046150e-02  2.07547713e-02
     7.08710263e-03 -9.16164927e-03 -1.79090574e-02  2.61639934e-02
    -1.22014862e-02 -1.98240615e-02  5.75423613e-03 -1.96512006e-02
    -1.89944040e-02 -1.51841249e-02  2.44601276e-02  1.81718823e-02
    -3.53806242e-02  1.00900489e-03 -3.41510493e-03 -3.27995513e-03
    -6.03494560e-03  1.39290597e-02  2.46984921e-02  2.14695148e-02
    -1.03807624e-03 -2.82518826e-02  7.97135103e-03  1.54896872e-02
     1.88541673e-02  1.66982003e-02 -2.45409384e-02  7.56987790e-03
     2.88961399e-02 -1.15556717e-02  7.35389721e-03  1.39875812e-02
    -2.53034458e-02  8.20884667e-03  1.26330275e-02 -3.36445197e-02
    -1.86067689e-02 -4.50745551e-03  2.50601359e-02 -4.74708294e-03
     3.15924324e-02  1.40870754e-02  2.31050141e-02  7.53052533e-04
     1.29395543e-04 -3.57051417e-02 -3.64228524e-02 -1.19779250e-02
    -2.79410668e-02 -2.67850072e-03 -8.50302726e-03 -1.86698921e-02
     5.52543299e-03  2.53103278e-03  1.54387811e-02 -3.18471878e-03
    -1.75449662e-02  1.20372046e-02 -8.44424032e-03 -2.25826502e-02
    -2.33242158e-02  8.63515306e-03 -3.37033793e-02  1.68313459e-02
    -3.53657529e-02 -5.42202592e-03  5.49400179e-03 -1.13627864e-02
     6.14793738e-03  2.48947665e-02 -1.72899850e-02  9.40326229e-03
     1.75962541e-02  2.65296325e-02  8.05781037e-03 -1.49945319e-02
     3.42247933e-02 -5.49616991e-03  3.07164956e-02 -1.64795592e-02
     1.69779528e-02 -1.31833330e-02 -3.89393494e-02 -5.65597962e-04
    -1.48733314e-02  1.56382937e-02 -2.39328016e-02  1.74232759e-02
     8.48287530e-03  1.32517777e-02  2.53146030e-02  8.11554212e-03
    -2.91838441e-02  3.66152972e-02 -2.66257264e-02 -5.72399888e-03
     7.23271398e-03  2.82883644e-02 -2.21329574e-02  7.20222341e-03
    -1.81153845e-02  1.43626146e-03 -1.45728895e-02 -1.40552763e-02
    -1.74606722e-02  2.63117962e-02 -4.00029607e-02 -7.83608481e-03
     2.89943796e-02  1.53700225e-02 -2.01077238e-02 -8.00267421e-03
     1.81217473e-02  2.17489582e-02 -1.39464810e-02 -1.34374881e-02
    -3.65781896e-02 -4.21017185e-02  3.26795131e-02 -7.02908076e-03
    -2.63008866e-02  1.54254725e-03  2.86986455e-02  9.66846244e-04
     2.30043195e-02  2.94197779e-02  2.80912453e-03  2.09992621e-02
     4.91199607e-04  2.33659917e-03 -2.70831957e-02 -3.42359468e-02
    -1.05307018e-03 -2.05855984e-02  7.13328691e-03 -1.68100446e-02
    -2.48755198e-02  9.55349766e-03  3.01220417e-02 -1.30382860e-02
    -2.15364881e-02  2.90014837e-02  1.63110963e-03  6.55451510e-03
    -2.11343039e-02 -2.40104534e-02 -2.48627197e-02  9.95512959e-03
    -1.18742455e-02 -2.55692583e-02 -1.12636099e-02  1.67715158e-02
    -1.53248496e-02 -3.14092301e-02 -2.21917070e-02  8.06412380e-03
     3.25009762e-03  2.22070678e-03  2.53722426e-02  1.90699343e-02
    -9.10146453e-04  2.89320443e-02  2.48526633e-02 -2.54509468e-02
     3.60359461e-03 -3.59777883e-02  2.06553861e-02  1.44501720e-02]]

  [[ 1.80649979e-03  1.40848411e-02  3.65602551e-03 -2.12792028e-02
    -2.49022129e-03 -3.45501304e-02  1.23570077e-02  3.96969169e-02
    -1.67119540e-02 -3.01635861e-02  2.77044834e-03 -2.51414776e-02
     1.68097932e-02  1.61154885e-02  2.29954887e-02  8.79084785e-03
    -2.89082732e-02  2.63979863e-02  1.67328194e-02 -1.36566907e-02
    -7.20041711e-03 -3.45202512e-03  1.44953746e-02 -9.22320411e-03
    -2.91299317e-02  1.54748503e-02  1.02641657e-02 -2.89943442e-02
    -2.88114883e-02  3.95778082e-02  3.50913256e-02 -3.77748604e-03
    -4.65678656e-03 -2.10021324e-02 -3.10594290e-02  2.79648546e-02
     1.08021367e-02 -5.96973160e-03  9.40433890e-03 -8.96436907e-03
    -2.02828385e-02  2.96099205e-02  1.73721202e-02 -8.61990638e-03
    -1.06433658e-02 -7.84057006e-03 -3.90418917e-02 -1.20594800e-02
    -2.58198529e-02  2.34125112e-03  2.07049325e-02 -8.44990648e-03
     2.25773603e-02  9.40525346e-03  2.79294886e-02 -2.47223862e-02
    -4.01741602e-02  3.23619545e-02  2.19608773e-03  7.01952074e-03
     2.44781040e-02  8.99284892e-03  6.29540416e-04  1.29691679e-02
    -2.48341169e-03 -8.72971676e-03  1.08990902e-02  4.17807139e-02
    -2.16135178e-02  8.82830564e-03 -1.69119090e-02  1.32615687e-02
    -2.68194079e-03  2.34190430e-02  1.97038054e-02 -2.26429757e-02
     7.83469155e-03 -2.64619999e-02  3.06236502e-02 -3.74302492e-02
    -2.14534830e-02  2.67458484e-02  2.15472206e-02 -1.61601715e-02
    -3.64074111e-02 -4.06286530e-02 -3.61556150e-02  1.38715282e-02
     1.38424737e-02  1.58368964e-02  4.72154329e-03 -3.07481587e-02
     7.25369062e-03  9.93166398e-03  1.10152466e-02 -9.28612705e-03
    -3.59694660e-02  2.55659074e-02 -1.64833535e-02  3.64830233e-02
    -3.08305454e-02  3.33762169e-02 -3.31971720e-02  2.23411340e-02
    -2.18419824e-03  5.06568002e-03  3.35430205e-02 -2.81843133e-02
     8.00387748e-03 -2.21714075e-03  7.87671655e-03  1.23471366e-02
    -4.26800177e-02  1.46845635e-03  2.93400995e-02 -3.56573379e-03
     2.67305486e-02 -1.11098560e-02  2.33278591e-02 -3.44485901e-02
    -2.75564212e-02  1.75714884e-02  1.01185376e-02  3.08359470e-02
     2.14021988e-02 -3.12929861e-02 -3.50468010e-02  1.28718689e-02
     2.88350321e-02 -1.84053443e-02  1.37317460e-02 -3.64010185e-02
    -4.01640311e-02  1.18522840e-02 -8.38009361e-03 -1.50372284e-02
     1.27936527e-02  2.80815177e-02  2.28345655e-02  1.85033828e-02
     3.22989598e-02 -1.12090893e-02  3.77746555e-03  4.13828716e-03
    -2.66439700e-03  2.28354037e-02 -3.26485448e-02  1.98646113e-02
     2.09170170e-02  2.62865946e-02 -1.74012296e-02  9.65215079e-03
    -1.31288934e-02  2.99779251e-02  4.21684012e-02  3.00191734e-02
     8.28691106e-03  1.18295904e-02  9.37674078e-04  1.69574469e-02
     8.13442690e-04  3.79185984e-03 -4.81948722e-03  2.39989087e-02
     2.58272197e-02 -5.01941657e-03 -3.50734815e-02  3.42094200e-03
    -2.63326634e-02  9.34593286e-03 -1.44412061e-02 -7.39075290e-03
     2.74214968e-02 -1.10352580e-02 -2.24251430e-02  2.12400462e-02
    -3.15164328e-02 -2.45324560e-02 -4.56599658e-03 -5.67539781e-03
     2.22545750e-02  2.57564001e-02 -4.63565905e-03 -3.42812687e-02
    -1.23208705e-02  4.41314327e-03 -3.36281657e-02  2.05548033e-02
    -1.47048738e-02 -2.59316396e-02 -3.43510434e-02 -1.87839996e-02
     8.49634781e-03  5.52492868e-03 -3.89866084e-02  1.43182855e-02
     1.39132515e-02  2.38154158e-02  3.68617028e-02 -2.22455226e-02
     3.11560780e-02 -6.03730837e-03  1.96606340e-03 -3.64724398e-02
    -3.75346206e-02 -3.33177261e-02 -2.28145160e-02  8.34135618e-03
     2.95413509e-02 -1.90731976e-02 -3.82271931e-02  2.85489094e-02
     1.75083503e-02  2.18303986e-02  2.80494522e-02 -1.87803339e-02
    -3.45973745e-02 -2.99907452e-03  2.57232189e-02 -1.30681349e-02
     3.22087482e-02  2.00672019e-02 -1.22725898e-02  2.10790560e-02
     2.27821488e-02  7.66467350e-03 -9.04721487e-03 -2.79526021e-02
     2.27522273e-02 -1.23068774e-02 -7.35864695e-03  1.58434380e-02
     2.73033064e-02 -1.86730698e-02 -4.31280257e-03 -7.91553757e-04
     2.59982813e-02 -1.38777262e-03  1.84224378e-02  3.59917469e-02
    -2.32547391e-02 -3.05075776e-02  1.80217810e-02  6.05609687e-03
    -2.40630955e-02  2.17475053e-02 -3.39924619e-02 -3.24765034e-02
    -1.28759565e-02 -2.98984325e-03 -1.79484021e-03  2.30263490e-02
    -3.42900632e-04 -1.18024750e-02 -1.44846803e-02  8.45862832e-03
     2.99497377e-02  7.05630612e-03 -2.39985567e-02  3.92232835e-02
     1.23242447e-02  8.25619884e-03  1.83119290e-02 -3.96900848e-02
     1.42678088e-02 -2.30875378e-03  3.98285128e-02  2.40188241e-02
     1.31222410e-02  6.74449280e-03  1.66118238e-02  2.45085191e-02
    -2.12876163e-02 -2.65384037e-02 -2.91277338e-02  1.58258472e-02
     3.83273959e-02  5.30535635e-03  1.42921107e-02 -2.33861245e-02
     8.32538307e-03  2.35076752e-02  1.54641159e-02  7.01150019e-03
    -3.21443826e-02  4.30283360e-02 -9.71920043e-03 -3.37162404e-03
    -1.73708219e-02  3.32685970e-02 -1.01708351e-02 -3.05705089e-02
     2.50029527e-02 -3.10096107e-02  2.37701964e-02 -1.63252149e-02
     3.45572922e-03 -2.88217440e-02  1.92510728e-02  1.99211668e-02
    -3.28327296e-03  3.42289284e-02  3.66622284e-02  4.04549902e-03
     8.15478154e-03 -1.82910431e-02  1.56780966e-02  1.39693944e-02
    -2.26443708e-02  2.21310332e-02 -5.89580601e-03 -4.79226792e-03
     3.21274661e-02  1.77059919e-02  1.64219607e-02  6.24480098e-03
     1.06313452e-02 -3.12277209e-02 -1.78983789e-02  1.99189484e-02
     2.75367852e-02  3.37382662e-04  1.77833959e-02 -2.30209995e-02
     1.38286734e-02  3.20400074e-02  2.34928522e-02 -2.85815950e-02
     1.05906520e-02 -7.56692467e-03 -3.40584628e-02 -1.57344304e-02
     2.40505245e-02  1.56573318e-02  8.84993351e-04  1.81271154e-02
     9.07320715e-03  1.10986605e-02  3.01312450e-02 -3.63042504e-02
     2.19151638e-02  2.32576765e-02 -2.17135102e-02  7.69272388e-04
    -8.53404682e-03  3.03813405e-02 -1.22485426e-03 -3.59904803e-02
    -3.20165567e-02 -1.25241438e-02  1.05603738e-02  2.29267068e-02
     1.75982285e-02 -5.12203900e-04  9.73558612e-03  9.34885535e-03
    -2.44747866e-02 -1.98145751e-02 -3.99201065e-02 -2.06377208e-02
     2.73216832e-02  3.19621451e-02 -3.29292640e-02 -3.94694842e-02
     2.53971480e-02 -1.04707468e-03  1.31358718e-02 -8.54455773e-03
     4.83300164e-03 -3.59249450e-02  1.20071732e-02  2.01384239e-02
    -3.87399681e-02  1.54415434e-02 -4.67905775e-03 -1.70282787e-03
    -2.34807599e-02 -3.13621610e-02 -3.26435715e-02  1.19129643e-02
    -3.49068940e-02 -1.51268784e-02 -2.22701449e-02  2.50604525e-02
    -2.77669411e-02  2.28938777e-02  8.59729666e-03 -7.34013692e-03
     2.89002657e-02 -2.08085515e-02 -6.38150563e-03 -3.46470363e-02
     2.95178983e-02  3.26089785e-02 -3.18470933e-02 -1.85480472e-02
     8.13641585e-03  1.92754995e-02  3.02006118e-02  1.72616597e-02
     4.67654224e-03 -2.09936053e-02 -2.27426458e-02  6.68551540e-04
     3.44833098e-02 -1.70019288e-02  1.66254118e-02 -5.99629944e-03
     2.78089959e-02 -4.19611484e-03  3.88384312e-02  3.42129059e-02
    -2.62994282e-02  6.47499599e-03  1.18411258e-02  3.22997966e-03
    -1.59128048e-02 -4.95631574e-03  2.87930313e-02 -9.29149706e-03
     8.14688206e-03 -2.90225167e-02 -1.69032179e-02  2.77327765e-02
    -3.25660892e-02  1.22209620e-02  3.06920931e-02 -3.65114249e-02
     4.45324406e-02  6.04433939e-03  3.89841422e-02 -1.09240990e-02
    -3.13248299e-03  2.26994548e-02 -3.46423499e-02  2.95204227e-03
     4.33980785e-02 -1.00571588e-02 -4.18123715e-02  3.34202386e-02
     2.79206466e-02 -2.99633443e-02  1.05770035e-02 -2.02152748e-02
     1.22835990e-02 -1.76389460e-02  2.44678538e-02 -1.40424604e-02
    -3.40152942e-02  3.24607082e-03 -8.36365484e-03  6.75014826e-03
    -1.85781289e-02  3.36883143e-02  2.55176350e-02  2.28936821e-02
     5.06839668e-03  2.93095037e-02 -1.73147749e-02 -8.98232870e-03
     7.05373660e-03  3.08722630e-02 -2.79048886e-02 -1.67018920e-02
    -1.73994806e-02 -3.68591957e-02  1.22733247e-02  4.35081357e-03
    -6.96557667e-03  8.02967884e-03  2.93669645e-02 -1.72558390e-02
     1.69697925e-02  7.08997250e-03 -1.35411264e-03  2.79166419e-02
    -7.38118449e-03  1.85723172e-03  2.15411708e-02 -1.43659348e-02
     1.82748977e-02 -3.18899564e-02 -6.34072872e-04 -1.23825995e-02
    -1.83240883e-03 -5.15059615e-03  2.53078733e-02 -1.43405702e-02
     1.79680269e-02  4.16224524e-02 -6.45356253e-04 -3.05498783e-02
     1.73770040e-02  2.55997796e-02  3.16673666e-02  2.40404066e-02
    -2.83895545e-02  3.19510549e-02  1.89092625e-02 -3.51401232e-03
    -1.84595734e-02  5.55819075e-04 -2.49735871e-03 -7.95356091e-03
    -3.24006192e-02 -1.84938347e-03 -1.89377908e-02 -2.65239608e-02
    -3.58121321e-02  1.33597041e-02 -5.17626945e-03 -3.86400335e-02]]]


 [[[ 1.93325188e-02  2.86078639e-02  2.27147769e-02  2.05767751e-02
     2.72892732e-02  1.01549570e-02 -2.23846585e-02  1.87579487e-02
    -3.38057652e-02  1.53300352e-02 -2.96592675e-02 -2.47270539e-02
     7.97556806e-03 -2.06632745e-02  2.89770197e-02  2.78779510e-02
     3.05411331e-02 -1.62432138e-02  2.43576746e-02 -3.37590352e-02
     2.08990164e-02  2.83544678e-02 -2.14528199e-02 -2.07063463e-03
    -1.21264625e-02  2.97398325e-02 -4.13480848e-02 -2.25172024e-02
    -4.08967659e-02 -9.93499067e-03  7.52350129e-03 -2.85915900e-02
     1.14721460e-02 -3.77558693e-02 -6.15791185e-03 -3.54902148e-02
    -9.30358563e-03 -1.67504195e-02  1.96493994e-02 -1.17143672e-02
    -3.66885625e-02 -2.96395365e-02  6.75184233e-03  8.47624708e-03
     2.68701278e-02 -4.03709617e-03  3.35003436e-02 -4.98598628e-03
    -1.98015384e-02 -4.13813591e-02 -7.49304192e-03 -1.26716010e-02
     2.62816586e-02 -3.79420351e-03 -4.05396633e-02  2.62008645e-02
    -7.97761977e-03  1.13418251e-02 -2.23292653e-02 -2.12215390e-02
    -2.17941590e-02  2.49102022e-02  1.44906398e-02  3.05514354e-02
    -2.29870062e-02  5.16565470e-03  7.67134922e-03 -6.96153007e-03
    -1.23574287e-02 -3.53535339e-02  1.61995683e-02  9.35918558e-03
     1.41024282e-02  2.31041908e-02  8.72840546e-03  1.15055535e-02
    -2.45222971e-02 -6.89538615e-03 -5.33658196e-04  2.00854018e-02
    -2.06580572e-02 -1.98952891e-02 -1.36613688e-02 -3.14145423e-02
    -2.81233583e-02  3.84569876e-02  3.99381574e-03 -2.89362315e-02
     2.01464426e-02 -2.81140134e-02 -1.53233912e-02 -1.47404317e-02
    -3.34212370e-02 -3.99079993e-02  6.08706567e-03 -3.80587392e-02
    -2.37725489e-03  1.46758221e-02  1.06837589e-03 -9.37852915e-03
    -9.16337688e-03 -2.65566390e-02 -1.54128559e-02 -3.93881276e-02
    -1.42696465e-03  2.26351433e-02 -2.81957835e-02  2.98373755e-02
     2.13899408e-02  1.34057403e-02 -2.87461523e-02  1.73815880e-02
    -3.18714306e-02  7.06931902e-03 -3.12834196e-02 -1.65197917e-03
    -1.01960497e-02  2.72783525e-02 -2.67046671e-02 -8.47650412e-03
     9.32681002e-03  2.91701835e-02  2.40869783e-02 -3.87818590e-02
     5.23473276e-03  8.06744676e-03 -2.12906748e-02  1.96464974e-02
    -3.92610468e-02 -2.68661678e-02  4.18484583e-02 -6.13177568e-03
    -1.76559705e-02 -4.30211890e-03 -3.90431508e-02  2.87038386e-02
     3.12242359e-02 -1.57412756e-02  2.25667539e-03  1.32615436e-02
     1.08664762e-02  5.91875287e-03 -6.85169245e-04  8.52995180e-03
     2.78234128e-02 -1.64249297e-02  3.45274508e-02 -2.92295609e-02
    -1.97577421e-02  4.94158873e-03 -3.24233063e-02  1.68545470e-02
     2.94217188e-02  4.63863555e-03 -2.58911923e-02 -3.63558047e-02
    -3.86617742e-02  2.95821670e-02 -3.24244201e-02  1.99265759e-02
    -1.68101247e-02  1.11156153e-02  2.11879089e-02  1.44610703e-02
     2.68719206e-03 -2.66273897e-02 -3.23751085e-02 -3.15020699e-03
    -2.09322535e-02 -1.71768591e-02  1.81411151e-02  2.74442378e-02
     2.67672949e-02  7.72407930e-03  1.47849573e-02 -3.35460692e-03
    -1.04245329e-02 -1.56285558e-02 -1.20383259e-02 -9.59121808e-03
     1.62222143e-02  1.64096989e-02 -3.81134823e-02 -2.94708665e-02
     1.25761358e-02 -1.28179211e-02  5.87777141e-03 -1.59866270e-03
     2.41494589e-02  4.06580865e-02  1.04667349e-02  3.64324972e-02
     1.29748896e-05 -3.37081365e-02  7.81162223e-03 -2.20825765e-02
     1.56378299e-02 -2.87160855e-02 -3.95401679e-02  3.00065782e-02
     2.79956087e-02 -7.67541490e-03 -9.27679427e-03 -3.54364328e-02
     2.36184727e-02  2.06710845e-02  1.67796724e-02  4.48525045e-03
    -4.04455550e-02  2.00068187e-02  3.41667980e-02  8.20360426e-03
    -2.21235417e-02 -2.75849849e-02  3.71531839e-03 -1.73091013e-02
    -1.58411749e-02 -2.51081921e-02 -3.12139336e-02  1.85183343e-02
     1.19215548e-02 -3.95462513e-02 -1.75231807e-02 -4.15510908e-02
    -1.01521583e-02 -8.16877652e-03  2.36872002e-03  3.35699506e-02
    -4.37337980e-02 -8.13623611e-03 -1.01570217e-02  2.49761436e-03
    -2.44094096e-02  1.89109088e-03  1.83006525e-02  2.70253643e-02
     2.41978616e-02 -1.28426114e-02 -3.50390449e-02 -2.23030169e-02
    -3.24283689e-02  1.34669673e-02 -9.35850479e-03 -5.28718438e-03
     2.29492635e-02  1.74229648e-02  1.23047009e-02  1.30917430e-02
    -3.85853439e-03 -3.44783962e-02 -2.47099306e-02 -2.77130138e-02
    -2.01884229e-02  2.91204471e-02  2.00832468e-02 -3.35271209e-02
     1.52294263e-02 -1.88261569e-02  3.36180371e-03 -1.93996057e-02
    -1.12317502e-02 -2.80867051e-02 -1.90263260e-02  2.70953272e-02
     2.38363980e-03 -4.28513577e-03 -3.46223973e-02 -1.43241435e-02
     2.45363172e-02  3.55539424e-03 -3.91673595e-02 -3.11699864e-02
    -9.56298131e-03  1.98577624e-03 -3.21017788e-03 -3.17590795e-02
    -3.79678719e-02 -8.00930895e-03 -3.44888195e-02 -1.61258169e-02
     9.23162792e-03 -4.30457015e-03  2.43158378e-02  5.82387857e-03
    -7.63058849e-03 -2.04550382e-02 -3.12323924e-02  4.20909422e-03
    -2.01618299e-02 -1.69216041e-02 -3.16721410e-03  2.90168803e-02
     1.16827674e-02  1.62570085e-02  2.45688725e-02 -1.92893762e-02
    -3.30786011e-03  1.69674624e-02  7.93001527e-06 -3.32081690e-02
     8.56971834e-03 -1.34824952e-02 -1.30162220e-02 -9.96716041e-03
    -3.60682271e-02 -7.63661042e-03 -2.11785641e-02  2.60559916e-02
     9.53753013e-03  9.30380262e-03  3.85295376e-02 -3.84918973e-02
     1.98859107e-02 -3.19072567e-02 -4.03845757e-02  1.45849055e-02
    -1.25622656e-02  2.15659048e-02 -5.67938993e-03  1.44167989e-02
    -3.87122184e-02  8.15417711e-03 -9.04352521e-04  2.41075661e-02
    -1.14975823e-02 -3.84373069e-02 -5.10955881e-03 -3.00668087e-02
     2.08888277e-02 -1.42103881e-02 -2.29458120e-02 -6.72282884e-03
    -3.21252085e-02 -2.84887552e-02 -6.34951191e-03 -2.60463487e-02
    -1.39345303e-02  4.64040274e-03  2.03897264e-02  2.28341483e-02
    -3.91471535e-02 -2.24746931e-02  8.42580479e-03  1.90485232e-02
     1.09459935e-02 -1.82535686e-02  1.17835812e-02  2.52815373e-02
     1.78260840e-02  7.59229437e-03  1.97580568e-02  1.73037089e-02
    -1.51074929e-02  1.20740477e-03  1.95348896e-02  1.82605702e-02
    -7.59864552e-03  4.24633846e-02  4.04942036e-02 -1.59027241e-02
    -2.93365046e-02  1.17723402e-02 -7.43872952e-03  3.02325152e-02
    -3.27526703e-02  2.92294975e-02  1.33220116e-02  2.66002845e-02
     2.39481647e-02 -1.68877374e-02  1.90279149e-02 -6.62157452e-03
     2.93882824e-02 -1.43521465e-02 -3.66916247e-02 -2.32131500e-02
    -3.05361655e-02 -8.66390206e-03  2.79283673e-02  1.78973284e-02
     3.93739678e-02  6.87857019e-03 -2.38634590e-02  2.81696003e-02
    -6.41644606e-03 -2.22612135e-02 -5.39371651e-03 -3.72107774e-02
     2.80511733e-02  2.95736808e-02  2.21422408e-02  1.09593291e-02
     1.13720074e-02  2.57349610e-02 -6.58638682e-03 -2.12833658e-02
    -2.83008739e-02  2.66742893e-02 -8.55281949e-03 -2.24777572e-02
     3.58963050e-02  3.02611366e-02 -1.79152209e-02  2.33489815e-02
    -1.49875004e-02 -2.52590850e-02 -2.63166688e-02 -1.76925410e-03
    -1.97859611e-02 -3.53938825e-02 -3.98128061e-03 -2.05444787e-02
    -1.32207265e-02 -4.14099246e-02  2.51407027e-02 -2.99487654e-02
     2.53565121e-03 -3.76319550e-02 -1.03884442e-02  1.06857158e-02
    -2.89452318e-02  2.23134700e-02  4.21526954e-02  1.35713331e-02
    -1.93820056e-02  1.14438301e-02 -2.03493610e-02  2.82542314e-02
    -1.64515469e-02  2.33009085e-02  1.23615088e-02  2.48927642e-02
     1.32085346e-02  1.88657604e-02 -4.18546498e-02 -1.13274315e-02
    -4.66468232e-03 -6.04671752e-03 -4.20068856e-03 -1.75498202e-02
    -3.05144619e-02 -3.99882644e-02 -2.54816096e-02  6.39053527e-03
    -7.60864606e-03  2.84875128e-02 -3.10107917e-02 -1.51173193e-02
     1.10730268e-02  2.34833527e-02 -2.48094201e-02 -3.12069468e-02
    -1.37357526e-02 -3.16958912e-02 -2.48288251e-02  2.05302387e-02
     2.94704698e-02  3.08286808e-02 -1.66436080e-02  2.31163651e-02
     6.47505466e-03  3.65372114e-02 -2.70374730e-05 -4.03934345e-02
    -2.19396502e-03  1.89618636e-02  2.52405251e-03 -2.68341899e-02
     2.24098209e-02  2.87049655e-02  2.16791555e-02 -2.55839452e-02
    -4.03730245e-03 -2.42741518e-02  2.32830998e-02 -1.02170743e-02
     1.47277918e-02 -1.63561124e-02 -1.28264129e-02  3.34382653e-02
    -8.30056902e-04 -6.79824129e-03 -3.76194529e-02  4.80824290e-03
    -5.82022453e-03 -2.54358281e-03  1.66632142e-02 -1.87291242e-02
    -4.00162041e-02 -3.62436026e-02  2.99154632e-02  1.43676382e-02
     1.88044459e-03 -4.79699671e-03  2.53037922e-03 -1.37855038e-02
    -3.31928767e-02  2.85551860e-03  3.27093825e-02 -2.99791228e-02
     1.48379887e-02  4.83478140e-03 -8.44116323e-03 -1.92423537e-02
    -3.44655365e-02 -9.31563973e-03 -1.61669236e-02 -3.30246724e-02
     3.07605229e-02  2.80115902e-02 -1.66038182e-02  6.52529765e-04]]

  [[-2.07324903e-02  2.22080722e-02 -3.46259167e-03 -2.23801658e-02
     1.64634697e-02  2.35671438e-02 -1.76863633e-02 -3.32760066e-02
    -1.22896787e-02 -1.51879610e-02  2.77231820e-02  1.21552199e-02
     1.77130308e-02  2.02151835e-02 -3.95387411e-02 -2.66600996e-02
     3.27768107e-03 -3.44141796e-02  2.07963344e-02 -3.40873748e-02
     1.99224111e-02 -2.00426523e-02 -3.57389003e-02 -3.21695954e-02
     1.53874583e-03  2.43979059e-02 -2.38838438e-02 -1.64030027e-02
     1.82043985e-02 -9.94780473e-03  1.28347110e-02 -2.47118380e-02
    -4.93453350e-03  4.00305493e-03 -2.22971905e-02 -1.79465897e-02
    -1.93952098e-02  3.93288862e-03 -2.30192058e-02 -2.74506565e-02
    -1.19151128e-03  4.60096356e-03  2.59053372e-02 -1.85871404e-02
     1.53622804e-02  1.40229594e-02 -1.36338919e-02  2.30070278e-02
    -1.99948847e-02 -2.07913797e-02  2.63633803e-02 -1.05254371e-02
     8.22938699e-03  6.44014915e-03 -4.52706357e-03 -1.67053938e-02
    -1.27064362e-02 -4.14785035e-02  3.34725040e-03  1.28434354e-03
    -2.63472311e-02  2.99181528e-02 -2.91730626e-03  1.51868751e-02
    -2.42244508e-02  9.20841750e-03 -2.96612941e-02 -3.08639407e-02
     3.98031157e-03  1.53218107e-02 -1.02065867e-02 -3.62508520e-02
     2.72973832e-02  2.75886543e-02  2.66976226e-02 -2.91318707e-02
     9.56217758e-03 -1.21566011e-02  1.68140102e-02  1.87389776e-02
     3.75616178e-03 -3.65933105e-02 -8.29104055e-03 -4.91238316e-04
    -2.37806309e-02 -1.21929972e-02 -1.97718907e-02  3.04394811e-02
     1.14219321e-03 -2.12599766e-02 -2.56329104e-02  1.68943349e-02
    -1.34368986e-02 -2.02472098e-02 -2.14412548e-02  2.11984925e-02
     1.62494257e-02 -2.56653707e-02  2.84193307e-02 -2.33447049e-02
     3.00859530e-02 -3.41937058e-02  3.90122458e-03  2.64152531e-02
     8.14473815e-03 -2.13491060e-02 -1.56654995e-02  2.15862803e-02
     2.19346099e-02 -4.73294174e-03 -2.28645708e-02 -1.28062880e-02
    -1.90023053e-02 -1.36225997e-02 -2.16827150e-02  1.10757174e-02
    -2.76639480e-02  3.20227332e-02  2.42946446e-02  2.70876568e-02
     2.88255028e-02  1.28298309e-02 -7.56701175e-03 -1.53238690e-02
    -2.08974071e-02  7.11444579e-03  6.30921358e-03 -2.86439639e-02
    -1.37962913e-02  3.88381560e-03 -2.91331764e-02 -1.09483041e-02
     2.93544792e-02 -6.54359465e-04  3.04908976e-02  2.25943364e-02
     2.94764657e-02  2.37500742e-02  9.44536086e-03  1.07583301e-02
    -1.89368483e-02 -2.93825176e-02 -2.49118786e-02  7.29624706e-04
     2.44251490e-02  8.43118131e-03  1.60423703e-02 -2.85418052e-02
    -1.94617733e-02  3.07060517e-02  1.23337554e-02 -3.02422382e-02
     1.01705147e-02 -3.24762389e-02 -2.51698513e-02 -3.41266990e-02
     2.12205704e-02 -2.32597683e-02  1.77363250e-02 -3.95879801e-03
     1.78665668e-02 -5.31144859e-03  3.52446036e-03  1.96673535e-02
    -8.84887762e-03  2.03792751e-02 -2.56236643e-02  1.98660064e-02
    -2.07728259e-02 -7.00310245e-03  2.81533934e-02  3.89176863e-03
    -2.07898556e-04 -1.98066365e-02 -4.28052666e-03  4.16571880e-03
    -1.74255893e-02  1.90848485e-02 -2.12014094e-02  2.90883612e-02
     5.87478094e-03  6.11514179e-03 -2.89363079e-02  2.39713471e-02
     1.17092617e-02 -5.15434798e-03 -6.95829047e-03 -2.35577254e-03
    -3.32451193e-03 -1.39509942e-02 -1.19559551e-02 -3.24593522e-02
     1.33356694e-02 -6.75170333e-04 -3.92707123e-04  2.80858353e-02
    -3.53069939e-02 -2.57481411e-02  1.21722575e-02 -3.64333913e-02
     1.18881073e-02 -2.16897707e-02  1.12208473e-02  1.75426155e-02
     1.93698052e-02  3.37332748e-02  2.79659182e-02  1.78768951e-02
     8.65691341e-03 -6.95114781e-04 -2.42616553e-02 -1.47150112e-02
    -7.36611430e-03 -1.15015181e-02  2.16568150e-02  2.39863107e-03
     2.33954750e-03 -3.81872952e-02 -1.98986568e-02  3.96818779e-02
     1.49393529e-02  1.97183210e-02 -3.02820485e-02  1.16862729e-02
    -2.40530986e-02 -2.85810623e-02  5.39562711e-03 -2.41687335e-02
    -1.35888029e-02  1.16097927e-02 -3.18466015e-02  2.26400364e-02
     2.67606452e-02 -1.05093708e-02  2.01305654e-02 -3.96794118e-02
     2.85048392e-02 -1.42885307e-02  1.74441729e-02 -3.98641638e-02
     1.72278229e-02 -1.64296627e-02  2.58627832e-02 -2.83280779e-02
     5.17080398e-03  1.29489331e-02  4.53357538e-03  1.90639384e-02
    -3.05943172e-02 -8.17691907e-03 -1.52943507e-02  3.00738793e-02
    -1.80507284e-02  6.99400716e-03  3.87754710e-03 -2.16132831e-02
     4.49787732e-03 -4.03919369e-02  1.34877712e-02 -3.70793557e-03
    -3.85730602e-02 -3.24452966e-02 -7.19069643e-03  4.11938131e-03
     9.69002768e-03 -2.77531035e-02 -1.57255195e-02  1.89660657e-02
     2.42493618e-02 -4.08877432e-02 -3.81769687e-02  2.09288392e-02
    -2.71215886e-02 -8.69340729e-03 -3.49734761e-02  3.19317207e-02
    -3.38652655e-02 -3.90551165e-02 -3.65560129e-02 -9.60704125e-03
    -3.83636132e-02 -2.04354408e-03  2.58345213e-02 -2.19207872e-02
    -1.23344902e-02 -2.72077378e-02 -1.85445938e-02 -2.43992470e-02
    -1.88829284e-02  2.47962158e-02 -3.32825643e-04  1.88027918e-02
    -1.27681270e-02 -3.69176380e-02  6.80616451e-03 -2.98658386e-02
     1.75398774e-02 -3.09857577e-02 -5.21221431e-03  3.50310095e-02
    -2.27345508e-02  2.74433964e-03 -1.52150691e-02 -1.80306546e-02
     2.07279902e-02 -1.35130547e-02  1.70893557e-02  8.15740845e-04
    -3.41493972e-02 -3.89461853e-02  6.49799546e-03  3.13354395e-02
    -3.71035598e-02 -2.41556671e-03 -5.77037362e-03 -3.54833305e-02
    -1.02116205e-02 -3.03098001e-02  1.92760229e-02  3.12014334e-02
     3.57126705e-02 -3.49236652e-02  4.72083502e-03  3.08392644e-02
     2.07181051e-02  8.42729956e-03 -7.48035777e-03  1.77437514e-02
     3.24327522e-03 -2.27553248e-02  2.52067149e-02 -1.03463493e-02
     2.75261700e-02 -2.40827110e-02  2.64581107e-02 -2.34409589e-02
     2.38399580e-02  4.45785327e-03 -3.54963075e-03  2.68636979e-02
    -2.85033248e-02  2.50249710e-02 -2.18648594e-02 -1.92565527e-02
    -3.76531407e-02 -7.26372411e-04 -1.61775071e-02  2.64868466e-03
    -3.13406326e-02  1.39462948e-02 -3.34093012e-02  1.99830141e-02
     2.82329414e-02  3.72996763e-03  3.15373838e-02 -4.04179059e-02
     3.10873445e-02 -4.81320824e-03 -2.02226955e-02 -3.99423838e-02
    -3.55311818e-02 -6.52127992e-03 -3.43938880e-02  2.10446026e-02
    -4.25718213e-03  2.67613214e-03 -2.67376415e-02  2.41961405e-02
    -4.05491889e-02 -2.89457068e-02  3.10129374e-02 -3.37692089e-02
     1.86481550e-02 -4.44350793e-04 -2.39278208e-02 -7.09253037e-03
     2.83378102e-02 -5.06381132e-03 -4.20676498e-03  1.25982827e-02
    -3.18212323e-02  2.16698945e-02  2.89679170e-02  1.19915502e-02
     8.04288127e-03 -3.10631488e-02 -2.76757237e-02 -8.37137643e-03
    -2.49218438e-02 -2.39988118e-02  5.28632943e-03  2.26773676e-02
     2.69831270e-02 -9.05414391e-03  2.97930446e-02 -2.23956984e-02
    -1.67429093e-02  2.80826259e-02 -4.05580597e-03 -2.60029500e-03
    -1.35712116e-03  3.14307138e-02 -1.59957446e-02 -1.76788252e-02
    -2.81048417e-02  6.05053874e-03 -8.91879015e-03 -1.99536681e-02
     1.76559445e-02 -1.02416361e-02 -2.09075888e-03  1.84199139e-02
    -3.50191095e-03 -3.33738141e-02 -1.54391001e-03 -1.17050428e-02
    -2.54670121e-02 -8.55017640e-03 -1.07304985e-02  3.13935503e-02
     1.47442017e-02  1.91809963e-02 -2.89612599e-02 -3.30811529e-03
    -9.82861314e-03 -1.98048167e-03 -8.97072814e-03  6.75641326e-03
     8.00613966e-03 -2.42442247e-02 -1.93488542e-02  1.93621009e-03
    -3.46999392e-02  2.67375764e-02 -7.71152275e-03 -3.28518450e-02
    -2.40818020e-02 -1.94385927e-02  3.34753015e-04 -3.53149399e-02
     2.50021536e-02 -2.67724637e-02 -2.59195641e-03 -8.23634490e-03
     1.86784528e-02 -2.09330674e-02 -2.85008959e-02 -1.67638678e-02
     3.07832118e-02 -1.96969751e-02  3.05998921e-02 -1.74234454e-02
    -2.08572056e-02 -1.45097887e-02 -2.61127427e-02 -1.10419616e-02
     1.48437573e-02 -1.54569587e-02 -2.61762477e-02  3.66712250e-02
     1.61145013e-02 -3.85975689e-02 -2.57887109e-03  2.31264904e-02
     2.06902847e-02  9.61453840e-03 -1.14077749e-02 -8.16330314e-03
    -5.26873628e-03 -3.74890901e-02 -3.03166509e-02 -1.79856606e-02
     1.51816281e-02 -4.22657561e-03 -7.54331425e-03 -3.39034596e-03
     2.13184524e-02  2.27285624e-02 -3.04453298e-02 -1.77587252e-02
    -7.43398117e-03 -3.11854985e-02  1.98540017e-02  1.25114210e-02
    -1.31919631e-03  2.47025583e-03 -6.07583934e-05 -2.15493403e-02
     1.14107933e-02  1.99476108e-02 -2.02074703e-02  1.16208838e-02
    -3.67436558e-02 -8.63233861e-03 -1.70995463e-02 -1.27392472e-03
     2.44777165e-02  1.30013451e-02  2.18477193e-02 -6.93799835e-03
     1.05360998e-02 -3.28129269e-02 -6.19301479e-03 -2.81685740e-02
     2.34686080e-02 -4.38096188e-03  1.31775234e-02 -2.54006404e-02
    -3.44577502e-03  2.37215571e-02 -4.50772345e-02  2.78992336e-02]]

  [[ 3.23544629e-02  1.49914874e-02 -4.23713177e-02 -2.93638967e-02
     2.15931274e-02 -2.70483661e-02 -2.21799556e-02 -1.26280151e-02
    -1.06189102e-02  8.90552253e-03 -7.84806069e-03 -5.27861237e-04
     1.49474274e-02 -2.66211741e-02  2.63304040e-02 -2.19046734e-02
    -3.77384983e-02  2.34195516e-02  6.87005743e-03 -3.08409799e-02
    -2.52944399e-02  6.49083173e-03  3.49882878e-02 -3.95520739e-02
     3.52915167e-03 -4.26907674e-04  3.48481573e-02 -1.64117496e-02
     1.80855058e-02  7.46883510e-04  2.50820760e-02  3.49851437e-02
    -9.15208459e-03 -3.19635049e-02  5.74740442e-03 -5.21688676e-03
     2.49727853e-02  3.89775634e-02  1.11696972e-02  4.44150381e-02
    -2.62103230e-03  7.76568521e-03  2.91202813e-02 -1.19818300e-02
    -1.80961601e-02 -3.29475068e-02  2.36343704e-02  1.27813183e-02
     9.52122640e-03 -2.62388028e-03  1.31442370e-02 -3.77303697e-02
    -1.79384649e-02  2.10073236e-02  1.09920437e-02 -1.04099652e-02
     2.23914161e-03 -4.77083633e-03 -3.48017924e-02  1.65769793e-02
     9.30763409e-03  1.49741787e-02  1.87107157e-02  1.62614100e-02
     8.12845828e-04  3.50215472e-02  1.91352013e-02  1.29486816e-02
    -1.69774182e-02  2.18573622e-02 -2.60969549e-02 -1.60589013e-02
    -1.59305874e-02 -3.66890989e-02 -1.20593552e-02 -2.44097388e-03
    -4.98578977e-03 -2.71754991e-02 -2.98673511e-02  9.60774999e-03
    -2.69274022e-02  1.15358187e-02  4.74749412e-03 -6.37915265e-03
     2.45883651e-02 -9.08581261e-03 -8.36856011e-03  1.01915374e-02
    -3.64501774e-02 -2.42716260e-03  8.96519795e-03  1.42383613e-02
    -4.10677865e-03  3.07330154e-02 -2.31343955e-02  2.75494112e-03
    -4.06319126e-02  1.40763400e-02 -3.72912735e-02  6.77072210e-04
     1.71657018e-02 -2.35471483e-02  1.43820643e-02 -5.52248210e-04
    -2.13658642e-02  5.41881798e-03  4.40050731e-04  2.10905373e-02
     1.54116461e-02  2.87029538e-02  3.81752998e-02 -9.11622215e-03
    -1.79202948e-02 -2.33170874e-02 -1.75499432e-02 -1.07960394e-02
     9.05197929e-04 -2.29856540e-02 -3.05900108e-02 -2.39160694e-02
    -3.36127207e-02 -1.58035923e-02 -2.75990199e-02  2.72345021e-02
    -9.26470850e-03 -2.23987196e-02  2.98098885e-02  3.76593263e-04
    -1.01918671e-02  1.34909619e-02  1.47343911e-02 -3.34798396e-02
    -5.28376841e-04  4.75389184e-04  3.20669226e-02 -8.45723972e-03
    -4.54773020e-04  1.38273519e-02 -3.55237313e-02 -3.90430316e-02
     1.84095893e-02  1.40654237e-03  9.25298128e-03 -2.72943247e-02
    -3.18545178e-02  3.78992669e-02 -2.37980708e-02 -9.76337120e-03
     3.00741978e-02  1.53939612e-02 -1.19373901e-02  3.38245854e-02
    -2.36973409e-02 -6.68628141e-03  2.01182328e-02 -1.28873419e-02
    -2.66812015e-02  2.62144152e-02  2.79033426e-02 -1.33526307e-02
     1.96151696e-02 -2.67739445e-02  2.08607204e-02 -3.07734292e-02
    -6.74959971e-03 -1.70926154e-02  2.85082664e-02 -2.65507232e-02
     3.52201751e-03 -6.86492538e-03  2.22790074e-02 -3.78787592e-02
     2.77910866e-02  4.74396953e-03 -5.82872937e-03 -2.28697453e-02
     2.41522081e-02  2.51431018e-02  3.12438514e-02  2.79505532e-02
     1.61827374e-02 -3.22813652e-02  5.04808640e-03 -2.18688771e-02
     2.83106659e-02  1.46117862e-02  2.90449113e-02  1.56032061e-03
    -2.84900162e-02 -1.32601280e-02  7.34947342e-03 -7.17259105e-03
     6.78277994e-03  2.36720406e-02 -2.49220002e-02 -2.82368716e-03
    -3.17711234e-02  2.86073592e-02 -1.78596247e-02 -4.90800384e-03
    -1.24746729e-02  4.45520133e-02 -2.66933199e-02  3.17519978e-02
    -4.80127987e-03 -2.65608840e-02 -3.60984020e-02  9.53767262e-03
     1.89159159e-02  2.55578221e-03 -5.64517314e-03  2.14214232e-02
     2.45774053e-02  2.20264737e-02  8.56333226e-03  3.02932598e-02
    -2.55806139e-04 -2.36131307e-02 -2.26343162e-02  2.83144377e-02
     2.00529452e-02  1.29967649e-02  5.69325453e-03  1.85861457e-02
     8.91263317e-03 -2.35548466e-02 -1.47037040e-02 -2.16203611e-02
     3.16283591e-02 -2.25887708e-02 -2.12378819e-02 -2.67023891e-02
    -5.81971230e-03 -1.39277317e-02 -2.97491606e-02  3.10453922e-02
    -1.96232740e-02 -2.41778176e-02 -1.13743125e-02 -2.75090300e-02
    -4.18819766e-03  5.66952163e-04  2.08347831e-02 -7.58886104e-04
    -3.32577229e-02 -2.46108621e-02  1.35786831e-02 -1.21649726e-04
    -2.39754878e-02 -2.61708163e-02  7.55963381e-03  6.59522717e-04
    -3.91299166e-02 -3.14092189e-02  2.43600998e-02  1.99342687e-02
    -4.37201001e-03  1.72433890e-02 -2.66383477e-02  1.47554837e-02
     8.90903734e-03 -1.36944298e-02  1.65216289e-02 -1.20084779e-02
     1.54252360e-02 -1.29479002e-02 -2.85366978e-02  1.85984634e-02
     2.96566430e-02 -2.50421260e-02  5.96270012e-03 -1.26853772e-02
    -2.21578199e-02  2.16430090e-02 -1.17078172e-02 -8.95635982e-04
     1.94624774e-02  3.13035697e-02  1.40239159e-02 -1.04431855e-02
     1.99265890e-02  7.23293005e-03  1.08351214e-02 -2.06777081e-02
    -3.88617590e-02 -2.35591717e-02 -3.54840532e-02  1.63278189e-02
    -1.25917299e-02 -8.80544726e-03 -3.52248847e-02  1.25247997e-03
    -2.95171626e-02 -2.09994819e-02 -1.35565689e-02 -1.47253247e-02
    -2.08717585e-02  1.42283933e-02  9.64283757e-03 -1.44135589e-02
     2.99495552e-02 -3.25431116e-02 -8.22940748e-03  5.01170801e-03
    -2.41228919e-02 -1.12062348e-02  1.83668733e-02  1.67490321e-03
     2.63114851e-02 -2.98011545e-02 -3.58389579e-02 -1.59793813e-02
    -1.88366212e-02  2.18039192e-02  1.21932039e-02  3.06412242e-02
     3.16435215e-03 -2.11612531e-03  1.75068453e-02 -2.24965941e-02
     2.03109384e-02 -3.06548253e-02 -9.46162827e-03 -3.73688377e-02
    -3.37043069e-02  1.06954863e-02 -1.66652221e-02 -1.38332797e-02
     3.14051332e-03  2.48545334e-02 -2.11632717e-02  5.71765006e-03
     9.28974710e-03 -2.17522904e-02  2.95057483e-02 -3.22262570e-02
     2.05270462e-02 -3.79928425e-02 -3.19840312e-02  1.91944055e-02
     2.19625770e-03  1.73685420e-02  3.05727720e-02  1.52315563e-02
    -9.06539056e-03 -8.54419370e-04  1.57206394e-02 -3.22856829e-02
    -2.84005068e-02  2.14478839e-02 -2.61029899e-02  1.17652537e-02
    -3.48843224e-02 -6.71995012e-03 -8.40398134e-04 -2.75664460e-02
    -3.72470133e-02 -2.74596550e-02 -2.27432828e-02 -6.73809694e-03
    -5.41975023e-03 -3.43712382e-02 -1.83857530e-02  1.97576080e-03
     1.02783944e-02 -3.22106928e-02  1.22561986e-02 -8.47749878e-03
    -3.67225297e-02  6.10337825e-03  1.73649229e-02  2.57968474e-02
    -2.82014161e-02 -6.29971037e-03 -3.61418060e-04 -1.94066744e-02
     1.83635764e-02 -2.25358345e-02  3.31890248e-02  3.33027274e-04
    -1.35690207e-03 -1.58203598e-02 -1.33299138e-02  1.61094703e-02
    -2.86407005e-02 -1.34574417e-02 -2.26920117e-02 -1.99145209e-02
     2.55973060e-02 -3.98724899e-03  1.31697720e-02  1.14799263e-02
    -1.72219407e-02  3.08880974e-02 -3.07260435e-02  4.21482585e-02
    -2.88512055e-02 -3.02881058e-02 -2.56910976e-02 -3.75450728e-03
    -1.19968329e-03  2.97042681e-03 -3.89603563e-02  2.13785302e-02
     2.77738031e-02 -9.78585426e-03  3.13127600e-02 -4.20027524e-02
     2.71706041e-02  2.41241753e-02  1.67230982e-03 -1.27193667e-02
    -1.03059877e-03 -2.74948943e-02  2.25099716e-02  2.62693986e-02
     2.86164490e-04  1.81886200e-02 -2.25962568e-02 -2.60111038e-02
    -1.57612341e-03 -2.99642608e-03 -3.38113792e-02 -2.49834936e-02
    -1.09680509e-02  1.77994855e-02  3.15480307e-02 -1.99770201e-02
     3.11573632e-02 -1.43144105e-03  4.45521623e-03  2.13319175e-02
    -6.95422245e-03 -2.81495601e-02  8.91972985e-03  1.55884475e-02
     1.65085010e-02 -2.88054366e-02 -9.44662932e-03  2.67292410e-02
    -3.09004877e-02  2.17911080e-02 -2.03047656e-02 -2.01028418e-02
    -2.77917758e-02 -3.06953620e-02 -2.96250954e-02 -9.34798922e-03
    -9.51453950e-03 -2.29827464e-02  8.73932149e-03  1.61204450e-02
     2.35942602e-02  3.25129479e-02 -8.25493131e-03 -2.09210138e-03
    -1.43391201e-02  1.20829614e-02 -1.38718449e-02 -6.67933607e-03
    -2.81846076e-02 -3.33662145e-04 -2.38922867e-03  3.87862511e-03
    -2.90375296e-03  1.63638704e-02 -3.91715690e-02 -2.80412175e-02
    -1.82517823e-02 -1.11176390e-02 -3.49405445e-02 -2.90386193e-02
    -3.75092998e-02 -1.66958440e-02  3.09052151e-02  1.40877152e-02
     3.99221573e-03  1.94258187e-02  1.77608244e-02 -3.45925726e-02
     1.92445796e-02  9.24237352e-03 -1.28249191e-02 -3.47392596e-02
    -2.68767290e-02  1.76891033e-02  1.91447474e-02 -3.02004963e-02
    -1.40447766e-02 -2.33819690e-02  3.48203629e-02 -2.11793538e-02
     3.13602351e-02 -2.82636769e-02  1.48196565e-02 -3.42715182e-03
     2.60729603e-02 -2.20532194e-02 -1.93748102e-02  8.56137834e-04
    -5.12408733e-04 -3.36318500e-02 -3.70479859e-02  3.33565101e-02
    -2.72538494e-02 -2.86510810e-02 -2.93391291e-02 -5.77483466e-03
    -2.36317515e-02  4.71833674e-03 -1.12423263e-02  2.93785390e-02]]]]
