[[-0.04958535]
 [-0.01598506]
 [ 0.00114341]
 [-0.02058847]
 [-0.08288667]
 [-0.06009223]
 [ 0.02824736]
 [ 0.01452166]
 [ 0.06176154]
 [ 0.00221795]
 [ 0.02018354]
 [-0.08273741]
 [-0.04445171]
 [ 0.02671003]
 [ 0.01591502]
 [ 0.03062063]
 [ 0.03078757]
 [-0.03615056]
 [ 0.05205441]
 [ 0.08098923]
 [ 0.05199198]
 [-0.00776347]
 [ 0.06759071]
 [-0.01523104]
 [ 0.01198079]
 [-0.03966468]
 [ 0.02752637]
 [ 0.03634129]
 [-0.00035371]
 [ 0.01594408]
 [-0.05218562]
 [-0.05859804]
 [ 0.00873773]
 [ 0.00818914]
 [-0.00611778]
 [-0.06312284]
 [ 0.03735935]
 [-0.00124877]
 [ 0.05820515]
 [ 0.06566255]
 [-0.02389568]
 [-0.03712106]
 [ 0.01732684]
 [-0.0019404 ]
 [ 0.01930159]
 [-0.03594771]
 [-0.06124145]
 [-0.03667442]
 [-0.00513265]
 [ 0.05191296]
 [ 0.03683026]
 [-0.07808846]
 [ 0.06177945]
 [-0.00755981]
 [-0.05413109]
 [ 0.03087907]
 [-0.01140922]
 [-0.06676424]
 [ 0.01146202]
 [ 0.04038655]
 [ 0.00999807]
 [-0.01556606]
 [ 0.0180939 ]
 [-0.04274629]
 [-0.02873477]
 [ 0.00423716]
 [ 0.02594148]
 [-0.00619622]
 [-0.01239417]
 [ 0.0741988 ]
 [-0.06415203]
 [ 0.01536969]
 [-0.04550755]
 [-0.07127037]
 [-0.00321583]
 [-0.02395868]
 [ 0.0353203 ]
 [ 0.02239444]
 [ 0.03796851]
 [ 0.10415418]
 [-0.05831146]
 [-0.00152139]
 [ 0.03599908]
 [ 0.07046717]
 [-0.02114438]
 [-0.06865247]
 [ 0.01084014]
 [ 0.00299003]
 [-0.03795682]
 [ 0.00774904]
 [ 0.07792966]
 [ 0.03578892]
 [-0.05026545]
 [-0.05423741]
 [-0.00246488]
 [-0.00541356]
 [-0.00760431]
 [ 0.02217728]
 [-0.00090486]
 [ 0.05721055]
 [ 0.00181112]
 [ 0.03185156]
 [-0.0008687 ]
 [ 0.01380522]
 [ 0.04492629]
 [ 0.09962074]
 [ 0.03146653]
 [-0.03846979]
 [-0.03552539]
 [ 0.01417422]
 [ 0.05214028]
 [ 0.05784848]
 [ 0.06930873]
 [ 0.02232312]
 [-0.02668369]
 [-0.00078672]
 [ 0.06254303]
 [-0.01400393]
 [ 0.02709913]
 [ 0.0349906 ]
 [ 0.07472426]
 [-0.04691068]
 [ 0.02665295]
 [ 0.04753661]
 [ 0.00891773]
 [ 0.01198145]
 [ 0.030444  ]
 [ 0.05275736]
 [-0.05551533]
 [-0.0477965 ]
 [-0.03584829]
 [ 0.02511996]
 [-0.0004553 ]
 [-0.02915162]
 [-0.04275759]
 [ 0.02276978]
 [ 0.00742214]
 [ 0.00319726]
 [-0.0187102 ]
 [ 0.00799118]
 [ 0.0355872 ]
 [ 0.02120914]
 [-0.03005575]
 [-0.01274129]
 [ 0.03638788]
 [ 0.02720806]
 [ 0.01708408]
 [ 0.02012855]
 [ 0.00061748]
 [ 0.01838453]
 [-0.04832436]
 [-0.06095364]
 [-0.10436445]
 [ 0.00036729]
 [ 0.005909  ]
 [-0.04131692]
 [ 0.00148967]
 [ 0.00301932]
 [ 0.09745757]
 [-0.00480783]
 [-0.04773552]
 [-0.00837047]
 [-0.05892538]
 [ 0.00652937]
 [ 0.05798694]
 [-0.03429786]
 [ 0.03268046]
 [-0.09164731]
 [ 0.09310004]
 [ 0.02899537]
 [ 0.0471615 ]
 [-0.07913587]
 [ 0.08117133]
 [-0.03248314]
 [ 0.04137635]
 [-0.00273796]
 [ 0.06438309]
 [-0.00402214]
 [ 0.09351659]
 [ 0.05257016]
 [-0.02571528]
 [ 0.00558774]
 [-0.00393922]
 [ 0.09156873]
 [ 0.00074319]
 [-0.04991155]
 [-0.00492981]
 [ 0.03823754]
 [ 0.07035033]
 [ 0.03498949]
 [ 0.0087304 ]
 [ 0.04736493]
 [ 0.03902112]
 [-0.00033307]
 [-0.00650671]
 [ 0.10933948]
 [ 0.0271949 ]
 [-0.01624127]
 [-0.01398329]
 [ 0.00533027]
 [-0.01200884]
 [-0.06918871]
 [ 0.00247816]
 [-0.03316799]
 [-0.00022104]
 [ 0.00822149]
 [ 0.02553064]
 [ 0.05894763]
 [-0.1348557 ]
 [ 0.06522892]
 [ 0.07897251]
 [-0.00027586]
 [-0.00471154]
 [ 0.02250325]
 [ 0.02301797]
 [ 0.02393386]
 [-0.09696434]
 [ 0.10387389]
 [-0.01162114]
 [ 0.04352035]
 [-0.05699736]
 [-0.06856484]
 [ 0.05249216]
 [-0.01989494]
 [ 0.00971524]
 [ 0.03296572]
 [-0.02993044]
 [-0.00466216]
 [-0.04445707]
 [-0.0055916 ]
 [ 0.04415719]
 [-0.0388323 ]
 [-0.03717204]
 [ 0.02351176]
 [ 0.03822947]
 [ 0.02128938]
 [-0.06127735]
 [ 0.04992035]
 [-0.00643026]
 [ 0.06843396]
 [ 0.03510176]
 [-0.05569318]
 [ 0.0252763 ]
 [ 0.02510155]
 [-0.10011353]
 [ 0.04413602]
 [-0.05581761]
 [-0.01979011]
 [ 0.07361627]
 [-0.02021855]
 [ 0.0079331 ]
 [-0.00527193]
 [ 0.0195684 ]
 [-0.03915837]
 [-0.00517535]
 [ 0.0039297 ]]
